<?xml version="1.0"?>
<opencv_storage>
<my_svm type_id="opencv-ml-svm">
  <svm_type>C_SVC</svm_type>
  <kernel><type>LINEAR</type></kernel>
  <C>1.</C>
  <term_criteria><epsilon>2.2204460492503131e-016</epsilon>
    <iterations>1000000</iterations></term_criteria>
  <var_all>540</var_all>
  <var_count>540</var_count>
  <class_count>3</class_count>
  <class_labels type_id="opencv-matrix">
    <rows>1</rows>
    <cols>3</cols>
    <dt>i</dt>
    <data>
      -1 1 2</data></class_labels>
  <sv_total>3</sv_total>
  <support_vectors>
    <_>
      6.31272122e-002 -1.21036265e-002 -2.85866391e-002 1.79896876e-002
      8.14675703e-004 1.39124170e-001 5.43448254e-002 -1.46999266e-002
      8.68419036e-002 -5.70778400e-002 -5.12775965e-002 -5.36767878e-002
      3.93702835e-003 -8.92172828e-002 -5.88134788e-002 2.47563329e-002
      -6.54138103e-002 -7.23999813e-002 2.32181046e-003 7.99815133e-002
      6.21299930e-002 1.29479989e-001 1.45382769e-002 7.32506588e-002
      1.45888180e-001 -6.61281943e-002 -9.50603858e-002 -8.37087929e-002
      -8.09411798e-003 -1.66759104e-001 -2.77107693e-002 3.13773612e-003
      -5.01971990e-002 1.10316969e-001 -1.88213050e-001 -1.76147431e-001
      -1.87880304e-002 3.04302815e-002 1.37570038e-001 2.01585487e-001
      3.00441924e-002 -6.87223077e-002 4.64082584e-002 -1.96076417e-003
      -3.54360826e-002 -9.63753462e-002 -2.84595191e-002
      -7.42323473e-002 -4.06836683e-004 2.55843922e-002 -1.14142574e-001
      1.06983576e-002 -2.40370687e-002 -1.18392423e-001 4.19837236e-002
      -7.28142634e-002 2.68281065e-002 1.28664955e-001 -3.61062102e-002
      -1.13406904e-001 1.85038254e-003 4.64153811e-002 4.50550206e-002
      -1.24368742e-002 -1.06696054e-001 -1.06217720e-001
      -1.03120193e-001 2.35117599e-002 -1.73391163e-001 -1.39489006e-002
      1.03876568e-001 -4.14111875e-002 5.08568175e-002 5.11038909e-003
      -7.99021423e-002 2.44002324e-002 -6.00487851e-002 -9.33269262e-002
      3.61599028e-002 3.65628190e-002 -1.20192226e-002 9.23914239e-002
      -4.22192588e-002 -1.17082596e-001 -9.18138772e-002
      -2.61011664e-002 -1.24062166e-001 4.87943105e-002 3.67231406e-002
      6.06695339e-002 -4.92310971e-002 6.11328632e-002 -6.59600943e-002
      -1.13087058e-001 -7.89836496e-002 -6.28553033e-002 5.18273078e-002
      6.60853758e-002 -6.19474389e-002 9.63786319e-002 -4.33738902e-003
      -8.97267163e-002 -2.30540097e-001 -5.80933280e-002
      -1.35432839e-001 7.00028464e-002 -5.07556833e-002 9.45804715e-002
      -1.32568836e-001 2.02480834e-002 1.07487841e-002 -1.17060833e-001
      -6.21557757e-002 -1.14277918e-002 9.39990804e-002 4.08267006e-002
      -6.18699864e-002 1.68865360e-003 -6.91037858e-003 -2.53817048e-002
      -1.23879410e-001 -1.20977052e-001 -1.39139384e-001 2.14711446e-002
      -2.94179656e-003 8.48364756e-002 -2.75890473e-002 -6.89628907e-003
      1.99468993e-002 -3.92775312e-002 -4.19547521e-002 -9.11878496e-002
      6.21926822e-002 1.40368953e-001 3.15771662e-002 2.52928529e-002
      -8.14204812e-002 -1.41524643e-001 -1.90204442e-001
      -4.25126776e-002 -4.74388190e-002 8.91328603e-003 1.28375888e-001
      1.36168510e-001 -9.23282057e-002 -3.31826918e-002 -9.33282524e-002
      5.97690754e-002 -6.48861527e-002 -1.30055677e-002 7.11826682e-002
      8.69924277e-002 -3.94819528e-002 -3.99099961e-002 -4.27847207e-002
      -7.70379305e-002 -1.78031493e-002 -4.25178483e-002 3.03240381e-002
      5.66228619e-003 4.95402403e-002 7.04416037e-002 -1.15423098e-001
      -3.26241106e-002 -1.51611462e-001 7.49129653e-002 1.32307922e-003
      4.40713614e-002 5.59191927e-002 8.88629928e-002 -8.24369118e-002
      -6.72845170e-002 -8.99655337e-004 -1.09425649e-001 6.10341020e-002
      -4.79680300e-002 2.60056984e-002 9.70029235e-002 9.19787586e-002
      5.53847626e-002 -8.81009921e-002 -4.20378558e-002 -7.74693787e-002
      6.14718050e-002 -2.05170549e-003 6.02575988e-002 -2.45460719e-002
      9.43636894e-002 -6.57236800e-002 -3.36324349e-002 2.62999181e-002
      -4.32999656e-002 5.90415709e-002 -4.92748469e-002 5.66991009e-002
      4.99826297e-002 1.19427539e-001 5.49550764e-002 -7.06859455e-002
      -1.01535507e-001 -1.55624568e-001 9.17720571e-002 4.89301747e-003
      4.13171872e-002 3.88296656e-002 9.02903918e-003 -9.92361829e-002
      -7.03859925e-002 -8.65664333e-002 -1.13388196e-001 8.56848955e-002
      1.39574511e-002 1.21940598e-002 9.23165586e-003 7.41789564e-002
      -9.73535404e-002 -3.88373993e-002 -3.09641045e-002
      -1.54052675e-001 1.52245134e-001 -3.08708865e-002 1.14941359e-001
      4.15293053e-002 -3.42734880e-003 -9.92847756e-002 -5.40579148e-002
      -3.64670083e-002 -7.51227066e-002 1.53545395e-001 -2.85866577e-002
      7.50983804e-002 2.18202528e-002 1.42692737e-002 -8.36261511e-002
      -1.14245549e-001 -7.94664472e-002 -1.24479122e-001 2.47204304e-001
      -5.36632352e-002 1.83303386e-001 -2.22704727e-002 -2.21872050e-002
      -1.54124960e-001 -8.66372585e-002 -3.23087629e-003 8.41108784e-002
      2.25087047e-001 -5.28931990e-002 7.86152631e-002 4.79718763e-003
      -1.67206936e-002 -1.27659038e-001 -1.02838106e-001
      -3.47703956e-002 7.48570403e-003 1.47194117e-001 -3.89647633e-002
      8.61403048e-002 -3.78049444e-003 -3.11063547e-002 -1.05830818e-001
      -5.57160005e-002 -1.93353854e-002 9.16401371e-002 1.49086729e-001
      -9.86825749e-002 1.19046926e-001 6.05203398e-002 -2.02068407e-002
      -5.20509332e-002 -7.44037479e-002 3.34910117e-002 1.34138122e-001
      8.12087655e-002 -5.46490401e-002 2.12347019e-003 -2.32655816e-002
      -4.22248244e-002 -7.83411264e-002 2.06975751e-002 4.43452559e-002
      3.46653275e-002 4.54547442e-002 -7.48476237e-002 8.11313689e-002
      1.53889328e-001 -1.53023526e-002 -1.54047012e-002 -6.58682361e-002
      9.32439640e-002 1.34755950e-003 6.67473972e-002 -3.19862626e-002
      3.12291440e-002 -2.42607631e-002 -5.57545386e-002 -3.14725749e-002
      2.14687865e-002 1.16758145e-001 -9.32668149e-002 3.39378677e-002
      -8.65157917e-002 3.55995484e-002 2.59600170e-002 -2.75456663e-002
      -6.55207634e-002 -1.23711489e-002 2.23907545e-001 1.12307489e-001
      1.26549020e-001 -3.38361077e-002 -8.28734541e-004 -9.58054066e-002
      -9.84437838e-002 -5.56254983e-002 8.68638828e-002 1.62058324e-001
      -1.35741453e-003 1.08633995e-001 -9.02108848e-002 1.79977976e-002
      -8.00034106e-002 -3.37566398e-002 -9.01504382e-002
      -1.49794752e-004 8.35955516e-002 1.12810187e-001 1.71569511e-001
      -3.41039784e-002 1.51812918e-002 -4.54255454e-002 -1.19295217e-001
      -8.38354081e-002 -2.43015047e-002 1.15663111e-001 1.11306548e-001
      1.54525161e-001 -8.20513219e-002 -8.20187945e-003 1.16491625e-002
      7.51376152e-003 -5.64101413e-002 -5.63714765e-002 -4.04631943e-002
      -4.93510510e-004 2.04557300e-001 -4.54823487e-002 1.41998641e-002
      1.95894465e-002 -1.32011041e-001 -1.35193780e-001 -1.24043532e-001
      -3.90530191e-003 -1.09049948e-002 1.21388339e-001 -5.26353568e-002
      -4.67916131e-002 4.38716374e-002 -1.27913758e-001 -1.40311897e-001
      -3.95574719e-002 3.05892364e-003 -2.51323488e-002 1.08838171e-001
      -2.78462917e-002 4.26552817e-003 -1.07427679e-001 -1.07153863e-001
      -5.42488359e-002 -7.79454857e-002 -2.84076817e-002
      -7.04180673e-002 -1.15175883e-003 1.19672045e-002 7.17823505e-002
      3.56586203e-002 -2.07100943e-001 -1.11405581e-001 -4.61695204e-003
      -1.13120573e-002 4.55508754e-003 4.46303077e-002 2.91432068e-002
      -1.66820735e-002 -1.47946745e-001 -6.27451688e-002 2.10440289e-002
      -7.02466890e-002 -1.51293715e-002 -2.87534650e-002
      -4.70485017e-002 3.49454470e-002 4.85590249e-002 2.44695488e-002
      -5.29018231e-002 -6.66394383e-002 6.50027394e-002 5.13425982e-003
      9.72245540e-003 7.36361593e-002 -8.48417263e-003 -7.97705427e-002
      -5.89501075e-002 -1.22342445e-002 6.67734677e-003 -1.09905424e-002
      8.87018221e-004 2.40309481e-002 -1.54563878e-002 -8.40947032e-003
      3.13918553e-002 1.03578186e-002 6.67660078e-003 -6.64761513e-002
      3.41922902e-002 4.21206243e-002 -2.37970408e-002 5.73041700e-002
      -4.73491810e-002 -1.63996115e-001 -7.46402517e-002 7.59714330e-003
      -9.20911506e-002 -3.39316502e-002 4.58381511e-002 -1.25425346e-002
      -1.01996802e-001 -8.35680440e-002 -6.56915605e-002 4.67969663e-002
      7.22343847e-002 -4.28416207e-002 6.64128037e-003 1.12420563e-002
      -9.35082063e-002 -6.02391623e-002 -1.34358676e-002
      -1.24906898e-001 -8.57676193e-002 5.65805100e-002 3.56564089e-003
      -6.87771142e-002 6.93604723e-002 -3.91827747e-002 -8.68377090e-002
      -6.18107282e-002 -3.58909629e-002 2.80098021e-002 1.18251562e-001
      3.33988816e-002 -3.35393697e-002 4.22644652e-002 -1.10951073e-001
      -3.73880216e-003 -3.93432984e-003 -7.48879761e-002
      -3.55985425e-002 5.56006038e-004 -6.19113445e-002 -7.96300545e-003
      1.58119217e-001 -2.52526328e-002 4.10080440e-002 -4.46440727e-002
      -9.01490301e-002 2.54657436e-002 -6.12681285e-002 -5.15825748e-002
      1.78246815e-002 5.67429401e-002 -3.63811776e-002 1.80596788e-003
      -1.27650052e-003 7.22559309e-003 2.08413247e-002 1.67294778e-002
      -1.96552854e-002 -4.38317060e-002 7.52771050e-002 -4.00108323e-002
      1.89180486e-002 -3.89199257e-002 -3.12836394e-002 1.74580347e-002
      -1.29496520e-002 -2.19911989e-002 2.00769491e-002 8.11345223e-003
      -6.70021474e-002 3.92915979e-002 -5.68871275e-002 -3.60236540e-002
      -4.10470814e-002 3.17567848e-002 6.82864487e-002 -1.05504192e-001
      -1.96515527e-002 -6.98525682e-002 -2.72177011e-002
      -2.62375921e-002 5.79818077e-002 5.59573527e-003 1.09302737e-002
      -3.37991156e-002 1.87801793e-002 -2.41264328e-002 -1.06153600e-001
      -6.22664131e-002 -2.74326373e-002 -4.15553004e-002
      -8.51529166e-002 -5.01377415e-003 -4.38963994e-002
      -3.92809659e-002 -6.63711354e-002 -2.99763065e-002
      -4.50876169e-002 -1.96524840e-002 -8.37337784e-003
      -1.26211375e-001 -5.81281930e-002 -1.56324789e-001 1.61663368e-001
      1.49296261e-002 1.52249821e-002 -4.99254614e-002 4.55336757e-002
      4.00710143e-002 2.23425571e-002 3.83421741e-002 -1.46730505e-002
      4.80377823e-002 -5.64705906e-003 6.34043217e-002 -3.45531628e-002
      5.38226636e-003 1.42408274e-002 -3.75232589e-003 -3.05314939e-002
      -4.13807929e-002</_>
    <_>
      6.09034970e-002 2.28234865e-002 4.14015278e-002 -4.33467850e-002
      -6.89069042e-003 1.08048461e-001 5.93161359e-002 -1.35964509e-002
      9.93056595e-002 -1.33694246e-001 -5.30861393e-002 -1.25292376e-001
      -7.60048628e-002 -8.42635706e-002 -3.20549682e-002
      -2.84218956e-002 -6.74084872e-002 -1.07217759e-001
      -9.20865536e-002 1.18754536e-001 1.89925194e-001 6.70924559e-002
      1.29562497e-001 1.21379785e-001 2.38623992e-001 -2.44585797e-002
      -1.26047254e-001 -1.33434579e-001 3.13332565e-002 -9.35886577e-002
      -1.18631713e-001 9.67017338e-002 -8.77954718e-003 1.57903194e-001
      -1.43551556e-002 -1.73252359e-001 -4.49779145e-002 4.80472110e-002
      1.89306319e-001 1.87300116e-001 1.54856578e-001 2.40075737e-002
      6.98233023e-002 -5.79799749e-002 -3.91635448e-002 -8.17173123e-002
      -4.76149209e-002 1.95250548e-002 -8.07087570e-002 1.12394892e-001
      -7.04561099e-002 7.97765553e-002 1.64348632e-002 -1.18572824e-001
      7.73089603e-002 1.13912569e-002 5.87101318e-002 1.32436574e-001
      -2.09170729e-002 -1.61493838e-001 -2.32238602e-002
      -1.99888889e-002 2.62131616e-002 -2.86110286e-002 -6.12824820e-002
      -1.81105044e-002 -1.25153691e-001 6.03194274e-002 -1.71533883e-001
      -6.23782836e-002 2.65823603e-002 -9.57361609e-002 4.95622307e-002
      3.80372740e-002 -1.61998980e-002 6.21947460e-002 -3.14376466e-002
      -8.21137428e-002 3.91243361e-002 4.60751392e-002 -6.37344122e-002
      -6.14939481e-002 -4.85834628e-002 -2.43557952e-002
      -1.58664972e-001 5.25649861e-002 -1.26653895e-001 -2.21981425e-002
      3.95412594e-002 -5.44270389e-002 8.06699973e-003 2.14336365e-002
      9.52334702e-003 -5.08807637e-002 -4.65004928e-002 -8.14202279e-002
      5.92580400e-002 1.19653068e-001 -7.28688538e-002 -1.60531830e-002
      -8.89703110e-002 -2.21047066e-002 -2.31244192e-001
      -1.73048628e-003 -6.26064166e-002 1.18693464e-001 9.75250304e-002
      2.14616340e-002 -3.81991826e-002 1.69604439e-002 7.28443190e-002
      -5.51291443e-002 -5.43199554e-002 -1.02595799e-001 8.57084990e-002
      1.03162050e-001 -4.21625525e-002 3.01027056e-002 2.82847858e-003
      -2.30059102e-002 -1.37149870e-001 -7.45510384e-002
      -9.08611268e-002 7.07142726e-002 8.83284807e-002 7.94855431e-002
      -4.11368497e-002 9.42946970e-003 2.41675749e-002 -5.70120364e-002
      -4.99120466e-002 -4.76677231e-002 1.31894320e-001 1.11849830e-001
      -7.49389753e-002 -2.77706496e-002 -2.32822634e-002
      -1.64518014e-001 -2.29218528e-001 -2.33050343e-002
      -3.48654166e-002 7.42043927e-002 9.31288898e-002 1.05182782e-001
      -9.12938267e-002 -4.11190875e-002 -1.04588769e-001 8.16510804e-003
      -2.52821203e-002 8.58819932e-002 1.93204403e-001 9.57176313e-002
      -2.81930733e-002 8.69400986e-003 8.54442827e-003 -1.70701772e-001
      -2.53635533e-002 -3.10844276e-002 6.34738654e-002 1.54677406e-001
      2.68135313e-003 3.42089012e-002 -4.89530265e-002 -1.45238899e-002
      -2.08604589e-001 -1.56748400e-003 -2.24146936e-002 6.75889701e-002
      1.29668579e-001 1.72079816e-001 7.89877586e-003 1.12248741e-001
      1.22875750e-001 -1.49854690e-001 7.35560060e-002 -4.33674306e-002
      -1.00733593e-001 1.10475689e-001 5.44811413e-002 6.99420273e-002
      3.27576846e-002 -2.89967377e-002 -3.77672166e-002 9.11773890e-002
      2.33828537e-002 -3.90170477e-002 -2.65781116e-002 1.37751848e-001
      2.72166412e-002 1.39072344e-001 3.56086828e-002 -3.53423394e-002
      1.21204697e-001 -7.57120922e-002 -1.06330730e-001 -1.79732926e-002
      4.48567793e-002 8.93199444e-002 1.14911124e-002 -5.04094586e-002
      -4.52610776e-002 7.42484257e-002 4.76499647e-003 -1.37087613e-001
      8.52625072e-002 5.45005500e-002 9.18181892e-003 1.11064792e-001
      -8.06955174e-002 -1.54031917e-001 7.65754580e-002 -9.07422509e-003
      -8.42539370e-002 -3.18232700e-002 -4.37722765e-002 2.74928659e-002
      3.27061899e-002 -1.34640820e-002 -9.52056646e-002 5.31752594e-002
      5.93890343e-003 4.03563380e-002 1.01233386e-001 1.05770212e-003
      1.00666173e-002 8.94560516e-002 -5.27878068e-002 -2.19886795e-001
      -3.88925038e-002 -4.54999022e-002 3.23900394e-002 3.53599899e-002
      -8.49858578e-003 3.14147398e-002 -8.69912654e-003 -1.19040929e-001
      -4.56104167e-002 1.16088510e-001 1.07014393e-002 1.48572132e-001
      3.50435935e-002 -3.54708917e-002 -1.73322838e-002 2.30973400e-002
      -5.72639816e-002 -5.32575846e-002 -1.19810207e-002
      -1.99216641e-002 7.47957826e-002 4.90024239e-002 -3.43204141e-002
      4.10223715e-002 -2.59193988e-003 -8.98188800e-002 -6.36132061e-002
      5.01117334e-002 5.84607422e-002 8.79388452e-002 -2.88969139e-004
      -2.71326602e-002 -3.85072432e-003 3.35032791e-002 -4.42543589e-002
      8.99911951e-003 -1.02581412e-001 1.84067860e-002 2.84509752e-002
      -1.93705782e-002 -8.85250717e-002 2.98768710e-002 2.20680553e-002
      -2.98563801e-002 5.37002273e-002 7.38970786e-002 3.80024128e-002
      -7.07981270e-003 2.90546380e-002 -2.53008530e-002 4.23441716e-002
      8.31707418e-002 -4.53101583e-002 -4.57073934e-003 -1.38162345e-001
      1.50549496e-002 -8.84873718e-002 7.22725540e-002 -3.51343788e-002
      9.58820879e-002 -2.43665483e-002 -1.84291806e-002 3.37362662e-002
      9.87836793e-002 3.28385420e-002 -8.88193899e-005 2.01171599e-002
      -9.76453885e-004 6.84995502e-002 5.91616482e-002 5.13505489e-002
      -6.13966025e-002 -1.04434952e-001 -4.90831397e-002
      -1.79893762e-001 1.03559541e-002 2.14551110e-002 6.01017103e-002
      4.59310301e-002 1.30273402e-001 1.24969587e-001 7.36040697e-002
      -1.40640736e-002 -3.65516245e-002 -7.55298533e-005 7.04828153e-007
      7.71801844e-002 1.45491004e-001 1.89139724e-001 2.97681484e-002
      -8.24929588e-003 -5.88404201e-002 -1.21765822e-001
      -6.10719770e-002 5.21866083e-002 2.11943174e-003 3.99244316e-002
      1.13133751e-001 1.13746434e-001 1.38546452e-001 2.46145036e-002
      -1.72944483e-003 3.16262916e-002 -2.65296269e-002 3.21868919e-002
      4.49798480e-002 1.17987946e-001 7.63625279e-002 3.20527926e-002
      -2.06378680e-002 -1.65299982e-001 -3.55363451e-002 3.86483818e-002
      2.66854689e-002 4.29565646e-002 2.35848948e-002 8.10807124e-002
      2.01789439e-001 -2.23489162e-002 -8.92251134e-002 -5.40835299e-002
      -5.74274100e-002 2.79096235e-002 8.66006035e-003 -4.37588505e-002
      1.79183688e-002 -8.51402655e-002 -7.33227059e-002 -1.83791131e-001
      -5.69708832e-002 -4.56173196e-002 4.65830527e-002 6.30899444e-002
      3.88031900e-002 9.80656818e-002 1.17559388e-001 -5.97722903e-002
      -5.89073822e-002 -8.09191167e-002 -4.45927493e-003 7.39358589e-002
      6.11252449e-002 2.75744684e-002 1.23121023e-001 -1.75162613e-001
      -8.70909095e-002 -4.42921296e-002 -1.29303327e-002 3.34644667e-003
      8.02490786e-002 2.32203752e-002 3.86535339e-002 -4.87629231e-003
      2.79080588e-002 -4.93412949e-002 5.24240471e-002 -2.35281866e-002
      4.77029122e-002 1.02257796e-001 4.35334332e-002 5.79641946e-002
      -8.32877494e-003 -1.80668756e-001 -4.98456657e-002
      -1.63188786e-004 3.94036323e-002 5.00872806e-002 6.06989637e-002
      4.09175530e-002 5.04855029e-002 1.80145819e-002 8.65011141e-002
      -2.29953155e-002 -2.47825719e-002 1.61630791e-002 3.98949645e-002
      5.33414036e-002 -4.42123506e-003 4.60909121e-002 -1.18977521e-002
      -8.35712850e-002 -2.02219691e-002 -1.81567632e-002 6.86183572e-002
      -3.12523507e-002 -4.06919606e-002 3.17336619e-002 7.76809007e-002
      2.08051726e-002 1.01335958e-001 2.87382528e-002 -4.61118780e-002
      -2.02392992e-002 2.63260175e-002 2.42892676e-003 -8.39825347e-002
      5.09428456e-002 -3.20137963e-002 -5.29982634e-002 -4.89735939e-002
      -1.56808868e-001 -3.31367850e-002 -6.94229007e-002
      -3.53954621e-002 7.31057599e-002 2.61178054e-002 -3.90326604e-002
      7.47078359e-002 1.10260360e-001 -6.17350079e-002 -8.22098032e-002
      1.27870971e-002 5.95605187e-002 -8.33869800e-002 -7.76201999e-003
      -5.10777496e-002 5.56694642e-002 -6.16884679e-002 -1.98535725e-001
      -7.45867640e-002 3.41715105e-002 1.20831821e-002 9.39647928e-002
      -2.22065151e-002 -9.48734432e-002 9.63670537e-002 1.07877150e-001
      5.16089574e-002 -6.24796264e-002 3.67067866e-002 6.85040727e-002
      1.64016671e-002 1.98484547e-002 -6.84246793e-002 3.91228497e-002
      -6.26526214e-003 -9.41738412e-002 -1.01604506e-001 8.49749148e-003
      1.28848907e-002 2.42722221e-002 -6.07853085e-002 -1.02972880e-001
      -2.10481603e-002 -3.03165452e-003 1.02074303e-001 -2.20877938e-002
      5.66809624e-002 2.39841677e-002 -1.18075021e-001 -4.00854088e-002
      -1.14526019e-001 -5.72925657e-002 -9.36001688e-002 8.54619592e-002
      -1.00784093e-001 -1.40287504e-002 -1.22657493e-001 1.43615022e-001
      6.59670681e-002 1.61113162e-002 2.28256509e-002 2.26013847e-002
      8.38332325e-002 5.49414121e-002 6.28874227e-002 1.74487472e-001
      -7.08517656e-002 9.77663025e-002 7.13407248e-002 3.97241749e-002
      2.94782827e-003 1.35495022e-001 -7.68797332e-003 7.11301938e-002
      4.59818281e-002 1.03526987e-001 6.36552125e-002 7.35618919e-003
      -1.05792433e-001 3.62993889e-002 -2.40381062e-002 1.21553391e-002
      6.01687422e-003 2.88410690e-002 -1.12604924e-001 -2.18950566e-002
      5.66278435e-002 -6.59209117e-002 1.92193557e-002 -7.14588091e-002
      -8.53142664e-002 -5.91218174e-002 -7.86032230e-002 6.36123270e-002
      3.50487381e-002 7.71168107e-003 -6.71278164e-002 4.13932241e-002
      -2.74947286e-002 3.59113291e-002 4.43649516e-002 -2.11516898e-002
      -4.74890210e-002 -9.60488766e-002 -5.97506948e-002
      -9.59192440e-002 -1.24764591e-002 -1.49163874e-002 5.89140058e-002
      -2.34597865e-002 2.17322097e-003</_>
    <_>
      3.39527950e-002 -4.88791754e-003 3.57836485e-002 -8.71520713e-002
      2.45920243e-003 -3.85988615e-002 -1.20459087e-002 -1.75925735e-002
      -2.13833200e-003 -9.64999944e-002 -3.92682254e-002
      -7.48021826e-002 -8.95473212e-002 2.30210721e-002 3.75746898e-002
      -4.27761525e-002 -1.50642656e-002 -7.71284476e-002
      -5.00357188e-002 -1.95626356e-002 6.87639415e-002 -1.23459272e-001
      9.57843885e-002 6.67780638e-002 6.92890659e-002 2.23001242e-002
      -2.65619345e-002 -4.85955514e-002 -2.13695969e-002 4.73048948e-002
      -7.87918195e-002 1.19387425e-001 2.35805716e-002 3.81122418e-002
      1.76152140e-001 -1.85615495e-002 -2.50272136e-002 8.34275968e-003
      2.83688754e-002 -3.57303135e-002 1.05943404e-001 8.33335966e-002
      -1.08418763e-002 -5.92820793e-002 -2.02455558e-002 2.28296760e-002
      -2.72066835e-002 9.75505635e-002 -6.57593310e-002 9.91530865e-002
      6.15340844e-002 3.85161936e-002 5.39074987e-002 -5.69667155e-003
      9.03770141e-003 5.82504235e-002 2.59894319e-002 1.63088553e-003
      1.58566367e-002 -3.90985981e-002 -9.16939005e-002 -7.97674805e-002
      -3.48968133e-002 1.01094646e-002 3.33938748e-002 1.29069597e-001
      1.59345232e-002 5.35446815e-002 2.38320157e-002 -8.34068805e-002
      -7.78632164e-002 -2.16286723e-002 -3.22236074e-003 9.15832538e-003
      5.43236658e-002 6.09947294e-002 4.44710441e-002 1.33633316e-002
      -7.29277655e-002 -1.34956520e-002 -3.50396410e-002
      -1.12073354e-001 -1.36023192e-002 8.91185626e-002 -2.33540721e-002
      5.54293506e-002 -3.72511707e-002 -1.19592071e-001 -2.25940929e-003
      -7.27864131e-002 5.17798401e-002 -6.75107539e-002 4.72898781e-002
      1.22270577e-001 3.84106115e-002 -1.54528860e-002 -3.18392441e-002
      5.28954202e-003 1.72894802e-002 -1.09439097e-001 -9.96882841e-002
      4.76418473e-002 6.74246475e-002 3.30620594e-002 4.63467266e-004
      2.48779561e-002 1.30556077e-001 -6.59770519e-002 6.94156513e-002
      -2.94244736e-002 1.32926777e-002 9.16379765e-002 4.46519768e-003
      -5.35861813e-002 -2.64559165e-002 3.63607742e-002 2.07344759e-002
      4.47933143e-003 3.27276206e-003 -5.07808244e-003 2.48971358e-002
      6.95539406e-003 2.12840028e-002 1.05296662e-002 7.66434446e-002
      -3.18105407e-002 3.63992015e-003 -4.27445211e-003 -4.26591299e-002
      7.76330195e-003 -8.22931901e-003 5.39396331e-002 7.54866097e-003
      -2.91663762e-002 -6.63756579e-002 -1.49635971e-002 5.16370572e-002
      -3.05702854e-002 2.91710664e-002 9.05996654e-003 4.27037738e-002
      -1.40695209e-002 -2.01358786e-003 7.99663272e-003 -2.48890333e-002
      -9.24359076e-003 -1.60310585e-002 -3.08583062e-002 4.55576442e-002
      5.54516427e-002 6.72038123e-002 -6.13900647e-003 4.41093743e-003
      3.05977538e-002 4.35365364e-002 -7.01076016e-002 6.03021495e-003
      -7.63987191e-003 2.13277638e-002 8.76664445e-002 -2.72966065e-002
      -9.24533792e-003 4.66453657e-002 2.85668001e-002 -2.48455573e-002
      -2.67301276e-002 -1.07742669e-002 -1.79479900e-003 6.85182735e-002
      4.73398194e-002 8.31192136e-002 1.53801695e-001 1.01623617e-001
      -5.31254523e-003 -1.30245611e-002 8.60543572e-004 -1.26427233e-001
      -1.54622542e-002 -3.58049534e-002 4.59197350e-002 9.51911807e-002
      1.87241808e-002 1.37031218e-002 2.67649293e-002 5.07844277e-002
      -1.15230307e-001 -6.55050995e-003 -9.66259185e-003 6.71223179e-002
      1.72354952e-001 1.15647428e-002 -2.31731380e-003 4.22190502e-002
      -2.05770833e-003 -1.82816535e-001 -9.75648612e-002
      -1.01233892e-001 2.42172349e-002 4.52706702e-002 7.16945902e-002
      1.05226167e-001 -1.03527084e-002 3.73500735e-002 -1.74323156e-001
      1.41547965e-002 -2.41997298e-002 6.12432770e-002 1.89342275e-001
      4.23666388e-002 -1.70147195e-002 -1.95968412e-002 -8.62087181e-004
      -1.24882028e-001 -4.33509797e-002 -1.42912015e-001 1.16014808e-001
      2.13717744e-002 1.82715580e-002 4.98384982e-002 -9.08282697e-002
      5.95813580e-002 -8.11023787e-002 6.91077411e-002 -2.11138856e-002
      7.22835511e-002 1.15396775e-001 -1.50780296e-002 -1.11044221e-001
      -1.94550261e-001 -6.28202921e-003 -6.63559958e-002 2.99035404e-002
      -2.76429765e-002 1.29080981e-001 4.88860942e-002 -5.76657541e-002
      9.44146067e-002 -1.01611152e-001 8.89970288e-002 -6.42791316e-002
      5.63951619e-002 9.08009987e-003 9.98484641e-002 7.58726224e-002
      -5.70187122e-002 -8.36566687e-002 -2.16278046e-001 4.91890535e-002
      3.55898379e-003 7.35663772e-002 1.94155313e-002 1.49663776e-001
      6.74838200e-002 -6.39851317e-002 -6.06172159e-002 -1.02242030e-001
      1.42252132e-001 -5.69213144e-002 -3.31723914e-002 1.58792511e-002
      7.90340379e-002 6.12790398e-002 -2.71955840e-002 -6.82509318e-002
      -2.34821662e-001 1.40445784e-001 -9.30836275e-002 -5.73678575e-002
      -5.10919392e-002 5.11736982e-002 7.70074800e-002 -8.03503469e-002
      -3.61752920e-002 -1.69113223e-002 1.27222911e-001 -4.97631095e-002
      -1.65277775e-002 2.39010733e-002 9.22148600e-002 4.32533808e-002
      -8.61780047e-002 -1.15105519e-002 -1.66377202e-001 1.17541619e-001
      -1.54463261e-001 -9.98130366e-002 -1.79122612e-002 9.20979008e-002
      1.27230100e-002 -1.38981715e-001 6.61636740e-002 3.36491540e-002
      9.14264321e-002 -7.45303780e-002 5.69385663e-003 5.42676486e-002
      8.09060261e-002 6.13957783e-003 -7.52209574e-002 8.68262127e-002
      -1.28534392e-001 4.49004695e-002 -1.98670566e-001 -4.21521105e-002
      2.25772541e-002 1.17919408e-001 4.35721576e-002 -9.32984948e-002
      4.99427728e-002 -1.09537542e-001 4.48628180e-002 -4.21710983e-002
      6.77653551e-002 5.84180839e-002 1.24036483e-001 3.36456895e-002
      4.90708612e-002 6.60205111e-002 -1.56578645e-001 3.54955308e-002
      -8.33207145e-002 2.78072618e-002 5.83192669e-002 7.47243762e-002
      4.48950939e-002 4.96939048e-002 3.71749811e-002 -8.97140056e-002
      6.63841888e-002 -9.30401729e-004 5.69720678e-002 6.85803145e-002
      9.30952802e-002 7.37030953e-002 3.22004296e-002 2.39879545e-002
      -1.48529753e-001 3.81746218e-002 -9.87518504e-002 -1.59164537e-002
      3.24247964e-002 8.24591592e-002 1.12237267e-001 1.05026811e-001
      1.31127015e-001 -4.78132591e-002 1.03605110e-002 -6.82720840e-002
      -9.83392298e-002 1.94852166e-002 1.54376671e-001 1.34836987e-001
      -1.40774297e-002 1.16702773e-001 -1.67555794e-001 -4.14734147e-002
      -1.30423889e-001 -1.13197222e-001 6.93077520e-002 1.79927766e-001
      1.21690385e-001 4.39127088e-002 1.31458059e-001 -2.94654537e-002
      -6.92014247e-002 -2.47061979e-002 2.78964937e-002 1.06055737e-001
      1.51677594e-001 1.50564373e-001 6.70174435e-002 2.20917955e-001
      -1.18758075e-001 -1.24116972e-001 -1.17156439e-001
      -5.40909097e-002 2.40151227e-001 2.11559415e-001 5.13023734e-002
      4.77476232e-002 2.33351160e-002 -4.62214574e-002 -1.15329914e-001
      9.51265320e-002 1.55832216e-001 1.33349717e-001 1.22965008e-001
      1.08075626e-001 1.01545647e-001 6.20081984e-002 -1.13265984e-001
      -1.23520151e-001 -7.50221610e-002 6.83600828e-002 1.44943878e-001
      1.32975563e-001 -5.99337416e-003 3.84592339e-002 2.77827196e-002
      6.76784059e-003 -1.66737791e-002 4.28739153e-002 8.38621929e-002
      4.36568670e-002 6.40042573e-002 -1.61402412e-002 6.52815178e-002
      2.82894652e-002 -1.76434382e-003 -2.34894771e-002 -1.23710692e-001
      7.45279193e-002 -4.72953282e-002 -8.67967121e-003 2.25771195e-003
      2.36346200e-002 4.55309153e-002 6.33135438e-002 7.63653889e-002
      8.14582929e-002 4.11516055e-002 1.36146313e-002 7.50542954e-002
      -9.07198787e-002 3.22358795e-002 1.18364114e-002 8.74710381e-002
      3.31715569e-002 -1.33039236e-001 -9.72784311e-002 -1.63274392e-001
      -4.06825915e-002 8.11952427e-002 -4.36075544e-003 3.14599574e-002
      1.08090557e-001 1.47816092e-001 3.65473107e-002 -3.26981914e-004
      -2.65602395e-002 6.10048249e-002 -4.69613411e-002 -5.20307533e-002
      -2.55112145e-002 8.13969299e-002 -1.56141119e-003 -1.47699952e-001
      -9.26528648e-002 -7.36309886e-002 -2.99690627e-002 1.00387216e-001
      -9.00867954e-002 -1.83937401e-002 6.53643310e-002 1.09698333e-001
      9.47660580e-002 -2.06722170e-002 1.48765659e-002 9.70689878e-002
      -3.04095615e-002 -1.44431219e-001 -8.25288519e-002
      -5.78415357e-002 2.78403815e-002 6.29189238e-002 -5.66190258e-002
      7.01516345e-002 5.59256366e-003 -1.04609330e-003 -1.34386435e-001
      -9.67457145e-002 -1.61105990e-002 2.97884196e-002 9.27225500e-002
      -2.55046673e-002 2.83588432e-002 3.36743966e-002 -8.20107460e-002
      -1.05644412e-001 -9.64290649e-002 -7.03005269e-002
      -2.20717601e-002 1.45600930e-001 -4.82281297e-002 9.14175157e-003
      -1.46931514e-001 7.91729912e-002 2.21283245e-003 3.02272215e-002
      1.61763765e-002 1.22460462e-001 1.07152268e-001 6.13015890e-002
      9.67256166e-003 6.77714124e-002 1.66273664e-003 8.99836197e-002
      6.01546206e-002 6.47496209e-002 5.83290271e-002 6.08455241e-002
      -1.63556840e-002 4.47517894e-002 1.51734166e-002 3.20582837e-002
      2.31454112e-002 8.75841379e-002 -2.37613562e-002 1.04286768e-001
      -3.93743068e-003 5.18095084e-002 -2.48182081e-002 5.52985892e-002
      -9.31730941e-002 1.02031855e-002 3.06514408e-002 -3.93869057e-002
      9.90847200e-002 -7.04367831e-002 2.39792783e-002 -3.93164158e-002
      3.25185806e-002 -1.37653634e-001 -2.06997152e-002 -3.13399383e-003
      1.35492627e-002 3.62254940e-002 -8.93264189e-002 1.31405406e-002
      -2.59306375e-002 -5.32101616e-002 -1.07781574e-001
      -1.04732595e-001 -1.12201944e-001 -3.43427025e-002 4.16240245e-002
      -3.07862796e-002 1.04281224e-001 8.35865852e-004 3.32945175e-002</_></support_vectors>
  <decision_functions>
    <_>
      <sv_count>1</sv_count>
      <rho>-6.3389370053132921e-001</rho>
      <alpha>
        1.</alpha>
      <index>
        0</index></_>
    <_>
      <sv_count>1</sv_count>
      <rho>-2.2325689032925222e-001</rho>
      <alpha>
        1.</alpha>
      <index>
        1</index></_>
    <_>
      <sv_count>1</sv_count>
      <rho>3.2140439481448407e-001</rho>
      <alpha>
        1.</alpha>
      <index>
        2</index></_></decision_functions></my_svm>
</opencv_storage>
