<?xml version="1.0"?>
<opencv_storage>
<my_svm type_id="opencv-ml-svm">
  <svm_type>C_SVC</svm_type>
  <kernel><type>LINEAR</type></kernel>
  <C>1.</C>
  <term_criteria><epsilon>2.2204460492503131e-016</epsilon>
    <iterations>100000</iterations></term_criteria>
  <var_all>540</var_all>
  <var_count>540</var_count>
  <class_count>5</class_count>
  <class_labels type_id="opencv-matrix">
    <rows>1</rows>
    <cols>5</cols>
    <dt>i</dt>
    <data>
      -1 1 2 3 4</data></class_labels>
  <sv_total>10</sv_total>
  <support_vectors>
    <_>
      3.32405046e-002 -2.60222942e-001 -3.30772221e-001 7.89445117e-002
      -1.41559085e-002 2.19417155e-001 1.41354399e-002 -3.73291969e-002
      8.23127925e-002 1.82739347e-002 -5.29273301e-002 -2.73553401e-001
      2.60212421e-001 -1.57289222e-001 1.04426719e-001 -3.13117594e-001
      -3.05091590e-001 -2.42900383e-003 -3.31760310e-002 2.05489881e-002
      -1.92220360e-001 2.05133423e-001 1.62744969e-001 1.30895944e-002
      2.02188209e-001 8.22015852e-002 -1.26643404e-002 -5.84572442e-002
      1.76332109e-002 -3.76039624e-001 1.27608776e-001 1.05567090e-001
      8.68417770e-002 1.79628283e-002 -2.98209727e-001 1.06560603e-001
      -9.72404033e-002 2.15813462e-002 -8.79133940e-002 2.09048674e-001
      1.36588007e-001 -9.03225988e-002 9.74222720e-002 7.43246749e-002
      4.03807648e-002 -1.67822987e-001 -3.51072662e-002 -2.82355845e-001
      -6.78005256e-003 1.46528512e-001 -9.61015746e-002 -3.02950978e-001
      -5.62824830e-002 5.71079105e-002 -1.63364962e-001 -5.77871501e-002
      -1.88498929e-001 9.31714475e-002 1.48682103e-001 -1.71107724e-001
      1.12521194e-001 9.38118622e-002 -2.21374072e-002 -1.38297498e-001
      6.45662621e-002 -1.12316914e-001 -1.08679838e-001 1.21345818e-001
      -8.59451145e-002 -2.46301293e-001 -1.22417681e-001
      -2.58245086e-003 -6.19247295e-002 -9.48733091e-002
      -2.08675325e-001 5.47380075e-002 -9.02220979e-002 -1.33551478e-001
      1.14855416e-001 2.52070017e-002 1.01358804e-003 1.68295473e-001
      1.34166673e-001 -1.10406674e-001 -1.81059614e-001 -5.17049693e-002
      1.08545691e-001 -2.75180787e-001 -1.27716020e-001 1.22555330e-001
      -1.18782870e-001 -4.54479083e-002 -1.65848047e-001
      -1.22220688e-001 -3.47888879e-002 4.11535501e-002 1.89829722e-001
      8.55377689e-002 -2.41628215e-001 1.82634756e-001 1.35740638e-001
      -3.36020321e-001 -2.35265091e-001 1.96721945e-002 5.40015064e-002
      -1.26373827e-001 -2.04958349e-001 4.08243388e-002 -2.28211150e-001
      -7.28538930e-002 -1.99813843e-001 -8.79975185e-002
      -9.85687077e-002 -9.46236625e-002 1.19863495e-001 7.90973455e-002
      -2.01130360e-001 7.79039860e-002 -3.53528410e-002 -3.26692909e-001
      2.11223532e-002 9.53611135e-002 -3.50660115e-001 -1.85474187e-001
      -1.86394766e-001 -2.63016615e-002 -2.92783350e-001
      -2.16475651e-001 -1.50248557e-001 1.45165235e-001 1.09768949e-001
      -1.13115452e-001 8.13155994e-002 1.40154779e-001 -4.67091203e-002
      -2.07605645e-001 -2.59789467e-001 -3.15583497e-001
      -7.43311942e-002 9.58855897e-002 -1.44058047e-002 9.50797424e-002
      1.59007963e-002 -6.47505149e-002 -3.14859688e-001 -9.05937329e-002
      -5.37812449e-002 8.63453671e-002 -1.49476409e-001 -3.27368788e-002
      1.04284525e-001 -1.26052231e-001 -1.77340150e-001 -3.20347369e-001
      -1.03033490e-001 1.82703286e-002 -4.56984118e-002 -1.00414507e-001
      4.37590599e-001 9.57657397e-002 -3.36806029e-002 -1.38618574e-001
      -8.22598189e-002 -4.09917766e-003 -1.64671600e-001 9.24324095e-002
      -4.03874889e-002 -1.22063868e-001 1.56162903e-001 -2.21403763e-001
      -2.19013020e-001 -6.58462942e-002 8.10735077e-002 -1.46693319e-001
      1.86400309e-001 -1.04258835e-001 1.64009273e-001 5.87410033e-002
      -6.78138509e-002 -9.49661508e-002 -5.54932207e-002
      -4.38230857e-002 -6.66527972e-002 1.04733236e-001 -3.47211282e-003
      1.18796661e-001 1.17093056e-001 -4.21363823e-002 -1.89949900e-001
      -5.16919419e-002 1.01843193e-001 -1.50492811e-003 2.07649976e-001
      -1.59151748e-001 1.67683050e-001 5.00300452e-002 3.70830484e-002
      1.79283991e-002 -1.70410752e-001 -2.16222197e-001 -4.97906357e-002
      3.10739398e-001 -6.38396516e-002 1.34130046e-001 1.32369012e-001
      -1.07579604e-001 -3.09887826e-001 -1.42044693e-001
      -1.34787410e-001 4.02390957e-002 1.71436131e-001 -1.30378097e-001
      9.72151309e-002 -1.04788385e-001 1.70353949e-002 -1.32949904e-001
      -9.61449593e-002 -6.93442598e-002 2.84492667e-003 2.84165770e-001
      5.60156768e-003 5.61548173e-002 2.10690554e-002 -6.08453676e-002
      -1.08808659e-001 5.05297743e-002 -8.27746615e-002 1.03719532e-001
      7.34948516e-002 -1.74044654e-001 7.85909742e-002 -1.42017230e-001
      -1.03907265e-001 3.56621742e-002 -4.16109972e-002 -1.79578289e-001
      -9.29393768e-002 8.75559896e-002 -2.12600380e-002 2.06656620e-001
      9.12582651e-002 -1.85680896e-001 -5.56230769e-002 1.03487782e-001
      4.20638807e-002 1.06960684e-001 1.82866275e-001 -1.11324206e-001
      8.50923583e-002 -6.68179691e-002 -2.97906458e-001 2.35503893e-002
      -2.84273308e-002 -1.60069600e-001 -1.92624796e-002
      -6.72082305e-002 -1.70177162e-001 1.54385641e-001 1.30914584e-001
      -1.54069379e-001 -1.10382050e-001 1.10778078e-001 -9.27954763e-002
      7.03951791e-002 2.38957852e-001 -3.02743465e-001 2.09948942e-001
      1.39933169e-001 -1.83363795e-001 -6.24956144e-003 7.62501583e-002
      1.29450589e-001 1.73852772e-001 6.81427717e-002 -1.23549603e-001
      1.98103324e-001 5.67219481e-002 -2.70227939e-001 -2.65160680e-001
      3.42979282e-001 3.09416894e-002 1.56347051e-001 2.34323457e-001
      -1.96758106e-001 3.93724352e-001 2.76853025e-001 -5.96556254e-002
      -4.48087603e-003 1.93980022e-003 1.36053309e-001 -2.39885282e-002
      1.34699896e-001 1.04742527e-001 9.02898051e-003 -9.08351541e-002
      -2.66994417e-001 -3.77696365e-001 2.07885176e-001 8.90953019e-002
      -1.95233360e-001 1.99465081e-001 -6.68906718e-002 1.07366815e-001
      -8.93743988e-003 -5.59520721e-002 -1.15001291e-001
      -3.30671743e-002 1.47775710e-001 1.69354871e-001 8.75436515e-002
      -9.64677036e-002 -4.82820384e-002 -2.24143386e-001
      -3.90864462e-001 -3.12422693e-001 1.76773787e-001 1.75188649e-002
      -1.07503429e-001 1.55477524e-001 -7.76996091e-002 8.75026733e-002
      -1.08925402e-001 -2.10927233e-001 -1.34376377e-001 1.15331285e-001
      1.40219182e-001 2.93470591e-001 2.91240036e-001 -6.50896952e-002
      7.76474625e-002 -1.47085249e-001 -3.54919791e-001 3.07295509e-002
      4.13061120e-002 1.42104730e-001 1.12555757e-001 2.69026279e-001
      -1.85905308e-001 1.21554427e-001 9.01044905e-003 -3.52618396e-001
      -1.04326181e-001 -1.82082251e-001 -7.64779598e-002 9.92891788e-002
      4.30231512e-001 -1.16786063e-001 1.90884590e-001 -1.99696738e-002
      -1.44223407e-001 -2.49751493e-001 -2.40223721e-001 4.44244444e-002
      3.67719568e-002 -1.25798711e-003 -2.42656797e-001 -1.02055175e-002
      2.24629328e-001 -2.92865336e-001 -2.87270904e-001 3.86108384e-002
      -3.42872813e-002 2.45216507e-002 3.06019008e-001 -1.63033113e-001
      1.98446840e-001 -1.24712430e-001 -6.71873167e-002 -1.35611400e-001
      -6.10187836e-002 2.93663330e-002 2.73110308e-002 1.26737222e-001
      -2.81285673e-001 1.11925490e-001 1.46194339e-001 -2.46292204e-001
      -2.18852878e-001 4.44426909e-002 -5.52517027e-002 7.26845488e-002
      3.85970116e-001 -9.23030227e-002 1.30139738e-001 -2.05742806e-001
      -1.73161179e-001 -2.36799419e-002 -4.56211269e-002 9.32823494e-002
      1.99909016e-001 -2.74635144e-002 -2.02083692e-001 -6.91277459e-002
      -2.49757431e-002 -2.59982556e-001 -1.69781342e-001 1.09164886e-001
      7.78227821e-002 -5.88387670e-003 1.14778206e-001 -1.68271676e-001
      2.22327292e-001 1.57976002e-002 -5.22621311e-002 8.59194696e-002
      2.37590373e-002 -4.97389622e-002 2.12912285e-003 6.19672276e-002
      -1.30054608e-001 -1.81936435e-002 -4.84532155e-002
      -7.61577860e-002 -6.96496889e-002 9.93491337e-002 1.46777138e-001
      -1.29560586e-002 -1.47257121e-002 -2.09351987e-001
      -3.32239419e-002 -9.47521925e-002 -3.38179767e-002
      -1.04817316e-001 -2.12930553e-002 1.11327164e-001 1.22995608e-001
      -1.35521129e-001 -1.72703579e-001 -3.91063578e-002 1.47907570e-001
      -5.25034480e-002 -3.93465161e-002 5.01650311e-002 1.11763276e-001
      4.37682495e-002 2.38282904e-002 -2.53242582e-001 -1.41784295e-001
      -1.94166556e-001 -1.57874286e-001 7.77591616e-002 2.60122456e-002
      3.48742604e-002 3.43115442e-002 -5.68813905e-002 -2.74382561e-001
      -2.30229348e-002 3.11466046e-002 7.46667460e-002 7.70483166e-002
      3.10156103e-002 7.58160502e-002 5.00202589e-002 4.37471494e-002
      -8.64815488e-002 2.36316100e-001 -1.62425652e-001 -1.84447512e-001
      1.58407867e-001 7.23414794e-002 -6.25014491e-003 -2.37040251e-001
      -8.46761912e-002 -1.87660664e-001 1.16763331e-001 1.44447193e-001
      5.81277274e-002 8.04101378e-002 -4.45554815e-002 3.85637283e-002
      6.20742999e-002 -1.66833013e-001 -4.74073514e-002 3.10261816e-001
      -1.32730186e-001 -7.66335428e-002 -1.39263958e-001
      -2.30982855e-001 -1.96346790e-001 -3.03965628e-001
      -3.07510197e-001 1.19238002e-002 3.35987568e-001 7.72612542e-002
      -2.13810094e-002 -1.89523876e-001 1.14464432e-001 6.00167327e-002
      1.00597359e-001 -1.44934475e-001 -4.66635376e-002 -1.60322458e-001
      -1.87312420e-002 8.81158635e-002 1.98382869e-001 -1.64705232e-001
      -3.83563668e-001 -2.47093946e-001 -1.65222436e-001 9.46974605e-002
      2.38121793e-001 1.14361167e-001 -4.80767637e-002 -1.43969953e-001
      2.44642243e-001 6.96994662e-002 -5.95291145e-002 -1.84496999e-001
      -1.45108208e-001 -3.71922441e-002 -2.75267381e-002 1.81326509e-001
      2.35076725e-001 8.31477642e-002 -3.11723232e-001 -2.57040530e-001
      2.35415734e-002 6.82235733e-002 1.18203036e-001 -7.93460235e-002
      1.01297470e-002 -2.01227024e-001 1.16535723e-001 8.83479267e-002
      -7.30092451e-002 -2.57952124e-001 -9.49789435e-002 3.25002939e-001
      -1.74576283e-001 3.41665139e-003 -7.62936398e-002 6.72561768e-003
      -2.25160658e-001 -2.98256248e-001 2.10036412e-001 1.49771214e-001
      2.49896571e-001 -5.44311143e-002 -8.46074000e-002 -3.03647578e-001</_>
    <_>
      1.05696537e-001 -1.58316270e-003 -1.89711869e-001 4.10440154e-002
      3.03378969e-001 -1.04842812e-001 -2.34267235e-001 -1.54127866e-001
      2.92254961e-003 -2.60004044e-001 -2.51738340e-001 -2.70594805e-001
      -1.12812355e-001 -6.43978268e-002 -1.51486859e-001
      -1.34142250e-001 -9.04229134e-002 -3.14601481e-001 2.76567936e-002
      1.62764117e-001 -1.08130137e-002 1.92209333e-001 3.28845680e-001
      -4.18303221e-001 1.81575000e-001 4.55799364e-002 -3.09809357e-001
      -1.39203623e-001 -1.25104368e-001 -2.57996708e-001
      -3.75011444e-001 2.83895940e-001 -2.88907021e-001 3.81440818e-002
      -1.19196400e-002 -1.59138158e-001 -9.55261961e-002 8.06840509e-003
      8.09295475e-002 3.30624580e-001 2.96242446e-001 -1.38119400e-001
      1.33473396e-001 1.26042381e-001 -1.37767196e-001 -2.93675456e-002
      -3.22043389e-001 -2.02465102e-001 -1.64792478e-001 4.36667740e-001
      -1.47056401e-001 6.17598705e-002 1.52599812e-001 3.00390981e-002
      -1.15634941e-001 -2.60884501e-002 5.71994148e-002 1.10603817e-001
      6.07880950e-002 -3.20158660e-001 8.77291858e-002 6.09407537e-002
      -7.17337057e-002 -1.23938583e-001 -2.57518858e-001
      -3.55080932e-001 -4.40163612e-001 1.33439347e-001 -2.39540488e-001
      -8.31641629e-002 1.73615724e-001 -2.30166495e-001 -1.86164007e-002
      3.06692213e-001 7.77393132e-002 1.42611593e-001 9.63277668e-002
      -4.06450666e-002 1.49502963e-001 -1.32483328e-002 -1.84229553e-001
      -5.93808591e-002 1.36474222e-001 -1.80425227e-001 -3.93016249e-001
      1.67085826e-001 -8.78140330e-002 -1.91367194e-001 -2.81622540e-002
      -2.10638225e-001 -1.83009595e-001 1.49406746e-001 -1.94909230e-001
      5.09210452e-002 1.13260344e-001 2.07462564e-001 1.95115164e-001
      1.37453809e-001 -1.82550296e-001 -2.03624249e-001 -1.46602511e-001
      -2.06449971e-001 -2.33046070e-001 9.27474052e-002 -3.25187966e-002
      5.24248870e-004 -3.79984714e-002 -9.50595066e-002 -2.49616653e-001
      -1.77315995e-002 1.23982329e-003 -2.24129744e-002 -2.25224830e-002
      -9.73372813e-003 1.89517662e-002 5.38335815e-002 -6.73526376e-002
      3.52382287e-002 -1.89919904e-001 5.07188477e-002 -2.41015181e-001
      -3.31337526e-002 -2.44034395e-001 -1.27346456e-001
      -1.62368417e-002 1.25003541e-002 -1.58418953e-001 4.91151102e-002
      1.08018965e-001 2.56505329e-002 1.40644565e-001 -1.46724835e-001
      8.60040709e-002 8.52273628e-002 -3.01845700e-001 1.45661756e-002
      -1.02816872e-001 -7.63667598e-002 -2.74217010e-001 1.55307382e-001
      -2.90385306e-001 3.60878520e-002 1.40174672e-001 -1.10428691e-001
      -1.74738675e-001 -2.07654312e-002 -9.19086114e-002
      -6.70639286e-003 5.99096976e-002 4.17829528e-002 2.23894000e-001
      6.78411350e-002 -3.33090484e-001 -7.25286305e-002 -7.45365545e-002
      -1.49735689e-001 1.57905102e-001 -1.45339882e-002 -4.30311374e-002
      1.10608838e-001 2.58481000e-002 -1.92625433e-001 -1.13018945e-001
      -1.81895439e-002 -5.75097688e-002 7.48602077e-002 -4.82691340e-002
      -2.90080030e-002 1.92660913e-001 -1.18015818e-002 -1.93155661e-001
      1.21522531e-001 8.43947977e-002 -8.99985284e-002 4.31350499e-001
      -4.92864940e-003 -1.53993126e-002 8.88988972e-002 -1.78705409e-001
      3.99051197e-002 -7.96827823e-002 -3.40458527e-002 7.37082437e-002
      1.44143358e-001 -1.82750765e-002 1.16708301e-001 1.55899912e-001
      6.59398586e-002 -7.49338120e-002 1.14854768e-001 -8.81818458e-002
      -1.10393211e-001 1.63163096e-001 -1.38289005e-001 1.92247361e-001
      2.10907664e-002 -5.48226871e-002 2.21111044e-001 -7.26494119e-002
      -4.75984588e-002 -1.36299450e-002 2.02963218e-001 -5.43595850e-002
      -4.92512528e-003 8.68166387e-002 -5.96428365e-002 -1.84802115e-002
      1.73350573e-002 -1.55078486e-001 -1.28232479e-001 2.11426049e-001
      5.78770936e-002 -1.04796253e-001 -2.34724596e-001 -2.12532982e-001
      5.90286665e-002 8.45397264e-002 1.73396796e-001 3.82955000e-002
      8.33767876e-002 -1.23378001e-001 1.83188826e-001 -5.76179884e-002
      -5.85955605e-002 2.74032671e-002 2.99841732e-001 1.73750177e-001
      1.87466979e-001 5.85787296e-002 -6.12378754e-002 -1.70514941e-001
      -1.66915461e-001 -2.58519500e-001 4.39502411e-002 1.64536014e-003
      1.21724971e-001 3.05808514e-001 -2.16738328e-001 -2.16617152e-001
      3.26010793e-001 1.49278387e-001 -7.15972036e-002 -2.62312412e-001
      4.11970407e-001 3.59744370e-001 2.97568232e-001 1.00754127e-001
      -1.92738175e-001 -2.35407963e-001 -8.12521018e-003
      -2.99924165e-001 -1.19714096e-001 -1.07055336e-001
      -6.11194409e-002 1.71413168e-001 -1.90246701e-001 -7.67216459e-002
      2.40480840e-001 2.95605838e-001 2.87202466e-002 -2.73383111e-001
      1.78607732e-001 -4.91201878e-002 8.34747553e-002 -1.09339572e-001
      -1.74330011e-001 -2.69573659e-001 -3.14114839e-002
      -1.83302224e-001 5.52018881e-002 2.29068715e-002 3.65839899e-002
      2.27372557e-001 2.70960271e-001 -7.97761828e-002 1.73567608e-001
      2.76659187e-002 -1.30808204e-002 -1.14506021e-001 3.18834692e-001
      8.66338685e-002 -1.12356739e-002 -2.18886122e-001 -2.03836858e-002
      7.01070428e-002 -9.35735777e-002 -2.15890780e-002 2.92042762e-001
      1.49797171e-001 1.67760700e-001 2.60558099e-001 2.99706191e-001
      -2.07285821e-001 -1.04982816e-001 -1.11449756e-001 4.71036136e-003
      -1.66889448e-002 2.78928339e-001 3.28649402e-001 7.96298981e-002
      -3.02059591e-001 -2.21062228e-001 -1.37852922e-001
      -2.28189170e-001 7.47128353e-002 3.64891067e-002 2.22487524e-001
      3.51979673e-001 3.01169902e-001 5.26059680e-002 -2.82708466e-001
      -2.11193860e-002 1.26199191e-002 -6.05405234e-002 1.78564340e-001
      2.96632499e-001 9.82524902e-002 6.11246191e-002 -1.79871842e-001
      -1.26442254e-001 -1.65001929e-001 -1.74488932e-001
      -1.03365712e-001 -8.62481669e-002 4.34163399e-002 1.13655023e-001
      1.73386589e-001 4.11826512e-003 9.23131108e-002 3.45223755e-001
      1.66923910e-001 -4.01453488e-002 1.25150993e-001 9.15134773e-002
      8.88447985e-002 7.84183070e-002 -2.72951461e-002 9.75658558e-003
      -1.86377112e-002 -2.61402130e-001 -2.04677582e-001
      -1.01660103e-001 -4.11085449e-002 6.26396062e-003 6.69494420e-002
      9.52386409e-002 9.70684215e-002 1.24809287e-001 -1.11165300e-001
      2.83444580e-002 -1.18694104e-001 -1.31083742e-001 1.02217525e-001
      7.17236921e-002 -6.71162903e-002 -1.18368402e-001 -1.90016940e-001
      -4.09244806e-001 -2.36300752e-001 -2.40686387e-001 8.30566660e-002
      -2.18707952e-003 -7.44600520e-002 1.86521873e-001 -2.10435495e-001
      5.05545922e-002 -1.26402646e-001 6.22380264e-002 -1.65768802e-001
      -8.18136111e-002 -2.02520285e-003 1.71083495e-001 9.21625495e-002
      -2.99528867e-001 1.79941878e-002 -2.29784861e-001 -5.48261553e-002
      -1.94530174e-001 2.28490546e-001 4.02576365e-002 -3.26742142e-001
      1.88804194e-001 -1.64468080e-001 2.57029325e-001 1.05114371e-001
      8.61756131e-002 1.33159250e-001 6.52823374e-002 1.80707835e-002
      7.81834573e-002 -3.43221240e-002 -2.37526029e-001 1.44568279e-001
      1.56785145e-001 6.46429807e-002 -9.11644772e-002 9.29057002e-002
      1.16519995e-001 -2.74646252e-001 1.36693537e-001 8.57912004e-003
      3.22378099e-001 8.29740018e-002 -2.78248005e-002 5.41344136e-002
      -2.81520411e-002 -1.56951118e-002 -1.51763797e-001 6.59158602e-002
      2.28183102e-002 -1.28011972e-001 1.47929102e-001 -5.13610058e-002
      -1.80934608e-001 1.86710283e-001 2.21911982e-001 1.53237777e-002
      -1.15849867e-001 1.93573266e-001 1.88785508e-001 -2.32755616e-002
      -1.21384747e-001 -2.23990008e-001 1.58695772e-003 2.86753327e-001
      -1.67981341e-001 -3.06624681e-001 9.59891453e-003 -2.03179196e-001
      -1.46978676e-001 -3.96032780e-001 -1.60914525e-001 1.40758649e-001
      1.78003684e-001 1.34163126e-001 -2.21159339e-001 1.96788460e-001
      3.48326610e-003 -1.78752169e-001 -1.91302896e-001 -1.39861535e-002
      6.68340847e-002 1.69941232e-001 -3.79685163e-002 -3.86039168e-001
      -2.12727070e-001 -3.07266355e-001 -2.41733834e-001
      -3.23222280e-001 8.20239335e-002 4.64498699e-002 4.48861197e-002
      6.67142570e-002 -2.18479797e-001 4.07185942e-001 3.70187998e-001
      9.66683403e-003 3.43646370e-002 1.60487577e-001 -1.70861006e-001
      -2.25007832e-001 1.14450485e-001 -3.77751976e-001 -4.90795681e-003
      7.99847394e-002 -1.10686705e-001 -1.06696591e-001 -5.77446213e-003
      -9.05700251e-002 -2.26705968e-001 -3.31051983e-002
      -4.06497777e-001 2.75515765e-001 3.53978306e-001 1.48657724e-001
      9.48733985e-002 5.62952794e-002 -5.38973570e-001 -4.91920143e-001
      -1.51106000e-001 -4.73490357e-001 1.43064568e-002 4.56650078e-001
      -1.18350439e-001 -3.19163382e-001 -5.26439726e-001 3.16928446e-001
      -1.44222274e-001 6.26001358e-002 -4.25241232e-001 7.57782236e-002
      3.47815491e-002 3.46789181e-001 1.72970548e-001 3.26259375e-001
      -2.45752066e-001 -1.97097138e-001 -1.00830570e-001
      -3.32274288e-001 4.59494554e-002 1.38035595e-001 2.99705565e-002
      3.51772569e-002 -3.63567084e-001 4.73189354e-001 3.48362420e-003
      -8.45033079e-002 -4.73304838e-001 2.70084720e-002 -1.12443775e-001
      2.82187201e-002 2.32607618e-001 1.53021932e-001 -1.09121338e-001
      -1.82499588e-001 -1.12450637e-001 -2.12130770e-001 1.85972407e-001
      -3.04482132e-001 -1.35087520e-001 -3.96942459e-002
      -2.83440590e-001 5.01398370e-002 -6.56386539e-002 -1.17901914e-001
      -4.46608573e-001 -5.95318861e-002 -2.08489299e-001
      -1.94137156e-001 4.66872528e-002 -1.58016786e-001 -1.68241039e-001
      -2.17740163e-001 -1.68369651e-001 1.47297189e-001 6.93444237e-002
      1.41918838e-001 -1.30208209e-001 -1.70990840e-001 -2.92151481e-001</_>
    <_>
      1.69493049e-001 1.78392678e-001 2.90130023e-002 -1.25062108e-001
      1.56092376e-001 -6.46458343e-002 -1.85145169e-001 -8.95282924e-002
      6.58134520e-002 -2.56864935e-001 -2.87499409e-002 -3.51623863e-001
      1.51088759e-001 9.64356437e-002 -1.11229263e-001 -1.56529546e-001
      -1.21507876e-001 -2.90141135e-001 1.09286364e-002 1.22861192e-001
      2.37780347e-001 2.76657999e-001 3.21228057e-001 -5.35523891e-002
      2.93824486e-002 1.08935460e-001 5.14349667e-003 -2.66884714e-001
      -2.62088478e-001 -2.65047044e-001 2.84044772e-001 3.19594920e-001
      1.16891833e-002 -2.20855959e-002 9.37573910e-002 -2.29949132e-001
      -1.13621183e-001 1.19676083e-001 2.42797703e-001 2.75009036e-001
      3.30488801e-001 8.75467956e-002 1.51576838e-002 2.27180809e-001
      6.78184554e-002 -1.82700843e-001 -2.80983031e-001 -1.86214402e-001
      7.07925260e-002 3.70446980e-001 1.35346483e-002 9.32097808e-002
      2.27105841e-001 1.72318533e-001 -1.92259252e-001 1.98497340e-001
      -1.52302906e-001 -1.83338746e-001 7.95192346e-002 -3.61457132e-002
      1.17350377e-001 2.17157066e-001 9.53865144e-003 -2.45389342e-001
      -3.18014771e-001 -4.54155862e-001 -2.78953671e-001 9.18837637e-002
      -1.06056899e-001 2.12815866e-001 -6.82796389e-002 -3.48867215e-002
      2.31411949e-001 1.89659834e-001 -1.96849123e-001 -2.30737805e-001
      -8.02242681e-002 8.24412331e-002 1.26160651e-001 6.37842789e-002
      1.65580362e-001 1.45109072e-002 2.38194298e-002 -3.12338978e-001
      -3.88351113e-001 2.61204038e-003 -3.36271189e-002 1.27583861e-001
      -9.89667103e-002 -5.75139485e-002 2.59920150e-001 3.62108201e-002
      -3.44930679e-001 -1.09139085e-001 7.67415343e-003 2.11242035e-001
      2.22683456e-002 1.19946845e-001 1.72873169e-001 -1.02355801e-001
      -5.43925399e-003 -4.02493984e-001 -4.61535066e-001
      -2.61887550e-001 -6.27860650e-002 4.17085178e-002 -2.11649135e-001
      -7.48388991e-002 -1.27903642e-002 -1.32693857e-001
      -2.85344839e-001 1.11556545e-001 7.83941988e-003 -3.85156944e-002
      7.41103217e-002 8.53806213e-002 4.17166203e-002 -1.39972121e-002
      -3.16923916e-001 -3.77786487e-001 -9.53596681e-002
      -1.14647858e-001 -1.61074087e-001 -1.36811465e-001
      -9.65714306e-002 -3.21326777e-002 2.16737315e-002 -3.17919433e-001
      -3.22684616e-001 -2.23135933e-001 1.91964865e-001 -1.27487794e-001
      1.29934728e-001 1.79938257e-001 3.60014401e-002 -3.35094007e-003
      -4.31164354e-001 -6.33682430e-001 -9.35535356e-002 3.51713300e-002
      -4.91574593e-002 -9.80681777e-002 4.48410623e-002 -3.19421366e-002
      -1.43288910e-001 -2.21266404e-001 -2.00577751e-001 1.53374486e-002
      8.19792673e-002 -3.15651914e-006 5.21739200e-002 -4.56038378e-002
      -2.42132738e-001 2.34904662e-002 -2.07762361e-001 -3.53856176e-001
      -4.44342755e-002 -1.04984418e-001 1.97534606e-001 -5.95645532e-002
      1.00883970e-003 -2.39782799e-002 -1.32348120e-001 -2.49308109e-001
      -1.28831849e-001 2.47355655e-001 1.24602802e-001 1.71711724e-002
      -2.73553021e-002 -1.32467374e-001 -3.43698084e-001 7.27338418e-002
      8.44041631e-003 -1.92412257e-001 2.31971622e-001 -3.07877306e-002
      3.14554662e-001 -7.18789324e-002 -9.10643414e-002 -2.60363072e-001
      -2.72350520e-001 -1.89609423e-001 -1.69361737e-002 1.30546778e-001
      1.04190856e-001 6.34449050e-002 1.62341148e-001 -8.00018907e-002
      -3.19802284e-001 -5.42048551e-002 -1.04066124e-003
      -1.99414846e-002 1.75181553e-002 -2.23654181e-001 2.98831642e-001
      1.76702607e-002 -7.62099475e-002 -2.92821974e-001 -1.72989428e-001
      -8.91800523e-002 1.30958259e-001 3.45790476e-001 1.18731476e-001
      1.43658504e-001 1.03745341e-001 -1.53294345e-002 -2.12450922e-001
      -9.58248824e-002 5.12920320e-002 3.60114723e-001 -1.09391503e-001
      -4.26228978e-002 -1.33434907e-001 -1.47547379e-001 3.37676778e-002
      -1.16384707e-001 -1.01993576e-001 5.07761091e-002 1.85005561e-001
      1.75524801e-001 1.47822216e-001 9.94316339e-002 4.87938523e-003
      -2.54625808e-002 -7.88939297e-002 1.00340389e-001 1.66601658e-001
      5.81864059e-001 -1.91182077e-001 -5.11964634e-002 -2.48381104e-002
      -2.20956907e-001 -2.69059896e-001 1.83378458e-002 -1.43744469e-001
      -4.70803604e-002 1.96943656e-001 -7.63540342e-002 -3.22772525e-002
      1.55852601e-001 1.17601991e-001 7.74670299e-003 -1.82553411e-001
      1.85826905e-002 2.19964087e-001 4.54941601e-001 -3.85254286e-002
      -1.34104863e-001 3.90552133e-002 -2.50537872e-001 -3.51132125e-001
      -9.70280543e-002 -6.03008345e-002 -1.23811558e-001 1.36037758e-002
      -8.56368914e-002 8.39797780e-003 1.84428796e-001 1.80527866e-001
      -7.22280005e-003 -2.56209493e-001 -5.62823052e-003
      -6.04989380e-002 5.24019636e-002 1.27074927e-001 -9.80853662e-002
      6.14091866e-002 -7.54654855e-002 -2.07562611e-001 -2.26830393e-001
      3.82871591e-002 6.46386296e-003 -1.00232862e-001 9.11158621e-002
      3.20135280e-002 5.30662201e-002 1.22160554e-001 -2.38545630e-002
      -1.83201149e-001 9.46057886e-002 -1.73898246e-002 -2.94192523e-001
      -2.70648122e-001 8.82897899e-002 -1.21724959e-002 8.72950330e-002
      1.37080969e-002 6.37393370e-002 -6.16828687e-002 1.07310638e-001
      -3.32551412e-002 8.52468759e-002 8.29134807e-002 -1.90562084e-001
      -8.64028111e-002 -1.67976022e-001 -1.05835624e-001 4.80481386e-002
      -1.89264081e-002 -4.15697306e-001 -1.50056764e-001 2.90780723e-001
      -1.72838256e-001 -4.03656624e-003 -3.24278176e-002
      -8.89219716e-002 -1.68028101e-002 4.05883454e-002 9.72233564e-002
      4.27048141e-003 -7.17627257e-002 2.25372729e-003 -1.98725790e-001
      -3.22204024e-001 -2.10908592e-001 7.53894001e-002 -4.46498692e-002
      -6.26475066e-002 -3.44449766e-002 1.10145882e-001 1.00557618e-001
      -1.29464597e-001 -3.60509872e-001 -2.35754013e-001
      -2.47458741e-002 3.00210174e-002 2.71702230e-001 4.18396555e-002
      -1.10006258e-001 9.21693444e-002 -2.89650001e-002 -1.86035439e-001
      -2.29995370e-001 -6.74020573e-002 1.05382062e-001 -9.68249291e-002
      2.99669933e-002 6.01017885e-002 9.79649276e-002 -3.73229478e-003
      -2.74748504e-001 -1.89857036e-001 -1.48458928e-001 8.75858143e-002
      2.17359230e-001 2.57352620e-001 -6.97755218e-002 -5.71169928e-002
      -1.35594532e-001 -1.29408324e-002 -1.48134544e-001
      -4.44571584e-001 -6.63190708e-002 1.37844682e-001 2.25908652e-001
      -1.22646116e-001 -1.37690887e-001 -1.36131495e-001
      -2.68995613e-001 -4.48121578e-001 3.51506509e-002 1.13370448e-001
      5.84962256e-002 2.05915555e-001 -2.99388647e-001 -6.86159357e-002
      -2.92080522e-001 4.79177944e-002 7.53379688e-002 -3.84160429e-001
      -1.30853161e-001 -6.59444556e-002 3.80848855e-001 -2.63745695e-001
      9.58788767e-002 -1.50473639e-001 -9.40730944e-002 -4.03531075e-001
      1.07986785e-001 2.03737542e-001 -8.34455993e-003 9.64866653e-002
      -1.33407384e-001 -9.38627869e-002 -2.18479171e-001 1.03824534e-001
      1.20918721e-001 -1.36907190e-001 1.03304349e-001 2.99768653e-002
      6.40756488e-002 -1.90627933e-001 -4.45295461e-002 -1.42656058e-001
      -9.84579604e-003 -3.14753443e-001 5.52835763e-002 1.71436191e-001
      -6.88766092e-002 -7.36513883e-002 -1.39341041e-001 2.09604371e-002
      -1.70788348e-001 1.27989883e-002 -3.17690894e-002 -1.26644939e-001
      -1.53232198e-002 -8.70017707e-002 -1.04941137e-001 5.58305159e-002
      -2.94633120e-001 -4.24270853e-002 4.46886607e-002 -1.90271839e-001
      5.40082902e-002 2.00848818e-001 -3.04190442e-002 -2.15623111e-001
      -1.95527837e-001 -2.01711096e-002 -4.60777283e-002 2.85869767e-003
      -1.47398114e-001 -1.99585393e-001 3.85937840e-001 -3.56633477e-002
      -2.13874131e-001 -1.85583636e-001 -1.32287398e-001
      -1.20834045e-001 -7.28546754e-002 -1.18827619e-001 2.34140716e-002
      2.38476232e-001 -3.09839938e-002 -2.62580127e-001 -9.88748893e-002
      -1.33027345e-001 2.53699627e-002 7.44702220e-002 -1.68033298e-002
      -3.75879966e-002 3.49297881e-001 4.22723070e-002 -1.95596218e-001
      -4.34494168e-001 -9.53400657e-002 -1.53078347e-001
      -1.20737240e-001 -3.54032740e-002 3.76967378e-002 9.48764607e-002
      2.12093532e-001 -9.08594728e-002 3.37173864e-002 6.00593686e-002
      6.86589107e-002 9.20238122e-002 1.65822223e-001 -9.25042257e-002
      7.08195847e-003 2.57419467e-001 1.57471877e-002 -2.55575448e-001
      8.50443691e-002 1.02758512e-001 -6.72105327e-002 6.90438494e-004
      -5.46973906e-002 -1.20856047e-001 8.72101560e-002 -1.12250745e-001
      2.62993664e-001 1.25292391e-001 2.21405029e-001 7.57742524e-002
      -8.29389989e-002 -4.29770947e-001 -1.15965731e-001 2.51807570e-001
      4.86520492e-002 1.44705148e-002 2.15548158e-001 3.12727876e-002
      -1.55372828e-001 -4.28072691e-001 9.89241078e-002 -1.29178867e-001
      -6.92373291e-002 -2.48121873e-001 1.84879512e-001 -1.29568487e-001
      3.90067190e-001 1.63263977e-001 1.11321263e-001 -4.61744606e-001
      -6.08199947e-002 7.35845715e-002 5.31710126e-002 -5.91853857e-002
      -1.22504398e-001 -8.23685154e-002 5.63759683e-003 -5.46185851e-001
      1.48762956e-001 -7.37534016e-002 -1.98832855e-001 -2.75384068e-001
      1.01351790e-001 -4.12003994e-002 2.39536837e-001 3.67732346e-001
      9.93766859e-002 -2.51027584e-001 -2.69045942e-002 5.16953599e-003
      3.67003120e-002 -9.88347679e-002 -2.76819795e-001 -1.55537009e-001
      4.18855101e-002 -3.40990871e-001 4.52241786e-002 -1.17727527e-002
      -3.42928953e-002 -1.91038251e-001 -9.58814994e-002
      -7.09488019e-002 2.34976947e-001 2.97839463e-001 -2.03536242e-001
      -6.43623695e-002 1.60707235e-001 7.14280382e-002 8.59251320e-002
      -5.86580448e-002 2.06445113e-001 1.10052325e-001 -4.22081881e-004
      -3.10300350e-001</_>
    <_>
      1.00084811e-001 -2.23174598e-002 -2.59681702e-001 2.17480689e-001
      8.25544000e-002 -2.59737521e-002 -1.45538583e-001 -6.56531453e-002
      -7.58881643e-002 -1.34711370e-001 1.20229051e-001 -1.97868660e-001
      1.70107916e-001 1.25174969e-002 -1.36034817e-001 -2.60255009e-001
      -6.89428896e-002 -2.31144771e-001 3.31879035e-002 5.35001652e-003
      -1.48087338e-001 3.01451564e-001 1.93116620e-001 -1.16785407e-001
      5.59262000e-002 8.01989138e-002 -1.36629239e-001 -2.72624582e-001
      4.54376638e-002 -1.85317248e-001 1.85815245e-001 6.57664463e-002
      -1.37633711e-001 -1.01571865e-001 -3.12358886e-002
      -2.98867732e-001 -4.34853844e-002 4.46620658e-002 1.44962538e-002
      4.01328981e-001 6.21577315e-002 -9.95802283e-002 5.24589829e-002
      1.47310302e-001 -4.58629914e-002 -1.24379404e-001 -5.62567711e-002
      -1.36072889e-001 1.04475215e-001 2.19144702e-001 -1.67784408e-001
      -8.39940459e-002 -7.00867325e-002 -5.71335554e-002
      -2.75803536e-001 -8.39091931e-003 -1.07498966e-001 2.91897029e-001
      2.27013491e-002 6.02529123e-002 9.24146250e-002 2.26963848e-001
      4.31339722e-003 -1.45897701e-001 -1.99483126e-001 -2.96534151e-001
      -2.39801351e-002 5.70777357e-002 -2.21467331e-001 -6.42236322e-003
      1.22787222e-001 4.08775359e-002 -2.12025777e-001 9.81288403e-003
      -1.24255262e-001 1.72103465e-001 2.88872570e-002 4.97015640e-002
      5.60066663e-002 8.22876319e-002 -1.53118549e-002 -7.90361911e-002
      -1.36394173e-001 -2.40663469e-001 -2.91370563e-002
      -4.36042296e-003 -9.77502689e-002 -1.27569214e-001 7.46306479e-002
      5.01212478e-003 -2.60465980e-001 1.01679400e-001 -7.81920552e-002
      1.36402741e-001 2.93009039e-002 1.22305803e-001 -5.68875931e-002
      -8.17711130e-002 -2.59698421e-001 -7.68785998e-002
      -2.18173623e-001 -2.30575919e-001 -1.44701898e-001 4.48353030e-003
      -1.39119759e-001 -5.41380458e-002 -5.34596667e-002 3.69882248e-002
      -2.19839469e-001 -1.20508716e-001 2.91370451e-002 2.10619234e-002
      -1.35075173e-003 4.66671996e-002 -5.62021881e-002 -5.73484711e-002
      -2.01445580e-001 -7.06229955e-002 -2.87633032e-001
      -2.09893718e-001 -1.24117322e-001 4.12178636e-002 -2.03208998e-001
      -1.81550175e-001 -6.31389096e-002 -1.49263725e-001
      -3.41102257e-002 -1.99673265e-001 1.34236682e-002 -1.71302944e-001
      9.86529291e-002 2.05778554e-002 -1.28189642e-002 -5.07951379e-002
      -6.99481592e-002 7.78369382e-002 -3.15607131e-001 -4.49555933e-001
      -9.03053805e-002 8.39594379e-002 2.25321203e-002 -5.22825122e-002
      1.64621517e-001 -9.23453644e-002 -1.58287153e-001 -2.46968567e-002
      -1.11663705e-002 4.09024246e-002 -2.86672004e-002 -2.01583356e-001
      -1.78539023e-001 -2.46055186e-001 -2.03652114e-001
      -1.21425144e-001 -1.82769060e-001 -1.87655553e-001
      -5.88785252e-003 2.32058596e-002 -4.76906402e-003 -5.56503758e-002
      -1.76018216e-002 -5.02380505e-002 -1.58836588e-001 3.24671604e-002
      -1.12338319e-001 1.77196994e-001 7.86888525e-002 -1.34241000e-001
      -4.35926840e-002 -2.28237405e-001 -1.97317213e-001
      -5.35969436e-002 -6.66846633e-002 -1.24504708e-001 2.82470047e-001
      -4.05800529e-003 -9.09151733e-002 -4.87272851e-002
      -5.42245395e-002 4.80110049e-002 -6.12932891e-002 -9.71943811e-002
      -1.70047820e-001 -9.01105925e-002 -8.03410113e-002 1.04307227e-001
      2.30494574e-001 -2.63388734e-002 -2.14284018e-001 4.18602824e-002
      -1.63376480e-001 -3.63748282e-001 1.27523750e-001 -1.17014579e-001
      2.68504381e-001 -8.49447772e-003 2.71303561e-002 -1.01180956e-001
      -7.14916289e-002 -9.07106884e-003 -8.43972266e-002 1.68750286e-001
      -1.13601156e-001 2.25662053e-001 2.56631583e-001 2.48689987e-002
      -2.09626019e-001 -1.20911505e-002 1.35529526e-002 -2.80905254e-002
      2.89838880e-001 -9.68813300e-002 1.84885412e-001 -8.83934572e-002
      -4.92901448e-003 -2.28882730e-001 4.57853777e-003 1.01435781e-001
      -4.37934101e-002 3.78152393e-002 -2.13118717e-001 1.22822240e-001
      1.05194800e-001 5.73454611e-002 -1.33756623e-001 8.57100636e-002
      1.28043562e-001 2.02076718e-001 2.88367003e-001 -1.67820811e-001
      -4.03914489e-002 -1.95028231e-001 -5.12321666e-002
      -1.76923200e-001 -1.16841100e-001 -5.26787750e-002
      -4.19024341e-002 -1.52095342e-002 -8.40207562e-002 2.78636813e-001
      2.04094589e-001 4.01471779e-002 -2.63190925e-001 1.29973844e-001
      1.19020410e-001 2.58510798e-001 3.51724684e-001 -1.65480867e-001
      -2.42697131e-002 -1.14931077e-001 -2.55266011e-001
      -1.63545921e-001 -2.46601328e-001 -1.28758729e-001
      -8.53371546e-002 -1.11862525e-001 -3.79121080e-002 1.96873263e-001
      2.29725197e-001 1.91906635e-002 -2.41580352e-001 1.37829021e-001
      -8.46462920e-002 4.73112054e-002 1.65429022e-002 -1.23469844e-001
      -1.79820526e-002 -9.24772471e-002 -3.12164426e-001 3.05890739e-002
      -1.09781705e-001 -3.00961025e-002 4.91855294e-002 1.25617966e-001
      -8.92233998e-002 3.01568862e-002 -9.00425762e-002 4.33527976e-002
      -1.35150850e-001 2.93113083e-001 3.94942462e-002 -4.24389876e-002
      -4.20790259e-003 -1.02241211e-001 -3.26013169e-003
      -3.09693497e-002 6.60686241e-003 2.54348904e-001 9.54697728e-002
      1.21206202e-001 -1.40528595e-002 2.07530692e-001 -1.16497941e-001
      -5.86627051e-002 -2.33156949e-001 -7.10034296e-002
      -9.08617973e-002 2.80262679e-001 2.47293249e-001 -1.74978077e-001
      7.00013191e-002 -1.84086353e-001 -8.40025246e-002 -6.24089129e-002
      8.84113237e-002 1.58692718e-001 3.97109725e-002 2.13620320e-001
      -3.82500477e-002 -5.89803532e-002 -1.64187297e-001
      -4.58279252e-002 -3.92105818e-001 -4.58131909e-001
      -3.05981100e-001 1.87023133e-001 2.68839329e-001 -2.61326246e-002
      -1.49302140e-001 -1.31014824e-001 9.96171311e-002 -2.97128648e-001
      -2.03081623e-001 -2.69181281e-001 -1.56678259e-001 1.05642729e-001
      2.08955914e-001 1.88357100e-001 -5.86915342e-003 2.48288199e-001
      -1.84582531e-001 -4.79807287e-001 -1.63743064e-001
      -1.24326512e-001 -7.02085495e-002 1.49846330e-001 1.20872922e-001
      -4.21230122e-002 1.58035934e-001 -1.51238054e-001 -3.38136077e-001
      -8.89598578e-002 -2.12139130e-001 -4.03589159e-002 2.91396767e-001
      6.47868142e-002 -3.01294979e-002 1.01933308e-001 -2.32214957e-001
      -1.11824304e-001 -6.22305535e-002 -2.13545233e-001
      -1.29692405e-001 1.04273617e-001 -5.32703772e-002 -1.16018444e-001
      -2.03705356e-001 -1.37932181e-001 -1.43899456e-001
      -9.47916508e-002 -3.17921750e-002 -1.23594880e-001 3.71350758e-002
      3.37617509e-002 -1.59103721e-001 5.61375432e-002 -2.25583166e-001
      -2.57281661e-002 4.77329195e-002 -1.03237420e-001 -1.36461049e-001
      -4.03963663e-002 1.31931812e-001 7.45522929e-003 -4.39604186e-002
      -2.49755919e-001 -3.20708066e-001 -1.65458217e-001
      -4.47107991e-003 1.02197699e-001 -1.46644041e-001 1.18548803e-001
      -4.21796320e-003 1.56140193e-001 -1.84657767e-001 -3.01643014e-002
      1.88217580e-003 -2.96282172e-001 -3.19639668e-002 -2.02927411e-001
      1.03560418e-001 2.53423788e-002 2.97692847e-002 -1.70823216e-001
      -8.42967331e-002 -7.62150809e-002 6.98709935e-002 2.71701902e-001
      -1.03240818e-001 1.21444240e-001 -6.23009726e-002 9.78239179e-002
      -2.11713582e-001 4.88008261e-002 1.99446045e-002 -1.83483467e-001
      1.11159869e-001 6.20786548e-002 1.99889168e-001 1.88208912e-002
      -1.12965740e-001 -1.47565439e-001 -4.08458263e-002
      -9.92222875e-002 -2.13172976e-002 4.24842872e-002 -8.81803632e-002
      -7.05088153e-002 -5.24487952e-003 -7.91219622e-002
      -2.17809170e-001 -1.39930010e-001 -2.04338908e-001
      -3.36123288e-001 2.15418771e-001 1.66027963e-001 -1.30002797e-001
      -9.07386616e-002 -1.26677245e-001 -2.57435292e-001
      -3.23160857e-001 -1.61126390e-001 1.09097682e-001 5.02511561e-002
      1.28966331e-001 -9.28409323e-002 -7.05469176e-002 -1.51039675e-001
      -1.28614724e-001 -1.09189078e-001 8.53574947e-002 -6.93709478e-002
      2.30661049e-001 7.62899127e-003 -1.54505566e-001 -1.90839127e-001
      -8.49888176e-002 -2.37075135e-001 -1.27847329e-001 1.88658834e-001
      -1.97740290e-002 3.35663930e-002 1.86848342e-001 -1.35406861e-002
      3.25597636e-002 -2.78651305e-002 -9.73498169e-003 -4.85289432e-002
      1.61888883e-001 -8.45042616e-002 2.29312778e-002 -2.67087460e-001
      2.55153570e-002 -1.12593614e-001 4.78011332e-002 -1.91099942e-001
      -1.52391419e-001 2.38186404e-001 -7.25811198e-002 9.13193375e-002
      1.31580189e-001 2.27121208e-002 3.69621441e-002 2.57055759e-001
      5.23140691e-002 -1.41878620e-001 3.76981199e-002 -1.41405746e-001
      3.53903286e-002 -1.93401679e-001 1.69153158e-002 8.00153017e-002
      8.67844075e-002 -2.29383573e-001 -3.39670390e-001 -1.63597763e-002
      6.36946002e-004 2.33229231e-002 1.99306116e-001 -1.30897388e-001
      6.91609159e-002 -5.86834289e-002 2.64401674e-001 3.86809334e-002
      8.54459852e-002 -1.80173770e-001 -4.43778336e-002 -2.31382638e-001
      -2.11686697e-002 1.06361121e-001 -1.57813877e-001 -9.15632546e-002
      -1.23319052e-001 -1.99048340e-001 1.12201817e-001 8.08154568e-002
      -1.12510473e-001 -1.55018538e-001 2.08212528e-003 6.76382184e-002
      -6.06843568e-002 2.87603766e-001 1.06606320e-001 -1.70243233e-001
      -1.01255946e-001 -1.51148260e-001 -9.20541137e-002 9.80866402e-002
      -3.80606711e-001 -3.33743989e-001 2.82591651e-003 -2.52221853e-001
      9.46531370e-002 3.84838581e-002 -6.44376725e-002 -2.81916142e-001
      1.15485765e-001 4.69705492e-001 -1.29909009e-001 3.05849433e-001
      2.93045714e-002 -9.38364342e-002 -7.23478198e-003 -1.30408391e-001
      -1.15078107e-001 1.97318211e-001 2.55376101e-001 -1.64159596e-001
      1.31786484e-002 -2.35083073e-001</_>
    <_>
      -6.88861534e-002 2.06756383e-001 2.15727612e-001 -1.81121100e-002
      5.90091534e-002 -3.03418815e-001 -1.36856183e-001 -1.23505099e-002
      -2.75741816e-001 -3.59706670e-001 -3.17212939e-001 3.73299196e-002
      -9.26261619e-002 1.32788017e-001 -1.81786999e-001 2.49319330e-001
      1.81126088e-001 -3.09693784e-001 -1.19419836e-001 1.05732337e-001
      1.99405596e-001 -3.89763787e-002 -1.13696493e-001 -2.66134888e-001
      -1.26596335e-002 1.21430159e-001 -1.65765986e-001 -2.30042100e-001
      -2.02676967e-001 1.35663182e-001 -2.27198303e-001 1.82164341e-001
      7.44773587e-003 -2.94373520e-002 3.82595599e-001 -1.63513079e-001
      -4.92703952e-002 -5.62981367e-002 -2.71788724e-002 6.60719723e-002
      -1.30678862e-001 -2.27630977e-002 -5.09195775e-002 4.24234569e-002
      -6.20755441e-002 2.85945330e-002 -2.71992683e-001 4.22458425e-002
      -9.37553197e-002 2.68393159e-001 1.75689697e-001 2.38107055e-001
      1.94436848e-001 -9.25526675e-003 1.29086956e-001 6.98244618e-003
      2.51780599e-002 4.39103357e-002 1.91678235e-003 -9.89888757e-002
      -1.41600385e-001 -6.90441579e-002 -1.85977444e-002
      -9.86938179e-002 -2.56936640e-001 -2.20082238e-001
      -1.43585771e-001 6.86123967e-002 -9.53834970e-003 3.25769514e-001
      2.85190225e-001 -1.67179734e-001 5.92486467e-003 1.68508500e-001
      1.96895063e-001 -3.53628993e-002 1.58099219e-001 6.80112913e-002
      -1.04035944e-001 -7.25122392e-002 -1.87948316e-001
      -2.00414240e-001 -2.91985217e-002 4.99635143e-003 -2.46142477e-001
      1.05814211e-001 -4.52464148e-002 2.40695640e-001 1.17644005e-001
      -2.15269521e-001 -8.57304707e-002 3.73573937e-002 -9.98851582e-002
      -1.07087698e-002 1.50661558e-001 2.54929185e-001 -1.40287727e-001
      -1.45016387e-001 9.83134806e-002 -2.90260702e-001 -1.34719208e-001
      2.73899257e-001 -2.08071675e-002 -1.07648398e-003 3.25598940e-002
      -8.54752609e-004 1.77267790e-001 -4.01792489e-002 -4.88532931e-002
      -6.01460710e-002 -2.79013179e-002 2.55036238e-003 9.56923887e-002
      6.37056977e-002 -1.02163196e-001 -1.40525311e-001 1.03441425e-001
      -4.11007144e-002 -4.58652116e-002 3.81600171e-001 8.34396109e-002
      -1.50685117e-001 2.45940685e-002 6.24088086e-002 9.08890441e-002
      -1.51816495e-002 1.72744125e-001 2.73009744e-002 2.11197659e-001
      -4.57123704e-002 1.47917103e-002 -1.07389860e-001 -5.73891029e-002
      -1.05293289e-001 -2.81253755e-001 2.97136426e-001 7.31587783e-002
      2.18753770e-001 2.18221858e-001 -6.72853962e-002 -2.14484513e-001
      -1.11030944e-001 1.27532095e-001 -3.63645814e-002 1.11080624e-001
      -5.81118604e-003 1.15365587e-001 -9.59930047e-002 9.36218202e-002
      5.67217171e-002 1.36807159e-001 1.81583136e-001 -2.06485897e-001
      1.35514185e-001 -3.18855140e-003 -1.85173023e-002 1.24353714e-001
      7.32810423e-002 -2.89672494e-001 1.65600076e-001 1.72048852e-001
      -6.92322925e-002 6.51611239e-002 1.25529421e-002 1.45098433e-001
      -9.04989690e-002 -1.18141465e-001 1.32943466e-001 1.64800256e-001
      3.10184687e-001 6.20810241e-002 2.44913027e-002 -1.19144190e-002
      8.66245385e-003 -8.22255388e-002 -3.15230456e-004 -9.87395793e-002
      -9.84800607e-003 -3.24863940e-002 1.04980774e-001 1.50399998e-001
      7.09779635e-002 7.36331865e-002 -9.46525633e-002 -2.45208424e-002
      -2.90275421e-002 2.40772702e-002 1.29389847e-002 1.90320075e-001
      2.43828312e-001 -1.25668868e-001 -1.50537148e-001 -1.18655309e-001
      7.46610239e-002 3.03994305e-002 -1.90757766e-001 -2.65576035e-001
      1.30123109e-001 9.88597870e-002 1.01247348e-001 -3.70032936e-002
      -2.42912218e-001 1.12474181e-001 -1.83180958e-001 1.41924927e-002
      -8.63235146e-002 2.18752474e-001 1.99197263e-001 6.69241026e-002
      -4.40841280e-002 -2.74819080e-002 2.00866044e-001 -2.44608939e-001
      -1.98909398e-002 -3.61813724e-001 1.36157706e-001 1.26584962e-001
      4.43335399e-002 -1.16180725e-001 -3.95040959e-001 5.54415956e-002
      -5.58058992e-002 -2.88312789e-002 -5.07364161e-002 1.44980416e-001
      1.04675852e-001 8.80585015e-002 1.23804875e-001 -6.78564534e-002
      1.15023717e-001 -2.44440213e-001 1.07381023e-001 -1.06257483e-001
      6.00698171e-003 -3.09803933e-002 1.10226750e-001 1.58508465e-001
      -3.35676551e-001 1.94155669e-003 -3.32366973e-002 2.18787938e-002
      8.16589296e-002 -1.81707740e-001 -3.00974352e-003 9.86389890e-002
      1.26016498e-001 -9.31922793e-002 9.45018679e-002 -2.10658997e-001
      9.69502032e-002 1.60090417e-001 -1.68009371e-001 4.69221286e-002
      1.21493787e-001 4.80637997e-002 -9.52322856e-002 1.92816392e-001
      -9.65027064e-002 1.87777113e-002 1.22136183e-001 -8.40457082e-002
      4.30658720e-002 1.03257738e-001 -1.06902830e-001 -2.60791630e-001
      2.11090684e-001 -3.58847767e-001 -5.48831411e-002 -4.42941636e-002
      -9.74023491e-002 1.71360612e-001 -7.95351192e-002 -8.21206942e-002
      1.49666950e-001 1.35883421e-001 -9.89951938e-002 -1.17776744e-001
      8.04863200e-002 1.91535577e-001 -7.53270388e-002 -2.93996911e-002
      -1.49120510e-001 -2.91863769e-001 2.87108183e-001 -1.23054631e-001
      -2.53521740e-001 -2.85507917e-001 2.00311586e-001 1.29744843e-001
      -1.80809304e-001 8.05373192e-002 1.98868558e-001 -1.29233539e-001
      -6.03234842e-002 -1.37604088e-001 1.78579494e-001 1.94292992e-001
      -1.52841419e-001 -1.69300273e-001 1.61469862e-001 -1.96887031e-001
      1.56547897e-003 -3.16663027e-001 -2.38566428e-001 -2.02953797e-002
      7.20936134e-002 1.51127055e-001 -5.21622971e-002 1.15947530e-001
      -8.57592747e-003 6.94164038e-002 5.80757037e-002 8.26221406e-002
      2.97881126e-001 3.22616160e-001 1.77001897e-002 -8.07193518e-002
      1.12460136e-001 -2.77909517e-001 9.52789187e-002 -2.77128041e-001
      -2.21283864e-002 1.45190462e-001 -2.69383378e-002 -8.19989517e-002
      -7.90314004e-002 -1.74224392e-001 -2.31258154e-001 1.50464356e-001
      1.07994713e-001 1.54547155e-001 2.96317846e-001 7.31403893e-003
      1.64582014e-001 -2.52771471e-002 -1.28580227e-001 -3.96362275e-001
      1.22454263e-001 -8.89207572e-002 -8.62482339e-002 2.24959850e-001
      8.39863345e-002 2.03668952e-001 -1.58669949e-002 2.64725238e-002
      -2.25222990e-001 3.19148600e-002 -1.56233668e-001 -8.58859345e-003
      1.20160088e-001 1.92025602e-001 3.72481197e-001 7.09069297e-002
      1.60991415e-001 -1.19033568e-001 -2.24625338e-002 -1.46771207e-001
      -2.48190612e-001 2.30985224e-001 2.40131378e-001 1.68842271e-001
      4.69578281e-002 8.91557485e-002 -1.29227415e-001 -2.03402057e-001
      -1.29127473e-001 1.18220367e-001 1.00065723e-001 8.63740593e-002
      9.56174135e-002 1.31305695e-001 3.46439540e-001 -6.88823089e-002
      -2.19876334e-001 -4.07612287e-002 -1.13356568e-001 2.53291398e-001
      1.54336214e-001 6.75140619e-002 -3.83970067e-002 -1.60010114e-001
      -1.17900372e-001 -1.25569299e-001 -9.84389111e-002 3.68603617e-001
      3.73622209e-001 2.15758130e-001 3.57131176e-002 2.37050820e-002
      2.06227541e-001 -9.50291567e-003 -1.80474192e-001 1.70306012e-001
      3.39603901e-001 3.77831846e-001 1.48233429e-001 -2.58583110e-002
      -1.53117105e-001 -2.26617798e-001 -5.45332208e-003 2.08601743e-001
      -1.55948922e-001 1.74453110e-001 8.91468748e-002 -5.66629358e-002
      -9.72530916e-002 8.12641438e-003 -4.87938710e-002 -4.19412032e-002
      1.24405302e-001 -2.14798838e-001 2.20573112e-001 2.69695073e-002
      -1.49152145e-001 1.43882781e-001 -8.47613346e-003 -1.11885600e-001
      -9.14957002e-002 3.38175088e-001 1.90800741e-001 1.98370904e-001
      3.62533741e-002 -6.99411556e-002 4.38852049e-002 1.58590823e-001
      -4.24481243e-001 -1.69462711e-001 2.24452823e-001 -1.66445538e-001
      -1.22721322e-001 -1.86383739e-001 -2.17470407e-001 2.56486237e-001
      1.80257186e-002 3.02866735e-002 -1.51309326e-001 2.85510421e-001
      1.08833030e-001 1.28504500e-001 8.13887343e-002 2.48672012e-002
      -3.22997384e-002 1.17492989e-001 -1.05456606e-001 -1.71960518e-001
      4.87525538e-002 -2.20325321e-001 -2.00097457e-001 -2.70564079e-001
      -6.11742437e-002 6.71690702e-002 -1.12346441e-001 3.68788615e-002
      -1.84419483e-001 1.97107285e-001 1.53430589e-002 2.59798288e-001
      1.76110968e-001 1.35379732e-001 -3.41157496e-001 -1.35145888e-001
      2.22581029e-001 -9.05005857e-002 1.72465723e-002 -2.01049387e-001
      -1.29906312e-001 -8.78375396e-002 -1.21183269e-001
      -6.97047114e-002 -3.04873168e-001 -1.28190234e-001
      -4.96484004e-002 2.22261876e-001 2.16883495e-002 2.69656479e-001
      2.41425648e-001 2.48302579e-001 -2.87688643e-001 -2.30797321e-001
      4.51087765e-002 -2.44675279e-002 5.66457547e-002 -6.54574111e-002
      -2.01793276e-002 -4.86562215e-002 -1.73401564e-001 1.26138076e-001
      -2.98296899e-001 -1.41719267e-001 1.30113680e-002 1.13845259e-001
      3.20208482e-002 1.28179476e-001 6.78242594e-002 2.74345994e-001
      -8.98290649e-002 1.30404800e-001 -1.70724913e-002 -1.86453059e-001
      -4.99874763e-002 -1.72031820e-001 -9.40053985e-002 1.15269884e-001
      -5.49967103e-002 1.53747186e-001 -9.55005586e-002 -3.66628915e-002
      -1.41972005e-001 1.37939900e-001 -1.27299801e-001 2.00952813e-002
      -2.12869942e-002 1.12132005e-001 -1.31524086e-001 1.17175281e-001
      -1.78090017e-002 -3.46772254e-001 5.01680933e-002 -2.22890869e-001
      7.88861793e-003 -6.54519871e-002 -8.26564897e-003 -1.21190570e-001
      -3.87074389e-002 2.32196860e-002 -1.87833861e-001 1.22008786e-001
      -4.65568393e-001 2.09089145e-001 1.07374825e-001 6.30578026e-002
      -1.51220635e-001 9.45391655e-002 2.38072142e-001 -1.70220017e-001
      -3.76866758e-002 -1.17248923e-001 1.56982318e-001 8.04484040e-002
      -5.62696811e-003</_>
    <_>
      1.83272168e-001 2.66334325e-001 1.44641429e-001 -3.89130592e-001
      1.08890735e-001 -7.56286979e-002 -4.18765061e-002 3.12242117e-002
      -1.50022045e-001 -3.41836244e-001 -6.00531586e-002
      -6.63231164e-002 -9.71240103e-002 3.09533834e-001 4.66596335e-002
      3.12187016e-001 2.10603401e-001 -4.32637811e-001 -6.60090223e-002
      3.04713920e-002 1.57267720e-001 -3.12605232e-001 -4.21396196e-002
      9.95602384e-002 -8.90476629e-002 1.04135223e-001 -5.23530617e-002
      -2.39950612e-001 -2.87084550e-001 1.56024098e-001 7.88605437e-002
      2.89334178e-001 2.35108897e-001 -1.29782945e-001 2.34372064e-001
      -2.59960860e-001 1.24975014e-002 7.44409040e-002 1.50510877e-001
      -2.21302480e-001 3.38259526e-002 1.72171950e-001 -1.74202979e-001
      7.19860708e-003 -7.73479044e-002 -5.91195934e-003 -1.58349708e-001
      1.47935212e-001 -2.57289838e-002 1.77593946e-001 3.67577136e-001
      1.53256238e-001 1.82200193e-001 1.04862943e-001 1.58685982e-001
      1.28502667e-001 -4.76341508e-002 -4.69352841e-001 -1.09856157e-002
      1.32193044e-001 -2.33270880e-002 -6.13154992e-002 1.15188777e-001
      -2.62531489e-002 -1.50050581e-001 -1.25971764e-001
      -1.87729880e-001 7.31480271e-002 3.23912911e-002 3.37498963e-001
      4.10765335e-002 2.27575116e-002 1.46835238e-001 9.48161185e-002
      -3.45238633e-002 -3.61884207e-001 8.64269808e-002 1.88299865e-001
      6.23732693e-002 -5.31405956e-002 1.94098309e-001 -2.10780814e-001
      -7.09404945e-002 2.44574230e-002 -3.34647506e-001 1.75475329e-001
      4.49061058e-002 3.92350018e-001 2.10390817e-002 -1.91270947e-001
      2.11705923e-001 -8.65722224e-002 -1.56283095e-001 -8.52847397e-002
      1.81277707e-001 1.33276716e-001 -7.84598067e-002 4.43531312e-002
      4.30672944e-001 -3.34961683e-001 -1.03875324e-002 2.72355855e-001
      -1.92869276e-001 -6.68087974e-002 -1.03989549e-001 2.75769860e-001
      2.19676390e-001 -8.51990879e-002 2.54215896e-001 -1.72378317e-001
      -8.42477903e-002 1.02041379e-001 2.17014059e-001 -7.18449056e-002
      -9.73754600e-002 2.07046606e-002 3.48129213e-001 2.62384359e-002
      -8.94301534e-002 1.87648997e-001 8.78630579e-002 -8.35515335e-002
      1.13020856e-002 8.77282619e-002 2.36913502e-001 7.55442306e-002
      3.31254065e-001 -2.10451603e-001 -8.91013592e-002 -2.01064631e-001
      7.53726512e-002 -8.89222510e-003 -9.71940462e-004 -6.03701994e-002
      -5.84429363e-003 2.05456644e-001 -1.50398966e-002 -1.07834838e-001
      2.56994605e-001 -2.13180128e-002 -3.47933434e-002 -1.77790478e-001
      -7.73375332e-002 -1.91343263e-001 2.24293545e-001 -1.31928623e-002
      -7.53587410e-002 -1.37390047e-001 1.53806105e-001 -7.68858148e-003
      6.01508245e-002 9.54707712e-002 -7.06579164e-002 1.94231302e-001
      6.61173165e-002 -1.53038219e-001 -1.67267222e-003 2.74710417e-001
      -1.08526446e-001 -5.93000539e-002 -1.34281352e-001
      -1.15912937e-001 -2.44842023e-002 4.90893237e-003 3.95437554e-002
      -3.12943906e-002 7.40786642e-002 5.35981096e-002 2.04215031e-002
      2.73528486e-001 2.49906685e-002 -1.01452492e-001 7.98856765e-002
      7.34241381e-002 2.82323025e-002 2.04813734e-001 -1.43769169e-002
      -1.90520033e-001 -1.03427239e-001 -2.45081633e-001
      -1.77523315e-001 -2.34609321e-002 -3.13712396e-002
      -4.56967577e-002 1.62504748e-001 -1.01050749e-001 1.49866521e-001
      2.81612296e-002 -1.80347101e-003 -3.92796658e-002 -9.98667330e-002
      -1.65282562e-001 -1.04810394e-001 2.16419309e-001 -5.99459559e-002
      -7.72701576e-002 -9.31817740e-002 -3.43217403e-001
      -1.13787711e-001 1.00433953e-001 1.87355697e-001 5.58485761e-002
      1.27462089e-001 -1.61173299e-001 2.68631149e-002 1.03156686e-001
      7.58780837e-002 2.09623650e-001 1.32468268e-001 8.26542750e-002
      -2.51784861e-001 1.04411677e-001 -3.14223289e-001 -6.49279654e-002
      -9.16113853e-002 -6.17239662e-002 -1.32535025e-002 1.84684724e-003
      1.18811749e-001 -9.14515276e-003 2.12189436e-001 -4.95478362e-002
      -3.42864804e-002 3.92230824e-002 1.00373544e-001 6.57106638e-002
      -1.93099286e-002 2.18205616e-001 -3.02627176e-001 1.91863000e-001
      -1.08182870e-001 3.07366941e-002 -8.58020410e-002 -3.15916799e-002
      -6.73591271e-002 3.60311678e-004 5.99989779e-002 -1.24248430e-001
      -1.33767826e-002 -1.04287826e-001 3.78892981e-002 1.11020431e-001
      6.38557225e-002 -2.25962386e-001 -8.61134604e-002 9.40447003e-002
      -1.68062136e-001 8.45804662e-002 5.21672294e-002 1.04226105e-001
      4.32603434e-003 -1.42879352e-001 1.27892375e-001 -1.57633598e-003
      -6.73776418e-002 -3.66992764e-002 7.04013705e-002 -7.26137161e-002
      -2.41852272e-002 1.04634471e-001 -2.89334226e-002 -1.22629076e-001
      -1.01329228e-002 2.68991087e-002 -2.26496533e-001 2.03861833e-001
      -1.49152100e-001 -2.67584659e-002 -6.11351207e-002
      -3.27319831e-001 3.07601064e-001 -1.04761228e-001 -2.48660490e-001
      2.27408372e-002 1.44510537e-001 -1.35398775e-001 1.30596027e-001
      8.39777365e-002 1.05168857e-001 -9.44601446e-002 -1.62031442e-001
      -2.35052422e-001 -3.52023005e-001 2.92241096e-001 -3.73051703e-001
      -7.02325255e-002 -7.24132955e-002 9.16185156e-002 8.01221207e-002
      -1.94135338e-001 -1.35130003e-001 4.07237485e-002 5.87548688e-002
      -3.83017845e-002 1.00428961e-001 5.88212460e-002 2.07257852e-001
      -1.34731308e-001 -2.41895199e-001 -1.48179740e-001
      -2.52655059e-001 2.55956471e-001 -2.10284323e-001 9.98089463e-002
      -1.00329043e-002 5.69741912e-002 1.39991581e-001 -3.16708595e-001
      -2.97843605e-001 -6.56865686e-002 1.10779531e-001 1.94300175e-001
      6.11500591e-002 8.66361484e-002 1.70277908e-001 -4.50937711e-002
      -1.03103817e-001 -1.13500170e-001 -2.50475764e-001 2.14942545e-001
      -1.50793865e-001 3.83565575e-002 -3.81682366e-002 -1.05907097e-001
      -3.47419977e-002 -3.42445783e-002 -2.29747683e-001
      -3.02755415e-001 1.30844235e-001 -6.83879703e-002 -4.45190817e-002
      2.98463479e-002 -1.52960479e-001 -1.77921436e-003 -1.02199100e-001
      -3.00611764e-001 -3.01406622e-001 4.27717805e-001 -2.78139204e-001
      -6.99243844e-002 1.33179994e-002 -6.68694600e-002 2.92490393e-001
      1.47736117e-001 8.21810588e-002 4.75956500e-002 1.09566003e-001
      -2.72227317e-001 -1.36553466e-001 -6.79290965e-002 2.75902748e-001
      9.30427238e-002 -2.80197859e-001 -3.59597690e-002 1.40336871e-001
      2.14536577e-001 -1.42449096e-001 -2.50132084e-001 1.10765755e-001
      1.26669481e-001 9.02825445e-002 -2.28290949e-002 6.69742525e-002
      7.92123377e-002 6.89160302e-002 -2.88724750e-001 -6.65395409e-002
      1.11645900e-001 1.52110159e-001 -2.04384193e-001 -3.22388560e-001
      -1.48815764e-002 1.66651458e-001 1.14171438e-001 1.16903201e-001
      1.11834303e-001 3.57033849e-001 -1.03822924e-001 -1.07389621e-001
      1.06309615e-001 -7.37686381e-002 -1.68683574e-001 1.14851259e-001
      -3.29972297e-001 2.21373439e-001 2.10495725e-001 4.57359627e-002
      7.20186066e-003 -1.65535901e-002 1.09254219e-001 1.57905385e-001
      6.52194768e-002 -6.21079765e-002 3.46371770e-001 2.56126851e-001
      -2.22206280e-001 -2.00214460e-001 4.47444953e-002 -1.10634834e-001
      -8.38892609e-002 2.59897619e-001 -5.19240022e-001 4.08718772e-002
      3.59057114e-002 -9.98379290e-002 -2.61437111e-002 1.83915585e-001
      6.64461851e-002 -2.16801986e-001 3.00247490e-001 -3.98083776e-001
      7.99586102e-002 6.07963353e-002 -4.20797728e-002 -2.11268917e-001
      -9.66178626e-002 -1.54045522e-001 -3.99161987e-002 2.41904274e-001
      -1.25217214e-001 9.71061215e-002 -5.65111153e-002 -7.85713047e-002
      -9.13380831e-002 2.13676035e-001 -4.23495442e-001 -2.54298747e-001
      2.97265410e-001 -4.57089283e-002 -2.43168533e-001 -1.47809004e-002
      6.97080418e-002 -5.01188170e-003 6.49796650e-002 -9.41226184e-002
      -1.19372293e-001 1.64753109e-001 4.68832590e-002 1.90580666e-001
      5.72402030e-002 -7.37355128e-002 3.51994373e-002 2.49108821e-001
      -1.48027018e-001 -2.71806508e-001 6.17336445e-002 1.19965009e-001
      -1.51214108e-001 -1.82735324e-001 6.83679355e-006 1.43664405e-001
      8.37235004e-002 2.36484542e-001 -9.37057734e-002 1.01407252e-001
      -7.83993378e-002 1.91161349e-001 -2.82915868e-003 1.41631991e-001
      -1.34415761e-001 1.05701141e-001 3.66148710e-001 -7.61168497e-003
      1.43551081e-001 1.54913738e-001 2.04870757e-002 -1.89845085e-001
      -1.17404096e-001 6.78551272e-002 -1.97648227e-001 -1.19133614e-001
      -4.02334593e-002 1.02951527e-001 -1.57271862e-001 2.70208150e-001
      8.20445567e-002 2.16044620e-001 -3.47965769e-003 7.59959221e-002
      3.57979000e-001 3.24057460e-001 1.63678378e-001 6.78781047e-002
      2.76909973e-002 -5.11581749e-002 -1.45201534e-001 3.90853211e-002
      -3.08471084e-001 -2.71712333e-001 -2.54230928e-002 2.19686598e-001
      5.75786047e-002 1.81976214e-001 2.69153155e-002 1.07907757e-001
      -4.16993983e-002 2.68877834e-001 8.62117559e-002 2.55256742e-001
      -8.31996500e-002 -1.71745971e-001 -2.05178067e-001 1.35175303e-001
      -6.84634298e-002 -4.20930162e-002 -6.09631874e-002
      -1.49686992e-001 -4.04862016e-002 2.64994889e-001 -6.62979856e-002
      9.14176926e-002 5.48107438e-002 4.38152365e-002 -1.70133740e-001
      3.53500128e-001 -1.57401115e-002 -9.62687656e-002 4.30471003e-002
      -2.46299013e-001 -1.14997201e-001 3.43665630e-002 5.57837561e-002
      -1.91900074e-001 5.20115569e-002 -1.37820259e-001 -9.99173075e-002
      -6.79315673e-003 -3.18100631e-001 3.26849103e-001 4.03808594e-001
      1.23459905e-001 -6.69996887e-002 3.46254289e-001 -5.42692877e-002
      -2.17892155e-001 2.28579827e-002 1.78628221e-001 1.14987686e-001
      1.24074876e-001 -1.48974592e-002</_>
    <_>
      4.70601581e-002 1.07016161e-001 6.36948198e-002 1.83095336e-001
      -1.09911703e-001 -1.30494148e-001 7.20914155e-002 6.19366653e-002
      -1.48358628e-001 -2.96100378e-001 -4.45188358e-002
      -4.41572182e-002 2.07262903e-001 2.09067360e-001 1.42295659e-001
      4.43440564e-002 1.67247832e-001 -3.02577227e-001 -1.91164106e-001
      -1.35256723e-001 -1.14857778e-001 -2.14895271e-002
      -5.65380119e-002 6.63615987e-002 3.55652831e-002 1.83870107e-001
      -1.24539644e-001 -3.78837734e-001 -2.22745910e-001
      -1.75343826e-002 9.93690789e-002 6.70230091e-002 2.66220242e-001
      -1.01481259e-001 4.09147620e-001 -3.49991918e-001 -5.69187701e-002
      -4.52044606e-003 -4.45107333e-002 -6.05594330e-002
      -3.14283699e-001 7.12571591e-002 -5.51622473e-002 8.66480693e-002
      -9.60593671e-002 1.11261075e-002 -1.39998913e-001 1.22574292e-001
      -1.72845989e-001 1.10057250e-001 1.91531301e-001 1.66519865e-001
      1.62985679e-002 -5.09022363e-002 -5.50533831e-002 -6.42180517e-002
      -1.03780538e-001 1.02152869e-001 -9.06924531e-002 3.33155125e-001
      6.03440851e-002 1.93495974e-001 4.06071404e-003 1.01397455e-001
      -4.53157693e-001 -2.55396187e-001 -1.40065148e-001 3.88577469e-002
      -1.41223907e-001 2.28659838e-001 1.17767237e-001 8.91955495e-002
      -1.94525898e-001 -1.98912621e-001 -5.32476641e-002 8.47844779e-002
      -1.01850899e-002 1.62270606e-001 1.70724243e-001 1.67727560e-001
      -6.32750569e-003 -2.97747582e-001 -3.88574481e-001
      -1.93580851e-001 -1.18467554e-001 1.42623872e-001 -2.25961357e-001
      2.03546748e-001 2.06514612e-001 -1.98863238e-001 -1.57857910e-001
      8.27193726e-003 2.39380803e-002 1.06288522e-001 -2.52718199e-002
      1.70228943e-001 1.81282595e-001 1.85931362e-002 6.18828908e-002
      -2.83462614e-001 -2.85664976e-001 -2.79182121e-002
      -1.60618737e-001 7.48710483e-002 -1.62406191e-001 2.43637934e-001
      3.19724619e-001 -1.53323691e-002 7.20908865e-002 -1.88066602e-001
      2.33648092e-001 5.60078099e-002 -1.37186553e-002 8.42793956e-002
      2.16808021e-002 -1.62464350e-001 9.10930559e-002 9.56585333e-002
      -2.09394231e-001 -9.72222239e-002 -8.95688310e-003
      -7.11438805e-002 9.03676301e-002 1.40526026e-001 2.06523910e-001
      2.68947706e-002 2.85794944e-001 -2.58397728e-001 1.93080738e-001
      -4.32106197e-001 -3.75071317e-002 -1.80099253e-002 6.41572997e-002
      -2.14221627e-001 -1.18507603e-002 4.01141852e-001 -1.27583429e-001
      -3.08744133e-001 5.54545000e-002 1.27244750e-002 3.09951920e-002
      -1.80659264e-001 1.80413425e-001 8.65049288e-002 1.48874685e-001
      -1.58522092e-002 1.21102102e-001 -2.08698899e-001 2.77940538e-002
      -2.81024307e-001 -1.08804315e-001 -1.68334239e-003 5.74277760e-003
      3.00301224e-001 -4.15805466e-002 -2.28337944e-001 -1.29369393e-001
      1.22888602e-001 -3.16709995e-001 -1.18482374e-001 1.66125774e-001
      2.25059420e-001 1.10262766e-001 7.56004676e-002 1.37254432e-001
      5.80224954e-003 1.45684239e-002 -1.96058825e-001 2.25804988e-002
      5.33716492e-002 4.97777434e-003 2.37286612e-001 -7.06496239e-002
      -4.49256003e-002 1.89850032e-001 2.58305315e-002 -3.48049074e-001
      -2.11368218e-001 2.41280477e-002 1.84105232e-001 2.04917356e-001
      -4.98057827e-002 -1.50704980e-001 -2.15000153e-001
      -1.99684873e-001 -1.29415035e-001 2.02273577e-001 1.16575316e-001
      1.26891464e-001 2.83771306e-001 -2.03302830e-001 -4.12296146e-001
      1.95518062e-002 -3.74665223e-002 -7.92373344e-002 -2.18592092e-001
      2.21080985e-002 -5.08892536e-002 4.81652208e-002 2.93530732e-001
      1.30947769e-001 -1.86679378e-001 -5.69642633e-002 -6.94309473e-002
      1.80097237e-001 1.40718743e-001 1.98497877e-001 1.55333176e-001
      3.63678753e-001 6.67885989e-002 1.37481242e-001 -4.04183902e-002
      2.85739265e-002 -1.07028842e-001 -4.85106409e-002 1.65485665e-002
      -5.90879377e-003 1.78560197e-001 5.63591942e-002 -2.60745287e-001
      -3.44505161e-002 -4.40531671e-002 1.35760093e-002 4.52323258e-002
      -4.28029150e-002 3.32994796e-002 1.91138193e-001 2.57209063e-001
      1.82287708e-001 4.00461704e-002 -1.30490929e-001 -1.95124730e-001
      4.64107096e-002 -1.64216548e-001 -1.34312034e-001 -1.01467758e-001
      6.44663768e-003 -2.65159696e-001 3.98808718e-002 -7.74212033e-002
      6.59433752e-002 1.91422537e-001 -1.18817128e-001 -1.00786641e-001
      -1.12793997e-001 1.83750331e-001 7.58395763e-003 5.22833504e-002
      -5.76523915e-002 -1.35676324e-001 1.42401606e-001 -1.54623583e-001
      -6.13806695e-002 -1.68547913e-001 -1.08871751e-001
      -1.64371133e-001 2.19314903e-001 -1.75596267e-001 8.40273201e-002
      3.58041264e-002 5.09010777e-002 -5.03554828e-002 -1.58974454e-001
      4.71588112e-002 -2.65882164e-001 2.29762465e-001 -1.24713622e-001
      -2.80406982e-001 -2.88440287e-001 -7.19009638e-002 1.89121440e-002
      -1.97821632e-001 -2.56063312e-001 3.82740609e-002 1.51182964e-001
      -2.46803820e-001 -4.97888289e-002 3.73072550e-002 2.79080570e-001
      -5.93742095e-002 -1.06727034e-001 -1.80500314e-001
      -7.50781819e-002 1.88899666e-001 -1.69421792e-001 -1.12340905e-001
      -2.50035912e-001 2.47325167e-001 7.94205070e-002 -1.14826158e-001
      -2.10570142e-001 1.47336841e-001 -1.28201991e-001 -1.20109573e-001
      -2.39097655e-001 5.19936346e-002 2.71311134e-001 9.90821049e-002
      -1.18780229e-002 -1.61858335e-001 4.66749556e-002 -4.45166007e-002
      -1.61056235e-001 1.08526327e-001 -2.24573668e-002 3.86540711e-001
      -2.48865504e-002 -8.21468979e-002 -3.75852138e-001
      -1.69736430e-001 4.01860140e-002 -9.82271358e-002 -2.15745822e-001
      -1.82255834e-001 8.31972957e-002 1.51050285e-001 1.05831631e-001
      -1.12588540e-001 -3.18927824e-001 5.28990850e-002 -8.59611332e-002
      -1.62008941e-001 4.32749167e-002 1.25406414e-001 -2.83772200e-001
      -1.34761799e-002 -1.62920445e-001 -1.71189725e-001 1.67413637e-001
      1.58296824e-001 -1.06774317e-002 -1.66249186e-001 -1.20572858e-001
      3.11452448e-002 -6.80565462e-002 -7.71172643e-002 -2.74004877e-001
      2.34962136e-001 -1.38100594e-001 -1.95342958e-001 -7.49772936e-002
      1.38894975e-001 -4.24639024e-002 -1.84155688e-001 2.09224168e-002
      -3.45112383e-001 2.65896711e-002 -4.83294874e-002 -1.01522259e-001
      6.27767146e-002 2.70088375e-001 3.20189714e-001 -3.04123968e-001
      8.09141099e-002 -2.24029094e-001 9.72225964e-002 -2.88435757e-001
      -1.54200464e-001 2.96624303e-001 2.15369120e-001 6.14175014e-002
      -2.56722629e-001 -1.48522452e-001 -2.69697189e-001 9.08338502e-002
      -7.85535350e-002 3.29820439e-002 1.49932235e-001 2.79911667e-001
      1.39103591e-001 -2.76787907e-001 -3.25451680e-002 5.16476408e-002
      2.43368998e-001 -1.55300483e-001 -1.43670589e-001 2.58135766e-001
      6.21201396e-002 -1.03370093e-001 -1.50343403e-001 -5.30058920e-001
      -3.69476140e-001 1.59134760e-001 9.10031144e-003 2.49391437e-001
      2.26374432e-001 -3.36137339e-002 -3.06495816e-001 -3.57340962e-001
      -3.06280971e-001 7.36549124e-002 2.70736873e-001 -1.02345243e-001
      -2.08771266e-002 1.91316396e-001 -1.54827118e-001 -9.56529677e-002
      -1.11187838e-001 -2.82779872e-001 -1.80486158e-001 2.00379834e-001
      -7.19052777e-002 -2.80695334e-002 1.29086629e-001 -1.57735720e-001
      -3.41985136e-001 -4.10121158e-002 -1.59375966e-002 3.46700777e-003
      3.25134754e-001 -1.57430068e-001 -8.38235244e-002 3.46425436e-002
      -3.35071862e-001 -1.04946353e-001 -2.47102156e-001
      -1.99398264e-001 -1.77534282e-001 2.19646409e-001 -1.68844219e-002
      -4.44746427e-002 -1.22999489e-001 -1.28077820e-001
      -2.94869959e-001 -8.75803991e-004 -5.44537865e-002
      -4.24766392e-002 2.80415893e-001 -7.34273121e-002 -2.17516333e-001
      -1.57785669e-001 -2.61615187e-001 -2.63837948e-002 7.50834448e-003
      3.43969539e-002 -8.59599113e-002 1.07003503e-001 -6.32556453e-002
      1.15449578e-001 -8.82405713e-002 -6.31715730e-002 -8.24753642e-002
      2.54315943e-001 -1.21045753e-001 -1.19117886e-001 2.96012729e-001
      -1.20158859e-001 -1.89793825e-001 -1.95542216e-001 4.01718616e-002
      -1.98123053e-001 -3.05000506e-002 1.78210527e-001 -4.07116115e-002
      1.16314523e-001 -1.59680903e-001 1.12499706e-001 2.83187497e-002
      -5.07848058e-003 -3.02715838e-001 1.43618494e-001 -5.84676154e-002
      2.72803809e-002 2.07783177e-001 -1.01708353e-001 -4.07570899e-001
      -3.52911979e-001 -9.26459059e-002 -1.53472006e-001
      -5.61713949e-002 3.31767686e-002 1.20942198e-001 -4.31557372e-002
      9.04119611e-002 1.84563380e-002 2.37389039e-002 1.74259752e-001
      -9.99316648e-002 7.36393481e-002 7.35187456e-002 2.56576896e-001
      7.08360225e-002 -4.55631129e-002 -4.32365417e-001 -3.21453124e-001
      6.45100325e-002 8.38135108e-002 -1.34030327e-001 6.56653941e-002
      -5.95777705e-002 6.73448145e-002 6.23025894e-002 1.63239494e-001
      -2.30532531e-002 2.72163033e-001 4.65192571e-002 9.83020514e-002
      1.58769283e-002 1.60424903e-001 7.49922916e-002 -3.25368464e-001
      -2.90208727e-001 -1.21730410e-001 1.15874961e-001 8.77064988e-002
      1.28163233e-001 5.78325102e-003 -4.10561822e-002 2.95055173e-002
      1.00037374e-001 -2.02055082e-001 1.21819012e-001 1.46828711e-001
      -1.45739853e-001 1.39220476e-001 -4.06033769e-002 -1.91932559e-001
      1.00128673e-001 -3.41065705e-001 -2.68598884e-001 -1.45930573e-002
      5.90319522e-002 -9.58968997e-002 -3.07213236e-003 -6.59662187e-002
      -2.83936458e-003 1.53439358e-001 1.73740447e-001 -1.81585401e-001
      3.36795270e-001 1.96851835e-001 -8.62834379e-002 1.95630744e-001
      -1.30558237e-001 -3.64150912e-001 7.34579638e-002 2.50597715e-001
      -4.36863303e-002 2.42638677e-001 6.12452580e-003</_>
    <_>
      1.79615721e-001 3.58199775e-001 5.72281219e-002 -1.73602864e-001
      -1.10215224e-001 3.23879421e-001 3.12857389e-001 8.92056674e-002
      8.25755894e-002 -4.64777537e-002 4.46728706e-001 -6.61952347e-002
      4.00181562e-001 2.76016027e-001 1.29275426e-001 1.95448577e-001
      8.48998874e-003 -1.85572162e-001 -1.88561045e-002 1.13907121e-001
      2.25598410e-001 -1.21465204e-002 6.87746005e-003 5.08280694e-001
      -2.42876232e-001 5.57983965e-002 1.44647762e-001 -2.55548596e-001
      -1.59595028e-001 8.29103366e-002 4.23608631e-001 -1.20957950e-002
      1.83933586e-001 -1.08653009e-001 -1.40724346e-001 -1.69295564e-001
      1.61225777e-002 4.53994982e-002 2.32554078e-001 -1.00669235e-001
      5.91383539e-002 1.85612544e-001 -2.49129802e-001 1.28856078e-001
      6.16118461e-002 -2.56845564e-001 -2.68229365e-001 1.03745423e-002
      1.02761716e-001 -1.15562372e-001 -1.30213676e-002 -1.05166160e-001
      -1.55445538e-003 2.35148072e-001 -1.39077872e-001 1.16089098e-001
      -1.01311974e-001 -2.69783378e-001 1.68230087e-002 1.04890309e-001
      1.43939942e-001 3.34554166e-001 1.25838831e-001 -2.15875417e-001
      -2.28096396e-001 -5.79558313e-002 1.31789461e-001 1.76528528e-001
      7.72545785e-002 6.56521469e-002 -5.43281101e-002 3.37520868e-001
      -9.40834954e-002 7.21404403e-002 -1.93947792e-001 -3.39726865e-001
      -1.37024477e-001 1.06903557e-002 1.90326646e-001 9.64845791e-002
      3.00607830e-001 -2.14514688e-001 -2.10119653e-002 -1.29178956e-001
      1.32665381e-001 2.22538292e-001 -8.30547810e-002 9.61969942e-002
      -1.01687923e-001 6.02194443e-002 5.10409534e-001 3.84215103e-003
      -6.90207481e-002 -2.70295948e-001 -3.80635895e-002
      -5.39538562e-002 2.48613507e-001 2.27606758e-001 3.85211706e-001
      -7.16906786e-002 2.21140519e-001 -1.86202958e-001 -2.45213419e-001
      4.66339849e-003 -2.35870689e-001 1.99091807e-001 -1.03903860e-001
      -1.96907103e-001 5.76448262e-001 -5.84175140e-002 -3.79338592e-001
      -4.83047888e-002 3.68380658e-002 1.07554317e-001 2.76917994e-001
      3.62403631e-001 1.60713539e-001 3.52767073e-002 -2.86527216e-001
      -4.72583145e-001 -3.46316351e-003 6.53507262e-002 1.18840694e-001
      1.88034907e-001 1.35923952e-001 -1.94147274e-001 2.01879114e-001
      -3.39372188e-001 -5.38466573e-001 -3.98723662e-001 1.24744147e-001
      3.19995314e-001 -1.04578510e-001 2.07315654e-001 4.50186789e-001
      8.29726644e-003 -2.71271437e-001 -4.77021128e-001 7.64323622e-002
      3.15330364e-002 2.37650201e-001 1.17832031e-002 -2.20401511e-001
      -2.00722724e-001 2.04920933e-001 -1.40699357e-001 -1.11846007e-001
      1.40528500e-001 -1.24141593e-002 7.21831340e-003 -3.70000362e-001
      -1.67839065e-001 2.11736545e-001 2.12690592e-001 7.21867895e-003
      -8.52961689e-002 2.10509077e-002 2.29003981e-001 3.41247976e-001
      -4.75659758e-001 -3.65656167e-001 4.06542905e-002 1.06734578e-002
      -6.71485513e-002 -1.72155559e-001 2.75366604e-001 2.72055924e-001
      1.29651353e-001 -3.97086769e-001 -1.66580170e-001 -1.73394948e-001
      -1.16018793e-002 -1.19805008e-001 -1.02881767e-001 3.85070443e-001
      1.21605091e-001 2.10537612e-001 -3.74950081e-001 -5.91208115e-002
      -4.99398321e-001 -3.13987345e-001 -1.64710447e-001
      -3.11319679e-001 -7.85231031e-003 6.14346489e-002 -1.45980328e-001
      -3.20484233e-003 3.41512673e-002 -1.29326329e-001 -2.69954920e-001
      1.02201596e-001 -1.29532099e-001 2.65173972e-001 1.53464809e-001
      6.25950703e-003 1.01922736e-001 8.37730691e-002 -5.51429510e-001
      -2.62806797e-003 4.19343868e-003 6.99882880e-002 2.74732590e-001
      -4.01720516e-002 -6.82444200e-002 -2.65751593e-002 2.84609675e-001
      5.32593615e-002 -9.30455923e-002 1.72914073e-001 2.16437206e-001
      -2.60995954e-001 -4.11430374e-002 -1.40583798e-001 6.33444041e-002
      3.13305616e-001 -1.24915980e-001 -3.53900753e-002 -1.91340577e-002
      3.49977583e-001 2.94836819e-001 9.28671956e-002 -2.46418387e-001
      1.61491290e-001 1.25558823e-001 5.27953655e-002 -9.50848013e-002
      -5.45584187e-002 2.32506514e-001 -2.48857245e-001 1.52859971e-001
      -9.73706543e-002 -4.48181480e-002 1.41830191e-001 3.87327150e-002
      6.09170683e-002 -1.16756804e-001 -1.13874473e-001 1.00955836e-001
      -6.77942559e-002 -3.25416476e-001 -2.36399006e-002 6.98805600e-002
      4.05244350e-001 -1.79461911e-001 -1.89966589e-001 1.08156227e-001
      -1.57230645e-001 -4.20325436e-002 8.16599801e-002 -2.07479864e-001
      -1.60416916e-001 9.61019471e-002 1.69502031e-002 -1.83256015e-001
      -8.68913233e-002 9.21306163e-002 -3.35381925e-001 -3.41641530e-002
      -9.74267274e-002 -1.07078649e-001 1.02551103e-001 -9.82899815e-002
      -8.02555978e-002 3.47372472e-001 4.20629650e-001 -1.16035774e-001
      3.08147728e-001 3.84044796e-002 1.10593311e-001 -2.30666548e-001
      -3.31953680e-003 -2.16585770e-002 -4.30573285e-001
      -1.56450763e-001 -1.31176934e-001 -2.04212993e-001 2.85113037e-001
      -1.20655239e-001 -7.30163977e-002 -7.77906477e-002
      -1.23220071e-001 -2.02237442e-001 1.11974716e-001 -9.80531499e-002
      -2.87719548e-001 4.37386394e-001 3.01203191e-001 -1.07600160e-001
      -1.18382357e-001 1.29028991e-001 -4.22738552e-001 -1.20451383e-001
      -3.28354724e-003 -9.94177163e-002 2.32732534e-001 -4.66444314e-001
      4.63106334e-002 -9.82581824e-002 -1.97092459e-001 -5.03401577e-001
      2.80497521e-001 3.27455193e-001 1.00384444e-001 5.29764831e-001
      -1.26673758e-001 -1.02367900e-001 4.09871899e-002 -2.41521671e-001
      -4.64755028e-001 3.82043459e-002 9.31902006e-002 1.97803199e-001
      -7.55603798e-003 -2.35653326e-001 -1.69428036e-001
      -1.34430364e-001 6.69050589e-003 -1.07777663e-001 2.81435907e-001
      1.10576890e-001 3.54433119e-001 2.06820607e-001 5.12484983e-002
      -1.38886362e-001 -8.33677575e-002 -9.78023708e-002
      -2.26283029e-001 -4.33542728e-002 -1.89789847e-001
      -2.55762994e-001 -2.65766412e-001 -1.73348010e-001
      -2.02893540e-001 -2.83587158e-001 6.20065397e-003 -1.33404419e-001
      3.86505395e-001 3.18140209e-001 3.02235479e-003 3.18444036e-002
      -4.67727445e-002 -1.95450500e-001 -1.36589214e-001 2.76143759e-001
      4.64554057e-002 2.80593932e-001 -3.13670561e-002 -1.32834435e-001
      -4.12178002e-002 5.53458463e-003 8.81195068e-002 -3.90867859e-001
      -1.11318000e-001 7.64503554e-002 4.95855421e-001 2.07880110e-001
      1.17211640e-001 -2.30700728e-002 -1.13814890e-001 -1.50400624e-001
      -1.33997470e-001 1.36672363e-001 1.05622679e-001 2.30539292e-001
      2.46705040e-001 -2.10506693e-001 -2.60332048e-001 1.02952141e-002
      1.08217023e-001 -3.69429380e-001 -2.83198446e-001 -7.86452368e-002
      4.73597765e-001 3.37895125e-001 1.56559944e-001 7.70997852e-002
      -4.42236513e-002 -2.21452683e-001 -1.21712312e-001 3.10103387e-001
      1.79758355e-001 5.23061305e-003 4.23936784e-001 -3.57474387e-001
      -4.37692821e-001 -3.16655412e-002 -1.32965326e-001
      -2.65791714e-001 -3.68858278e-002 1.29921352e-002 2.55017787e-001
      2.06498235e-001 -2.39710197e-001 -2.98738241e-001 -2.82017998e-002
      -3.29218924e-001 -2.83365455e-002 2.84802645e-001 3.16722780e-001
      -4.08194326e-002 1.57661229e-001 -5.07359028e-001 -3.39047372e-001
      1.37553558e-001 -4.68054004e-002 -1.33699924e-001 1.64143875e-001
      2.49131352e-001 -1.01047985e-001 1.43706366e-001 -3.90427738e-001
      -2.59929448e-001 2.86314636e-001 1.96351975e-001 -4.26361710e-003
      1.53874859e-001 2.68844903e-001 6.72495216e-002 -1.85431644e-001
      -6.04454756e-001 -3.62545103e-001 2.71986723e-002 7.38379136e-002
      -3.67206901e-001 1.88144520e-001 -8.21258314e-003 -6.93018362e-002
      -9.61942226e-002 -2.16696113e-001 -3.35569113e-001 6.09952986e-001
      4.78054136e-001 -1.64272949e-001 2.24636510e-001 -5.94403185e-002
      3.78392152e-002 -5.09090759e-002 -2.25880757e-001 -1.15740046e-001
      -2.26870310e-002 -1.54497668e-001 -1.14898734e-001 3.08718264e-001
      -9.37404484e-002 -6.60669357e-002 3.11072059e-002 8.15604925e-002
      -1.30238399e-001 2.31049672e-001 8.91230926e-002 -2.95092203e-002
      2.30625629e-001 9.61428210e-002 6.92263916e-002 -1.13432832e-001
      3.48628759e-002 -1.52395973e-002 -1.90765515e-001 -2.90461421e-001
      2.62117714e-001 3.85902286e-001 1.67383313e-001 2.94426292e-001
      1.34821758e-001 2.67936379e-001 -5.86703904e-002 -1.53260365e-001
      -6.29873900e-003 6.34585740e-004 1.14894204e-001 1.36753783e-001
      6.63411021e-002 2.52756737e-002 1.11473925e-001 6.96782917e-002
      -1.09491110e-001 -3.24481547e-001 2.69219667e-001 1.55210689e-001
      2.95497566e-001 3.71256113e-001 3.04861069e-001 5.42876609e-002
      7.83339292e-002 9.83494669e-002 5.53754233e-002 -2.76007563e-001
      -1.25156373e-001 -1.97982088e-001 -1.45117357e-001 1.20980427e-001
      1.24560080e-001 1.23880534e-002 -1.85600057e-001 -2.29629099e-001
      -1.38540879e-001 -2.30221137e-001 -3.22210491e-002 5.48934579e-001
      9.34683979e-002 -2.99628139e-001 -1.67640492e-001 8.04935303e-003
      9.34995040e-002 -2.83655286e-001 -2.20098898e-001 -2.32663587e-001
      -9.93999373e-003 1.53273895e-001 2.53087938e-001 2.17056081e-001
      1.50570422e-001 2.40217969e-002 -7.78219290e-003 1.54582754e-001
      -1.85818430e-002 2.03331679e-001 4.77535129e-002 -1.06645368e-001
      -1.31055355e-001 1.43597677e-001 1.59182608e-001 1.35878325e-001
      -5.42580858e-002 -7.44164735e-002 9.58821401e-002 4.59967703e-002
      1.65407717e-001 3.51850212e-001 4.22288090e-001 3.91236879e-002
      2.75011748e-001 3.17019314e-001 -2.68960148e-002 -3.16241942e-002
      1.37597755e-001 1.37637272e-001 -1.33862168e-001 9.75894779e-002
      -2.57574804e-002</_>
    <_>
      1.74848791e-002 -1.33669013e-002 -1.97608754e-001 1.86261848e-001
      -1.43758863e-001 2.86019444e-001 3.00974578e-001 1.26193985e-001
      1.82578847e-001 6.73652217e-002 3.05137902e-001 2.37855650e-002
      4.79147345e-001 -7.90779963e-002 3.58115196e-001 -1.62982792e-001
      9.12933573e-002 1.44477114e-001 -7.09916130e-002 -2.02261701e-001
      -2.99163699e-001 7.79270157e-002 -1.67413778e-003 3.37966561e-001
      8.08830783e-002 1.35144845e-001 1.42657489e-001 -2.31255174e-001
      1.72181986e-002 -1.08487576e-001 3.08374614e-001 -2.92185694e-001
      2.33742267e-001 -1.72117755e-001 -1.69601664e-001 -1.92936838e-001
      1.12381466e-001 2.09637675e-002 -6.58251420e-002 9.11733806e-002
      -1.24382205e-001 4.04152945e-002 -3.59028913e-002 5.46786264e-002
      7.72716925e-002 6.44530654e-002 1.28127724e-001 -1.36436075e-001
      5.55435233e-002 -2.54972339e-001 -3.95409800e-002 -1.97018385e-001
      -2.33027548e-001 3.79798748e-002 -1.96366087e-001 -3.57831866e-002
      -1.43785730e-001 1.16956800e-001 -8.73192996e-002 3.79988998e-001
      1.68277651e-001 1.83578089e-001 -4.65354994e-002 -3.54146101e-002
      -1.05486780e-001 -2.14959264e-001 1.18539199e-001 -2.95748562e-002
      -3.53272595e-002 -6.07655868e-002 -3.72988731e-002 3.15324157e-001
      -2.33048812e-001 -2.32596561e-001 -2.07351312e-001
      -1.93346031e-002 -1.10653169e-001 1.68208122e-001 1.49934188e-001
      2.16822088e-001 9.30298567e-002 -1.69330046e-001 -1.55805841e-001
      -1.71408981e-001 2.24152952e-001 -7.84712136e-002 -4.33934480e-003
      -1.45215333e-001 1.04733661e-001 3.83735411e-002 4.39129546e-002
      4.30850945e-002 6.40739501e-002 3.51178534e-002 -9.22936499e-002
      -9.82654691e-002 1.00088693e-001 1.33851632e-001 -7.89180472e-002
      1.30291227e-002 1.03556037e-001 3.27000991e-002 -1.16758011e-001
      1.09205633e-001 -9.25822631e-002 9.57241133e-002 7.29193985e-002
      -1.03714123e-001 1.76882312e-001 -1.51204199e-001 5.87807968e-002
      -5.13592437e-002 -1.21071294e-001 8.12003314e-002 1.65739641e-001
      1.92077421e-002 -8.68835449e-002 -9.71370786e-002 -1.92184016e-001
      -3.00349385e-001 -1.71789631e-001 1.45484343e-001 1.87825739e-001
      7.37540126e-002 5.94388172e-002 -1.33638799e-001 7.41842166e-002
      -2.60681123e-001 -1.07387021e-001 -3.38728994e-001
      -9.60797165e-003 2.96446264e-001 1.47042692e-001 -5.52309491e-002
      3.27581882e-001 -1.04439214e-001 -2.50596672e-001 -4.98073906e-001
      -1.87125534e-001 4.92036864e-002 3.01360637e-001 9.20747519e-002
      1.24201283e-001 8.75746235e-002 -9.48820356e-003 -1.08316762e-003
      1.19744927e-001 -6.52364865e-002 -4.41791639e-002 -1.86238647e-001
      -3.15006793e-001 -3.13343227e-001 2.61641562e-001 1.05077878e-003
      -6.86772391e-002 -7.14290217e-002 -2.04240784e-001
      -3.93748237e-003 -1.86416116e-002 -1.70688704e-001
      -4.84294035e-002 2.80054182e-001 -8.34763423e-002 6.95529068e-003
      -1.03911333e-001 -9.77606550e-002 1.42459601e-001 -1.07810304e-001
      -1.16619781e-001 -2.40322903e-001 1.03956297e-001 -3.75929028e-002
      -1.66272596e-001 3.15388665e-002 1.02028057e-001 3.24595254e-003
      -1.91389114e-001 -1.24973252e-001 1.48135759e-002 9.89191383e-002
      -2.86732297e-002 -1.93488434e-001 -3.49053472e-001
      -1.88543782e-001 -2.65191868e-002 -2.02055611e-002 7.35045820e-002
      -3.06975301e-002 -6.06974065e-002 -1.32397935e-001
      -1.54741764e-001 -2.47080877e-001 9.51265767e-002 -4.65822183e-002
      1.60849288e-001 6.55587986e-002 9.39691067e-002 -2.71461576e-001
      3.14825848e-002 5.50311767e-002 6.01790883e-002 2.44001135e-001
      -1.99931130e-001 2.42894366e-002 1.37574255e-001 1.07979283e-001
      -1.03326850e-001 -4.63387631e-002 1.56276986e-001 9.65643674e-002
      2.12241024e-001 -2.06599757e-001 4.29821730e-001 6.06441386e-002
      2.66167641e-001 -2.43593484e-001 2.82630119e-002 5.00368550e-002
      6.87629804e-002 1.67214885e-001 -2.21343830e-001 -5.72786890e-002
      8.27634335e-002 1.32090256e-001 -1.40551031e-001 -3.07402778e-002
      2.69399472e-002 5.65428287e-002 2.71193713e-001 -1.16421305e-001
      9.96985212e-002 -1.41824767e-001 2.12967366e-001 -1.61799312e-001
      -6.13022484e-002 -1.88171476e-001 -1.78942904e-001 1.02805480e-001
      2.38043293e-002 -2.91386601e-002 -9.52999890e-002 1.49821714e-001
      1.16598934e-001 -1.33994922e-001 -1.91375077e-001 2.61884034e-002
      1.89332858e-001 -5.31352721e-002 1.52578995e-001 -2.41802990e-001
      -8.37224573e-002 1.33562073e-001 -2.47625843e-001 -1.12751909e-001
      -1.70861885e-001 -2.75220443e-002 -1.73569452e-002 6.63320497e-002
      -8.24325234e-002 4.82817471e-004 6.87769651e-002 -1.06476188e-001
      -1.13372780e-001 1.59889996e-001 1.55433089e-001 5.99652007e-002
      2.95553386e-001 -1.16700396e-001 -1.57233000e-001 1.65996373e-001
      -3.27880651e-001 -1.60424337e-001 -1.16387106e-001
      -1.09816022e-001 -9.47317109e-002 4.04966855e-003 -1.38268061e-002
      -5.58933392e-002 4.34222296e-002 -6.36972766e-003 -3.40780020e-002
      -2.23405454e-002 3.14353019e-001 -2.31159985e-001 -6.01807311e-002
      1.66945994e-001 3.96558307e-002 3.69567499e-002 -4.59557138e-002
      -1.76603328e-002 -1.48814455e-001 -4.43561003e-002
      -1.61504254e-001 3.09470389e-002 -1.45735443e-001 -2.34604567e-001
      9.42170024e-002 2.33893499e-001 1.09711513e-002 -2.65075326e-001
      3.29015791e-001 -1.04186647e-001 1.86119646e-001 2.86096573e-001
      -2.56151147e-002 1.73348144e-001 -1.49946213e-001 6.68261796e-002
      -2.49047264e-001 -2.68760286e-002 -3.67340706e-002
      -1.47541426e-002 -3.51377606e-001 -3.85544389e-001
      -3.76481682e-001 -1.79013070e-002 2.66696244e-001 4.35298914e-003
      -2.72028875e-002 -5.64582534e-002 4.23594803e-001 -1.15548119e-001
      2.93173529e-002 -1.31401166e-001 -2.34003350e-001 1.40061662e-001
      1.94451705e-001 1.94307849e-001 -1.22529931e-001 2.77851317e-002
      -2.61892557e-001 -3.32406044e-001 -1.52116105e-001
      -3.35632384e-001 -4.41240966e-002 2.37710312e-001 2.83636272e-001
      2.46150736e-002 7.77726844e-002 -1.91239208e-001 -1.22919291e-001
      -2.08801273e-002 -2.47627184e-001 1.36026710e-001 2.29885861e-001
      1.05292305e-001 -9.48473513e-002 9.39382357e-004 -1.47057086e-001
      -4.21986207e-002 7.29727894e-002 -2.11050630e-001 -2.91446596e-001
      9.99703035e-002 -6.40786737e-002 5.61474357e-003 -1.42348439e-001
      -1.63989946e-001 6.65796697e-002 -3.31074209e-003 -1.11403456e-003
      -8.76519606e-002 5.59870824e-002 1.78150564e-001 1.63845003e-001
      3.42616923e-002 -1.57284796e-001 2.79918220e-002 2.30423763e-001
      -2.37743324e-003 -2.09246710e-001 -3.24478894e-001 2.09568307e-001
      2.94280857e-001 -2.65807286e-002 -8.19782391e-002 -1.34035885e-001
      -1.57373119e-002 -2.84324847e-002 -5.76948635e-002
      -2.21127898e-001 -4.33473997e-002 1.39022395e-001 3.75175774e-002
      -3.81586611e-001 -2.44921744e-001 -2.42853910e-001
      -3.81410450e-001 -3.41005504e-001 -6.16223156e-001 1.43417105e-001
      2.29691714e-001 -1.45750403e-001 -3.38689208e-001 -1.92548528e-001
      -1.57673448e-001 9.15757120e-002 1.55649185e-001 8.32127221e-003
      5.80563433e-002 3.36363949e-002 4.58746701e-002 -4.12294120e-001
      -5.62568046e-002 -1.05972178e-001 -1.42444074e-001 1.21184075e-002
      1.06089048e-001 1.31443888e-001 4.40118499e-002 1.22364294e-002
      -3.14111859e-001 -3.34359705e-002 -3.92020214e-003
      -4.42475602e-002 -1.67642623e-001 -1.38860598e-001
      -2.55832523e-002 -1.00820407e-001 -2.39750311e-001
      -4.16205227e-001 -2.15999767e-001 -2.97275446e-002
      -3.17512721e-001 -8.85394961e-002 2.07117721e-001 3.64918332e-003
      -1.23280190e-001 5.24798268e-003 -2.06766352e-001 -4.28291131e-003
      2.97738343e-001 1.92503538e-002 -8.95537809e-002 -7.09545910e-002
      1.54762909e-001 -1.54439792e-001 -1.04321860e-001 -1.10446960e-001
      -7.97118321e-002 5.84209189e-002 1.61331389e-002 1.62644058e-001
      -2.53841221e-001 1.58678368e-001 -3.09799183e-002 1.58467889e-001
      -1.74496304e-002 2.05310136e-001 3.68948102e-001 2.63139941e-002
      -1.00694858e-001 5.21213114e-002 2.34062970e-001 -2.21862406e-001
      -1.52598485e-001 -8.44267383e-003 -1.61201209e-001
      -4.74583246e-002 1.63076937e-001 2.07474276e-001 -3.01973194e-001
      2.78638184e-001 -4.80770580e-002 1.31269842e-001 -8.22209865e-002
      -8.70843157e-002 2.16340408e-001 4.10900190e-002 1.77048519e-001
      1.48039743e-001 2.36274540e-001 -3.07458937e-001 1.36434615e-001
      -9.55373645e-002 -3.58305037e-001 -2.36087665e-002 3.59359920e-001
      2.51853079e-001 9.52266529e-002 3.80803764e-001 -1.19836502e-001
      -8.90453458e-002 -2.05954880e-001 -1.71838626e-001 3.14079463e-001
      -1.14451863e-001 2.01350063e-001 2.90628225e-001 3.00051570e-002
      -1.15895122e-001 -2.06900761e-002 -5.48464693e-002
      -5.13610467e-002 6.38217255e-002 2.69450873e-001 5.22944070e-002
      2.95483004e-002 4.25229758e-001 1.30278701e-002 -2.97245800e-001
      -1.74071848e-001 -4.34883386e-002 2.34185532e-001 -2.76486218e-001
      3.18261944e-002 -2.58857999e-002 1.75506085e-001 -9.38007534e-002
      1.00793362e-001 -2.22633973e-001 1.84017479e-001 9.64654908e-002
      -4.02057990e-002 -8.03457852e-003 2.60757133e-002 8.25953707e-002
      -4.40739729e-002 -2.65346378e-001 -3.66501063e-001 1.85987666e-001
      1.63243413e-001 -1.52843315e-002 -1.01714119e-001 -7.87204653e-002
      2.62720793e-001 2.27154672e-001 6.33678913e-001 -2.15590194e-001
      2.77469188e-001 1.15449995e-001 3.04441992e-002 1.03278168e-001
      -1.75140321e-001 -2.72721469e-001 6.81231320e-002 3.26445967e-001
      -5.66529781e-002 2.07188830e-001 4.88659851e-002</_>
    <_>
      6.79588225e-003 -2.97238678e-001 -2.72123992e-001 5.95563710e-001
      -5.96141480e-002 1.32350940e-002 1.42436877e-001 -1.14495441e-001
      -6.98173046e-002 1.38861313e-001 6.74189255e-002 2.18189269e-001
      4.96841341e-001 -3.06750178e-001 6.70122281e-002 -1.40307277e-001
      -1.01903178e-001 6.48822263e-002 -1.86440855e-001 -2.56000131e-001
      -4.06810194e-001 1.78246379e-001 -1.88753471e-001 -1.06140807e-001
      3.11766475e-001 -5.51649462e-003 -2.04868078e-001 -1.40458629e-001
      1.30263507e-001 -1.08670428e-001 3.01390022e-001 -5.65150917e-001
      -9.27848890e-002 -5.56320958e-002 -1.92977916e-002
      -1.66312736e-002 -1.65969180e-003 -3.07734981e-002
      -4.13813233e-001 2.44185612e-001 -2.85795659e-001 -7.14357048e-002
      1.83717206e-001 3.25326547e-002 -3.94751057e-002 2.77829766e-001
      3.76576781e-001 -1.67885184e-001 2.29453165e-002 -1.39975091e-002
      -2.44847596e-001 -1.72733277e-001 -2.06134290e-001 3.47964466e-002
      -2.10940212e-001 -1.64812729e-002 -1.81519881e-001 3.36343795e-001
      -1.31816894e-001 4.17299598e-001 1.17423669e-001 1.75263852e-001
      -1.23206124e-001 5.30076446e-003 2.94666469e-001 -2.33436778e-001
      5.33272512e-003 -2.50782613e-002 -3.93435620e-002 -5.76233827e-002
      1.40312552e-001 2.21957386e-001 -3.92477602e-001 -1.68513030e-001
      -7.42045566e-002 3.71420681e-001 -1.35744102e-002 2.00341240e-001
      6.88687488e-002 2.23655656e-001 -2.08998516e-001 -1.95309594e-001
      -6.49816990e-002 -2.54835635e-001 2.62362301e-001 -5.46553135e-002
      9.71773341e-002 -2.21385911e-001 1.84449628e-001 -3.23713683e-002
      -4.18625206e-001 4.93045002e-002 2.03460142e-001 3.49419624e-001
      -2.39219099e-001 -1.98983923e-001 1.16955236e-001 -4.37903702e-002
      -3.84439617e-001 -6.16081059e-002 -1.14689812e-001
      -9.96244922e-002 1.42291278e-001 3.08723599e-002 -1.96309574e-002
      -1.13808580e-001 2.45367318e-001 -1.33329639e-002 -1.94906458e-001
      -1.26773849e-001 3.08830589e-001 -3.50047499e-002 -1.39137119e-001
      1.42843984e-002 1.24920249e-001 -6.21209629e-002 -2.90515155e-001
      -1.16165793e-002 -2.35906728e-002 -5.96764199e-002
      -1.92897916e-001 2.41483059e-002 5.33698164e-002 -1.23760641e-001
      -9.94545892e-002 -1.30846247e-001 -3.10387053e-002
      -2.47126386e-001 2.74430484e-001 -1.45794064e-001 -7.73026720e-002
      1.21199876e-001 1.33090124e-001 1.51384901e-002 -1.86889246e-002
      8.23948756e-002 -1.54316694e-001 -9.23668686e-003 -1.33349225e-001
      8.54568556e-002 1.37385428e-001 -1.39683131e-002 2.13344201e-001
      1.81319490e-001 -7.93528855e-002 -2.55948175e-002 1.98467210e-001
      -6.96411058e-002 -2.17529908e-001 -3.84774595e-001
      -2.35287994e-001 -1.68970108e-001 7.50829875e-002 -7.16929734e-002
      -2.73055404e-001 -2.09258690e-001 -6.72682673e-002
      -1.11826219e-001 -1.44349366e-001 1.27027687e-002 1.80403292e-001
      1.79171100e-001 3.52278173e-001 2.46595606e-001 2.02852096e-002
      4.44528833e-002 2.44808923e-002 -1.22090667e-001 -1.18995428e-001
      -2.14228794e-001 2.19557971e-001 1.18826106e-001 -3.97394419e-001
      -2.39567325e-001 -5.16095050e-002 -5.02404943e-002
      -2.06878006e-001 2.29477212e-002 -5.36755323e-002 3.67222488e-001
      2.73437470e-001 1.83656394e-001 -1.24537192e-001 -2.46638209e-001
      -1.16135828e-001 1.82837605e-001 3.10710724e-002 1.60602741e-002
      -2.42586527e-002 2.65105162e-002 -2.77269900e-001 -3.35526437e-001
      2.88450643e-002 -2.85907298e-001 2.95250267e-001 -1.00611806e-001
      -7.10538030e-002 7.18265101e-002 -9.07226652e-002 1.35230660e-001
      -1.31326392e-001 -2.99505182e-002 -1.29262760e-001 3.32259029e-001
      1.34858742e-001 4.11461517e-002 -1.27084970e-001 -1.00634001e-001
      1.88138336e-001 -3.80763896e-002 4.10805345e-001 -1.23314612e-001
      7.25052953e-001 -8.59488733e-003 -9.78259742e-002 -1.26451358e-001
      9.28178206e-002 4.54015546e-002 -2.68285245e-001 -1.21624144e-002
      -4.83812779e-001 2.26444378e-001 -8.28614235e-002 1.15309693e-001
      -9.81525630e-002 9.92222279e-002 1.82720259e-001 -2.85671428e-002
      7.78442621e-001 -3.72820199e-001 2.28763446e-001 -3.22317705e-002
      -9.87384543e-002 -1.40713304e-001 1.27115726e-001 -3.02117877e-002
      -1.49662137e-001 -4.16124985e-003 -1.32666394e-001 9.07966718e-002
      -1.19551374e-002 2.15327963e-001 -1.24670513e-001 2.60306031e-001
      -1.29952550e-001 5.25600575e-002 4.21789020e-001 -1.46955058e-001
      -2.15497445e-002 -1.90161541e-001 -1.23639688e-001
      -2.31162608e-002 -2.05021396e-001 8.90681595e-002 5.26971929e-002
      -1.25716001e-001 5.16065843e-002 7.31938779e-002 1.21755093e-001
      6.80633038e-002 -8.64876360e-002 1.21527903e-001 -1.50679827e-001
      -1.05030283e-001 -1.22030474e-001 -3.62699069e-002 1.31276980e-001
      -1.72415942e-001 -2.76323080e-001 3.21504742e-001 -3.70991111e-001
      -1.70828283e-001 1.68664455e-001 -2.18738765e-002 -1.09874278e-001
      1.60528407e-001 -2.78039247e-001 -4.80484515e-002 -1.28911138e-001
      1.69777691e-001 4.26021079e-003 4.30367067e-002 1.00351937e-001
      -1.97906807e-001 2.86787927e-001 -1.83286425e-003 -9.91800725e-002
      2.05284342e-001 9.06142369e-002 -2.01623321e-001 -1.01409361e-001
      9.40651968e-002 -2.24962756e-001 1.99711829e-001 -3.30590338e-001
      -4.07926664e-002 -8.89723077e-002 3.24514925e-001 8.61279666e-002
      3.90385627e-003 1.51004016e-001 -3.68367553e-001 2.87803173e-001
      1.67466462e-001 1.04570501e-001 3.17281932e-001 4.25246218e-003
      -1.44491456e-002 -1.94702789e-001 -1.12335861e-001
      -9.62523520e-002 1.27921879e-001 -3.04308474e-001 -4.44758952e-001
      -3.01584691e-001 9.23059061e-002 -2.17756480e-002 -9.54231340e-003
      -7.98844770e-002 -1.21293224e-001 1.27908498e-001 5.19229472e-002
      4.65957634e-002 -1.16330095e-001 -2.38825276e-001 9.42087024e-002
      6.02872781e-002 2.29753107e-001 9.41383615e-002 3.00769985e-001
      -1.69855982e-001 -3.41906846e-001 -5.73690534e-002
      -7.31227025e-002 -2.25586504e-001 2.25226894e-001 2.38720074e-001
      -1.93253338e-001 8.67783502e-002 -2.56017983e-001 -2.00017139e-001
      1.00808896e-001 -2.74553239e-001 -1.40112042e-001 1.69665053e-001
      -7.24160522e-002 -2.04928219e-002 3.06161977e-002 -7.45456442e-002
      1.79418057e-001 7.60726817e-003 -1.24933636e-002 -1.73898980e-001
      -1.09662507e-002 -1.91039443e-001 -1.43065929e-001
      -3.05178791e-001 -4.62546311e-002 4.07118589e-001 1.27941921e-001
      -1.17432117e-001 -2.23707527e-001 -3.93879898e-002
      -7.66173601e-002 7.30848610e-002 1.59877896e-001 8.42736661e-002
      9.76177976e-002 -2.34511867e-002 1.60338849e-001 1.64015606e-001
      -1.09665938e-001 -6.59714714e-002 5.45036010e-002 -3.31831127e-001
      -8.49449039e-002 1.99476499e-002 -3.71811725e-002 1.40382964e-002
      -2.24105433e-001 -2.49690473e-001 -7.72149786e-002
      -2.19600261e-004 4.45214570e-001 -2.79111019e-003 -2.34814793e-001
      -2.10214823e-001 -2.23365471e-001 -2.06067547e-001
      -4.02400881e-001 -3.55502628e-002 8.43621194e-002 1.13553047e-001
      -2.00352311e-001 -6.49830177e-002 -3.69102247e-002 9.25095230e-002
      -1.58537611e-001 -1.07892297e-001 -2.22276896e-002 1.05979919e-001
      5.11274874e-001 2.23462358e-002 -1.58104375e-001 1.04611598e-001
      -2.60430008e-001 -2.73165464e-001 9.36025903e-002 9.34320986e-002
      -1.54476175e-002 3.23707849e-001 -8.37330595e-002 -1.66856125e-001
      -1.62992880e-001 -5.98816797e-002 -2.87798196e-001
      -2.24120587e-001 -1.86353281e-001 1.90727443e-001 1.21914044e-001
      -3.49153355e-002 -5.08423984e-001 -3.74131612e-002
      -2.21560821e-001 -4.23510432e-001 1.89817831e-001 -6.18069842e-002
      -5.43075204e-002 8.21438804e-002 -4.49164771e-002 -5.22225320e-001
      -1.04989469e-001 1.03848010e-001 -2.47485235e-001 3.40891331e-002
      -7.38512874e-002 -8.32270309e-002 2.85549819e-001 1.13101654e-001
      -2.85459101e-001 2.89050490e-001 -1.03837334e-001 -1.48629844e-001
      -3.55829924e-001 1.13530405e-001 8.84475037e-002 -5.98041415e-002
      -9.51537713e-002 -7.52170309e-002 2.73116678e-001 -1.22647353e-001
      -2.45123565e-001 -1.62899867e-002 2.70632170e-002 -1.38588563e-001
      1.34795174e-001 2.46091098e-001 -1.00593559e-001 1.36002183e-001
      -1.51617736e-001 -4.25104089e-002 -4.41494048e-001 1.43122643e-001
      -6.11899085e-002 -2.46148512e-001 -3.12240541e-001
      -2.38787726e-001 2.38609746e-001 -9.15892348e-002 -1.93125363e-002
      1.04610875e-001 2.99728692e-001 -3.81127208e-001 3.65478694e-001
      -3.33757140e-002 -3.08459073e-001 1.42927572e-001 3.99593487e-002
      -1.57631207e-002 -9.17950124e-002 2.57947505e-001 -2.33577430e-001
      1.34021863e-002 -3.49309325e-001 -6.07472599e-001 3.42015862e-001
      1.17415309e-001 1.53555334e-001 5.00010073e-001 4.08028886e-002
      -2.94405878e-001 -2.73180567e-003 -8.56441408e-002
      -1.64744072e-002 3.38859290e-001 3.52952629e-001 -2.90464982e-002
      -3.92127670e-002 3.46992761e-002 1.01710163e-001 7.29028601e-004
      7.29262689e-003 -1.87664747e-001 2.55081594e-001 1.12280354e-001
      1.85551003e-001 6.06158264e-002 8.68191198e-002 -5.22494733e-001
      4.56867106e-002 -3.98994625e-001 1.18487984e-001 2.81018466e-001
      6.12851977e-002 -1.97385371e-001 -9.55822766e-002 -2.44671226e-001
      -9.75743011e-002 -1.07792698e-001 -2.11772278e-001
      -8.39321688e-002 1.37155101e-001 1.11845180e-001 3.49135208e-003
      -1.30246384e-002 1.89027473e-001 6.82419538e-002 4.85439241e-001
      -3.65753084e-001 6.94441125e-002 2.16539830e-001 -1.61426678e-001
      -1.51654497e-001 -1.30836844e-001 -8.72486010e-002 1.64712027e-001
      -3.44583043e-003 5.15744686e-002 3.32800932e-002 2.00355411e-001</_></support_vectors>
  <decision_functions>
    <_>
      <sv_count>1</sv_count>
      <rho>-1.3988300795792701e+000</rho>
      <alpha>
        1.</alpha>
      <index>
        0</index></_>
    <_>
      <sv_count>1</sv_count>
      <rho>-1.4068593675181869e+000</rho>
      <alpha>
        1.</alpha>
      <index>
        1</index></_>
    <_>
      <sv_count>1</sv_count>
      <rho>-1.7047434573542735e+000</rho>
      <alpha>
        1.</alpha>
      <index>
        2</index></_>
    <_>
      <sv_count>1</sv_count>
      <rho>-1.8445832945634362e+000</rho>
      <alpha>
        1.</alpha>
      <index>
        3</index></_>
    <_>
      <sv_count>1</sv_count>
      <rho>1.4196166087151466e-002</rho>
      <alpha>
        1.</alpha>
      <index>
        4</index></_>
    <_>
      <sv_count>1</sv_count>
      <rho>1.0944202060281170e+000</rho>
      <alpha>
        1.</alpha>
      <index>
        5</index></_>
    <_>
      <sv_count>1</sv_count>
      <rho>-7.4377234811697479e-001</rho>
      <alpha>
        1.</alpha>
      <index>
        6</index></_>
    <_>
      <sv_count>1</sv_count>
      <rho>1.1746371814032430e+000</rho>
      <alpha>
        1.</alpha>
      <index>
        7</index></_>
    <_>
      <sv_count>1</sv_count>
      <rho>-5.4925806780345687e-001</rho>
      <alpha>
        1.</alpha>
      <index>
        8</index></_>
    <_>
      <sv_count>1</sv_count>
      <rho>-1.6471112699614483e+000</rho>
      <alpha>
        1.</alpha>
      <index>
        9</index></_></decision_functions></my_svm>
</opencv_storage>
