<?xml version="1.0"?>
<opencv_storage>
<my_svm type_id="opencv-ml-svm">
  <svm_type>C_SVC</svm_type>
  <kernel><type>LINEAR</type></kernel>
  <C>1.</C>
  <term_criteria><epsilon>2.2204460492503131e-016</epsilon>
    <iterations>1000000</iterations></term_criteria>
  <var_all>540</var_all>
  <var_count>540</var_count>
  <class_count>6</class_count>
  <class_labels type_id="opencv-matrix">
    <rows>1</rows>
    <cols>6</cols>
    <dt>i</dt>
    <data>
      -1 1 2 3 4 5</data></class_labels>
  <sv_total>15</sv_total>
  <support_vectors>
    <_>
      6.31272122e-002 -1.21036265e-002 -2.85866391e-002 1.79896876e-002
      8.14675703e-004 1.39124170e-001 5.43448254e-002 -1.46999266e-002
      8.68419036e-002 -5.70778400e-002 -5.12775965e-002 -5.36767878e-002
      3.93702835e-003 -8.92172828e-002 -5.88134788e-002 2.47563329e-002
      -6.54138103e-002 -7.23999813e-002 2.32181046e-003 7.99815133e-002
      6.21299930e-002 1.29479989e-001 1.45382769e-002 7.32506588e-002
      1.45888180e-001 -6.61281943e-002 -9.50603858e-002 -8.37087929e-002
      -8.09411798e-003 -1.66759104e-001 -2.77107693e-002 3.13773612e-003
      -5.01971990e-002 1.10316969e-001 -1.88213050e-001 -1.76147431e-001
      -1.87880304e-002 3.04302815e-002 1.37570038e-001 2.01585487e-001
      3.00441924e-002 -6.87223077e-002 4.64082584e-002 -1.96076417e-003
      -3.54360826e-002 -9.63753462e-002 -2.84595191e-002
      -7.42323473e-002 -4.06836683e-004 2.55843922e-002 -1.14142574e-001
      1.06983576e-002 -2.40370687e-002 -1.18392423e-001 4.19837236e-002
      -7.28142634e-002 2.68281065e-002 1.28664955e-001 -3.61062102e-002
      -1.13406904e-001 1.85038254e-003 4.64153811e-002 4.50550206e-002
      -1.24368742e-002 -1.06696054e-001 -1.06217720e-001
      -1.03120193e-001 2.35117599e-002 -1.73391163e-001 -1.39489006e-002
      1.03876568e-001 -4.14111875e-002 5.08568175e-002 5.11038909e-003
      -7.99021423e-002 2.44002324e-002 -6.00487851e-002 -9.33269262e-002
      3.61599028e-002 3.65628190e-002 -1.20192226e-002 9.23914239e-002
      -4.22192588e-002 -1.17082596e-001 -9.18138772e-002
      -2.61011664e-002 -1.24062166e-001 4.87943105e-002 3.67231406e-002
      6.06695339e-002 -4.92310971e-002 6.11328632e-002 -6.59600943e-002
      -1.13087058e-001 -7.89836496e-002 -6.28553033e-002 5.18273078e-002
      6.60853758e-002 -6.19474389e-002 9.63786319e-002 -4.33738902e-003
      -8.97267163e-002 -2.30540097e-001 -5.80933280e-002
      -1.35432839e-001 7.00028464e-002 -5.07556833e-002 9.45804715e-002
      -1.32568836e-001 2.02480834e-002 1.07487841e-002 -1.17060833e-001
      -6.21557757e-002 -1.14277918e-002 9.39990804e-002 4.08267006e-002
      -6.18699864e-002 1.68865360e-003 -6.91037858e-003 -2.53817048e-002
      -1.23879410e-001 -1.20977052e-001 -1.39139384e-001 2.14711446e-002
      -2.94179656e-003 8.48364756e-002 -2.75890473e-002 -6.89628907e-003
      1.99468993e-002 -3.92775312e-002 -4.19547521e-002 -9.11878496e-002
      6.21926822e-002 1.40368953e-001 3.15771662e-002 2.52928529e-002
      -8.14204812e-002 -1.41524643e-001 -1.90204442e-001
      -4.25126776e-002 -4.74388190e-002 8.91328603e-003 1.28375888e-001
      1.36168510e-001 -9.23282057e-002 -3.31826918e-002 -9.33282524e-002
      5.97690754e-002 -6.48861527e-002 -1.30055677e-002 7.11826682e-002
      8.69924277e-002 -3.94819528e-002 -3.99099961e-002 -4.27847207e-002
      -7.70379305e-002 -1.78031493e-002 -4.25178483e-002 3.03240381e-002
      5.66228619e-003 4.95402403e-002 7.04416037e-002 -1.15423098e-001
      -3.26241106e-002 -1.51611462e-001 7.49129653e-002 1.32307922e-003
      4.40713614e-002 5.59191927e-002 8.88629928e-002 -8.24369118e-002
      -6.72845170e-002 -8.99655337e-004 -1.09425649e-001 6.10341020e-002
      -4.79680300e-002 2.60056984e-002 9.70029235e-002 9.19787586e-002
      5.53847626e-002 -8.81009921e-002 -4.20378558e-002 -7.74693787e-002
      6.14718050e-002 -2.05170549e-003 6.02575988e-002 -2.45460719e-002
      9.43636894e-002 -6.57236800e-002 -3.36324349e-002 2.62999181e-002
      -4.32999656e-002 5.90415709e-002 -4.92748469e-002 5.66991009e-002
      4.99826297e-002 1.19427539e-001 5.49550764e-002 -7.06859455e-002
      -1.01535507e-001 -1.55624568e-001 9.17720571e-002 4.89301747e-003
      4.13171872e-002 3.88296656e-002 9.02903918e-003 -9.92361829e-002
      -7.03859925e-002 -8.65664333e-002 -1.13388196e-001 8.56848955e-002
      1.39574511e-002 1.21940598e-002 9.23165586e-003 7.41789564e-002
      -9.73535404e-002 -3.88373993e-002 -3.09641045e-002
      -1.54052675e-001 1.52245134e-001 -3.08708865e-002 1.14941359e-001
      4.15293053e-002 -3.42734880e-003 -9.92847756e-002 -5.40579148e-002
      -3.64670083e-002 -7.51227066e-002 1.53545395e-001 -2.85866577e-002
      7.50983804e-002 2.18202528e-002 1.42692737e-002 -8.36261511e-002
      -1.14245549e-001 -7.94664472e-002 -1.24479122e-001 2.47204304e-001
      -5.36632352e-002 1.83303386e-001 -2.22704727e-002 -2.21872050e-002
      -1.54124960e-001 -8.66372585e-002 -3.23087629e-003 8.41108784e-002
      2.25087047e-001 -5.28931990e-002 7.86152631e-002 4.79718763e-003
      -1.67206936e-002 -1.27659038e-001 -1.02838106e-001
      -3.47703956e-002 7.48570403e-003 1.47194117e-001 -3.89647633e-002
      8.61403048e-002 -3.78049444e-003 -3.11063547e-002 -1.05830818e-001
      -5.57160005e-002 -1.93353854e-002 9.16401371e-002 1.49086729e-001
      -9.86825749e-002 1.19046926e-001 6.05203398e-002 -2.02068407e-002
      -5.20509332e-002 -7.44037479e-002 3.34910117e-002 1.34138122e-001
      8.12087655e-002 -5.46490401e-002 2.12347019e-003 -2.32655816e-002
      -4.22248244e-002 -7.83411264e-002 2.06975751e-002 4.43452559e-002
      3.46653275e-002 4.54547442e-002 -7.48476237e-002 8.11313689e-002
      1.53889328e-001 -1.53023526e-002 -1.54047012e-002 -6.58682361e-002
      9.32439640e-002 1.34755950e-003 6.67473972e-002 -3.19862626e-002
      3.12291440e-002 -2.42607631e-002 -5.57545386e-002 -3.14725749e-002
      2.14687865e-002 1.16758145e-001 -9.32668149e-002 3.39378677e-002
      -8.65157917e-002 3.55995484e-002 2.59600170e-002 -2.75456663e-002
      -6.55207634e-002 -1.23711489e-002 2.23907545e-001 1.12307489e-001
      1.26549020e-001 -3.38361077e-002 -8.28734541e-004 -9.58054066e-002
      -9.84437838e-002 -5.56254983e-002 8.68638828e-002 1.62058324e-001
      -1.35741453e-003 1.08633995e-001 -9.02108848e-002 1.79977976e-002
      -8.00034106e-002 -3.37566398e-002 -9.01504382e-002
      -1.49794752e-004 8.35955516e-002 1.12810187e-001 1.71569511e-001
      -3.41039784e-002 1.51812918e-002 -4.54255454e-002 -1.19295217e-001
      -8.38354081e-002 -2.43015047e-002 1.15663111e-001 1.11306548e-001
      1.54525161e-001 -8.20513219e-002 -8.20187945e-003 1.16491625e-002
      7.51376152e-003 -5.64101413e-002 -5.63714765e-002 -4.04631943e-002
      -4.93510510e-004 2.04557300e-001 -4.54823487e-002 1.41998641e-002
      1.95894465e-002 -1.32011041e-001 -1.35193780e-001 -1.24043532e-001
      -3.90530191e-003 -1.09049948e-002 1.21388339e-001 -5.26353568e-002
      -4.67916131e-002 4.38716374e-002 -1.27913758e-001 -1.40311897e-001
      -3.95574719e-002 3.05892364e-003 -2.51323488e-002 1.08838171e-001
      -2.78462917e-002 4.26552817e-003 -1.07427679e-001 -1.07153863e-001
      -5.42488359e-002 -7.79454857e-002 -2.84076817e-002
      -7.04180673e-002 -1.15175883e-003 1.19672045e-002 7.17823505e-002
      3.56586203e-002 -2.07100943e-001 -1.11405581e-001 -4.61695204e-003
      -1.13120573e-002 4.55508754e-003 4.46303077e-002 2.91432068e-002
      -1.66820735e-002 -1.47946745e-001 -6.27451688e-002 2.10440289e-002
      -7.02466890e-002 -1.51293715e-002 -2.87534650e-002
      -4.70485017e-002 3.49454470e-002 4.85590249e-002 2.44695488e-002
      -5.29018231e-002 -6.66394383e-002 6.50027394e-002 5.13425982e-003
      9.72245540e-003 7.36361593e-002 -8.48417263e-003 -7.97705427e-002
      -5.89501075e-002 -1.22342445e-002 6.67734677e-003 -1.09905424e-002
      8.87018221e-004 2.40309481e-002 -1.54563878e-002 -8.40947032e-003
      3.13918553e-002 1.03578186e-002 6.67660078e-003 -6.64761513e-002
      3.41922902e-002 4.21206243e-002 -2.37970408e-002 5.73041700e-002
      -4.73491810e-002 -1.63996115e-001 -7.46402517e-002 7.59714330e-003
      -9.20911506e-002 -3.39316502e-002 4.58381511e-002 -1.25425346e-002
      -1.01996802e-001 -8.35680440e-002 -6.56915605e-002 4.67969663e-002
      7.22343847e-002 -4.28416207e-002 6.64128037e-003 1.12420563e-002
      -9.35082063e-002 -6.02391623e-002 -1.34358676e-002
      -1.24906898e-001 -8.57676193e-002 5.65805100e-002 3.56564089e-003
      -6.87771142e-002 6.93604723e-002 -3.91827747e-002 -8.68377090e-002
      -6.18107282e-002 -3.58909629e-002 2.80098021e-002 1.18251562e-001
      3.33988816e-002 -3.35393697e-002 4.22644652e-002 -1.10951073e-001
      -3.73880216e-003 -3.93432984e-003 -7.48879761e-002
      -3.55985425e-002 5.56006038e-004 -6.19113445e-002 -7.96300545e-003
      1.58119217e-001 -2.52526328e-002 4.10080440e-002 -4.46440727e-002
      -9.01490301e-002 2.54657436e-002 -6.12681285e-002 -5.15825748e-002
      1.78246815e-002 5.67429401e-002 -3.63811776e-002 1.80596788e-003
      -1.27650052e-003 7.22559309e-003 2.08413247e-002 1.67294778e-002
      -1.96552854e-002 -4.38317060e-002 7.52771050e-002 -4.00108323e-002
      1.89180486e-002 -3.89199257e-002 -3.12836394e-002 1.74580347e-002
      -1.29496520e-002 -2.19911989e-002 2.00769491e-002 8.11345223e-003
      -6.70021474e-002 3.92915979e-002 -5.68871275e-002 -3.60236540e-002
      -4.10470814e-002 3.17567848e-002 6.82864487e-002 -1.05504192e-001
      -1.96515527e-002 -6.98525682e-002 -2.72177011e-002
      -2.62375921e-002 5.79818077e-002 5.59573527e-003 1.09302737e-002
      -3.37991156e-002 1.87801793e-002 -2.41264328e-002 -1.06153600e-001
      -6.22664131e-002 -2.74326373e-002 -4.15553004e-002
      -8.51529166e-002 -5.01377415e-003 -4.38963994e-002
      -3.92809659e-002 -6.63711354e-002 -2.99763065e-002
      -4.50876169e-002 -1.96524840e-002 -8.37337784e-003
      -1.26211375e-001 -5.81281930e-002 -1.56324789e-001 1.61663368e-001
      1.49296261e-002 1.52249821e-002 -4.99254614e-002 4.55336757e-002
      4.00710143e-002 2.23425571e-002 3.83421741e-002 -1.46730505e-002
      4.80377823e-002 -5.64705906e-003 6.34043217e-002 -3.45531628e-002
      5.38226636e-003 1.42408274e-002 -3.75232589e-003 -3.05314939e-002
      -4.13807929e-002</_>
    <_>
      6.09034970e-002 2.28234865e-002 4.14015278e-002 -4.33467850e-002
      -6.89069042e-003 1.08048461e-001 5.93161359e-002 -1.35964509e-002
      9.93056595e-002 -1.33694246e-001 -5.30861393e-002 -1.25292376e-001
      -7.60048628e-002 -8.42635706e-002 -3.20549682e-002
      -2.84218956e-002 -6.74084872e-002 -1.07217759e-001
      -9.20865536e-002 1.18754536e-001 1.89925194e-001 6.70924559e-002
      1.29562497e-001 1.21379785e-001 2.38623992e-001 -2.44585797e-002
      -1.26047254e-001 -1.33434579e-001 3.13332565e-002 -9.35886577e-002
      -1.18631713e-001 9.67017338e-002 -8.77954718e-003 1.57903194e-001
      -1.43551556e-002 -1.73252359e-001 -4.49779145e-002 4.80472110e-002
      1.89306319e-001 1.87300116e-001 1.54856578e-001 2.40075737e-002
      6.98233023e-002 -5.79799749e-002 -3.91635448e-002 -8.17173123e-002
      -4.76149209e-002 1.95250548e-002 -8.07087570e-002 1.12394892e-001
      -7.04561099e-002 7.97765553e-002 1.64348632e-002 -1.18572824e-001
      7.73089603e-002 1.13912569e-002 5.87101318e-002 1.32436574e-001
      -2.09170729e-002 -1.61493838e-001 -2.32238602e-002
      -1.99888889e-002 2.62131616e-002 -2.86110286e-002 -6.12824820e-002
      -1.81105044e-002 -1.25153691e-001 6.03194274e-002 -1.71533883e-001
      -6.23782836e-002 2.65823603e-002 -9.57361609e-002 4.95622307e-002
      3.80372740e-002 -1.61998980e-002 6.21947460e-002 -3.14376466e-002
      -8.21137428e-002 3.91243361e-002 4.60751392e-002 -6.37344122e-002
      -6.14939481e-002 -4.85834628e-002 -2.43557952e-002
      -1.58664972e-001 5.25649861e-002 -1.26653895e-001 -2.21981425e-002
      3.95412594e-002 -5.44270389e-002 8.06699973e-003 2.14336365e-002
      9.52334702e-003 -5.08807637e-002 -4.65004928e-002 -8.14202279e-002
      5.92580400e-002 1.19653068e-001 -7.28688538e-002 -1.60531830e-002
      -8.89703110e-002 -2.21047066e-002 -2.31244192e-001
      -1.73048628e-003 -6.26064166e-002 1.18693464e-001 9.75250304e-002
      2.14616340e-002 -3.81991826e-002 1.69604439e-002 7.28443190e-002
      -5.51291443e-002 -5.43199554e-002 -1.02595799e-001 8.57084990e-002
      1.03162050e-001 -4.21625525e-002 3.01027056e-002 2.82847858e-003
      -2.30059102e-002 -1.37149870e-001 -7.45510384e-002
      -9.08611268e-002 7.07142726e-002 8.83284807e-002 7.94855431e-002
      -4.11368497e-002 9.42946970e-003 2.41675749e-002 -5.70120364e-002
      -4.99120466e-002 -4.76677231e-002 1.31894320e-001 1.11849830e-001
      -7.49389753e-002 -2.77706496e-002 -2.32822634e-002
      -1.64518014e-001 -2.29218528e-001 -2.33050343e-002
      -3.48654166e-002 7.42043927e-002 9.31288898e-002 1.05182782e-001
      -9.12938267e-002 -4.11190875e-002 -1.04588769e-001 8.16510804e-003
      -2.52821203e-002 8.58819932e-002 1.93204403e-001 9.57176313e-002
      -2.81930733e-002 8.69400986e-003 8.54442827e-003 -1.70701772e-001
      -2.53635533e-002 -3.10844276e-002 6.34738654e-002 1.54677406e-001
      2.68135313e-003 3.42089012e-002 -4.89530265e-002 -1.45238899e-002
      -2.08604589e-001 -1.56748400e-003 -2.24146936e-002 6.75889701e-002
      1.29668579e-001 1.72079816e-001 7.89877586e-003 1.12248741e-001
      1.22875750e-001 -1.49854690e-001 7.35560060e-002 -4.33674306e-002
      -1.00733593e-001 1.10475689e-001 5.44811413e-002 6.99420273e-002
      3.27576846e-002 -2.89967377e-002 -3.77672166e-002 9.11773890e-002
      2.33828537e-002 -3.90170477e-002 -2.65781116e-002 1.37751848e-001
      2.72166412e-002 1.39072344e-001 3.56086828e-002 -3.53423394e-002
      1.21204697e-001 -7.57120922e-002 -1.06330730e-001 -1.79732926e-002
      4.48567793e-002 8.93199444e-002 1.14911124e-002 -5.04094586e-002
      -4.52610776e-002 7.42484257e-002 4.76499647e-003 -1.37087613e-001
      8.52625072e-002 5.45005500e-002 9.18181892e-003 1.11064792e-001
      -8.06955174e-002 -1.54031917e-001 7.65754580e-002 -9.07422509e-003
      -8.42539370e-002 -3.18232700e-002 -4.37722765e-002 2.74928659e-002
      3.27061899e-002 -1.34640820e-002 -9.52056646e-002 5.31752594e-002
      5.93890343e-003 4.03563380e-002 1.01233386e-001 1.05770212e-003
      1.00666173e-002 8.94560516e-002 -5.27878068e-002 -2.19886795e-001
      -3.88925038e-002 -4.54999022e-002 3.23900394e-002 3.53599899e-002
      -8.49858578e-003 3.14147398e-002 -8.69912654e-003 -1.19040929e-001
      -4.56104167e-002 1.16088510e-001 1.07014393e-002 1.48572132e-001
      3.50435935e-002 -3.54708917e-002 -1.73322838e-002 2.30973400e-002
      -5.72639816e-002 -5.32575846e-002 -1.19810207e-002
      -1.99216641e-002 7.47957826e-002 4.90024239e-002 -3.43204141e-002
      4.10223715e-002 -2.59193988e-003 -8.98188800e-002 -6.36132061e-002
      5.01117334e-002 5.84607422e-002 8.79388452e-002 -2.88969139e-004
      -2.71326602e-002 -3.85072432e-003 3.35032791e-002 -4.42543589e-002
      8.99911951e-003 -1.02581412e-001 1.84067860e-002 2.84509752e-002
      -1.93705782e-002 -8.85250717e-002 2.98768710e-002 2.20680553e-002
      -2.98563801e-002 5.37002273e-002 7.38970786e-002 3.80024128e-002
      -7.07981270e-003 2.90546380e-002 -2.53008530e-002 4.23441716e-002
      8.31707418e-002 -4.53101583e-002 -4.57073934e-003 -1.38162345e-001
      1.50549496e-002 -8.84873718e-002 7.22725540e-002 -3.51343788e-002
      9.58820879e-002 -2.43665483e-002 -1.84291806e-002 3.37362662e-002
      9.87836793e-002 3.28385420e-002 -8.88193899e-005 2.01171599e-002
      -9.76453885e-004 6.84995502e-002 5.91616482e-002 5.13505489e-002
      -6.13966025e-002 -1.04434952e-001 -4.90831397e-002
      -1.79893762e-001 1.03559541e-002 2.14551110e-002 6.01017103e-002
      4.59310301e-002 1.30273402e-001 1.24969587e-001 7.36040697e-002
      -1.40640736e-002 -3.65516245e-002 -7.55298533e-005 7.04828153e-007
      7.71801844e-002 1.45491004e-001 1.89139724e-001 2.97681484e-002
      -8.24929588e-003 -5.88404201e-002 -1.21765822e-001
      -6.10719770e-002 5.21866083e-002 2.11943174e-003 3.99244316e-002
      1.13133751e-001 1.13746434e-001 1.38546452e-001 2.46145036e-002
      -1.72944483e-003 3.16262916e-002 -2.65296269e-002 3.21868919e-002
      4.49798480e-002 1.17987946e-001 7.63625279e-002 3.20527926e-002
      -2.06378680e-002 -1.65299982e-001 -3.55363451e-002 3.86483818e-002
      2.66854689e-002 4.29565646e-002 2.35848948e-002 8.10807124e-002
      2.01789439e-001 -2.23489162e-002 -8.92251134e-002 -5.40835299e-002
      -5.74274100e-002 2.79096235e-002 8.66006035e-003 -4.37588505e-002
      1.79183688e-002 -8.51402655e-002 -7.33227059e-002 -1.83791131e-001
      -5.69708832e-002 -4.56173196e-002 4.65830527e-002 6.30899444e-002
      3.88031900e-002 9.80656818e-002 1.17559388e-001 -5.97722903e-002
      -5.89073822e-002 -8.09191167e-002 -4.45927493e-003 7.39358589e-002
      6.11252449e-002 2.75744684e-002 1.23121023e-001 -1.75162613e-001
      -8.70909095e-002 -4.42921296e-002 -1.29303327e-002 3.34644667e-003
      8.02490786e-002 2.32203752e-002 3.86535339e-002 -4.87629231e-003
      2.79080588e-002 -4.93412949e-002 5.24240471e-002 -2.35281866e-002
      4.77029122e-002 1.02257796e-001 4.35334332e-002 5.79641946e-002
      -8.32877494e-003 -1.80668756e-001 -4.98456657e-002
      -1.63188786e-004 3.94036323e-002 5.00872806e-002 6.06989637e-002
      4.09175530e-002 5.04855029e-002 1.80145819e-002 8.65011141e-002
      -2.29953155e-002 -2.47825719e-002 1.61630791e-002 3.98949645e-002
      5.33414036e-002 -4.42123506e-003 4.60909121e-002 -1.18977521e-002
      -8.35712850e-002 -2.02219691e-002 -1.81567632e-002 6.86183572e-002
      -3.12523507e-002 -4.06919606e-002 3.17336619e-002 7.76809007e-002
      2.08051726e-002 1.01335958e-001 2.87382528e-002 -4.61118780e-002
      -2.02392992e-002 2.63260175e-002 2.42892676e-003 -8.39825347e-002
      5.09428456e-002 -3.20137963e-002 -5.29982634e-002 -4.89735939e-002
      -1.56808868e-001 -3.31367850e-002 -6.94229007e-002
      -3.53954621e-002 7.31057599e-002 2.61178054e-002 -3.90326604e-002
      7.47078359e-002 1.10260360e-001 -6.17350079e-002 -8.22098032e-002
      1.27870971e-002 5.95605187e-002 -8.33869800e-002 -7.76201999e-003
      -5.10777496e-002 5.56694642e-002 -6.16884679e-002 -1.98535725e-001
      -7.45867640e-002 3.41715105e-002 1.20831821e-002 9.39647928e-002
      -2.22065151e-002 -9.48734432e-002 9.63670537e-002 1.07877150e-001
      5.16089574e-002 -6.24796264e-002 3.67067866e-002 6.85040727e-002
      1.64016671e-002 1.98484547e-002 -6.84246793e-002 3.91228497e-002
      -6.26526214e-003 -9.41738412e-002 -1.01604506e-001 8.49749148e-003
      1.28848907e-002 2.42722221e-002 -6.07853085e-002 -1.02972880e-001
      -2.10481603e-002 -3.03165452e-003 1.02074303e-001 -2.20877938e-002
      5.66809624e-002 2.39841677e-002 -1.18075021e-001 -4.00854088e-002
      -1.14526019e-001 -5.72925657e-002 -9.36001688e-002 8.54619592e-002
      -1.00784093e-001 -1.40287504e-002 -1.22657493e-001 1.43615022e-001
      6.59670681e-002 1.61113162e-002 2.28256509e-002 2.26013847e-002
      8.38332325e-002 5.49414121e-002 6.28874227e-002 1.74487472e-001
      -7.08517656e-002 9.77663025e-002 7.13407248e-002 3.97241749e-002
      2.94782827e-003 1.35495022e-001 -7.68797332e-003 7.11301938e-002
      4.59818281e-002 1.03526987e-001 6.36552125e-002 7.35618919e-003
      -1.05792433e-001 3.62993889e-002 -2.40381062e-002 1.21553391e-002
      6.01687422e-003 2.88410690e-002 -1.12604924e-001 -2.18950566e-002
      5.66278435e-002 -6.59209117e-002 1.92193557e-002 -7.14588091e-002
      -8.53142664e-002 -5.91218174e-002 -7.86032230e-002 6.36123270e-002
      3.50487381e-002 7.71168107e-003 -6.71278164e-002 4.13932241e-002
      -2.74947286e-002 3.59113291e-002 4.43649516e-002 -2.11516898e-002
      -4.74890210e-002 -9.60488766e-002 -5.97506948e-002
      -9.59192440e-002 -1.24764591e-002 -1.49163874e-002 5.89140058e-002
      -2.34597865e-002 2.17322097e-003</_>
    <_>
      1.47704691e-001 7.33504444e-002 -3.13848108e-002 -1.28631562e-001
      8.11650883e-003 3.26265879e-002 5.15017286e-002 3.76861431e-002
      1.06324390e-001 -8.27223286e-002 -5.34118013e-003 -1.07012093e-001
      -8.36151764e-002 -4.24638353e-002 -1.71382770e-001 2.99857277e-002
      3.55761079e-003 -1.10493556e-001 8.61647725e-002 1.30382434e-001
      8.30473751e-002 -1.08463250e-001 1.04417726e-002 2.06649024e-002
      1.89627364e-001 2.84149032e-002 1.26661677e-002 -1.07239619e-001
      -1.07425479e-002 -1.30053386e-001 -1.17231213e-001 6.67023882e-002
      -1.37091214e-002 8.91721323e-002 -4.16049026e-002 -1.43111199e-001
      2.77359765e-002 6.00093342e-002 1.27271369e-001 -1.17923343e-003
      5.97973652e-002 -6.17629588e-002 3.38157192e-002 2.69073024e-002
      3.48956622e-002 -5.85315973e-002 -6.92982823e-002 -6.16297573e-002
      -8.37610066e-002 6.57483488e-002 -4.88605425e-002 5.38048446e-002
      2.67245937e-002 -7.35347345e-002 6.10544123e-002 6.12478377e-003
      -4.56067957e-002 -6.62559718e-002 -4.82004359e-002
      -1.98271930e-001 -1.18008992e-002 -1.51647981e-002 9.94035155e-002
      -3.60604152e-002 -1.18503854e-001 -1.04030252e-001
      -1.50252953e-001 6.01570942e-002 -1.92283928e-001 1.38822906e-002
      7.15834498e-002 4.73614177e-003 3.30548212e-002 2.26456523e-002
      -8.66377056e-002 -1.04823314e-001 -9.48231965e-002
      -1.09332554e-001 1.15625791e-001 6.37802621e-003 3.81803140e-002
      -5.84497415e-002 -1.45361066e-001 -1.09279767e-001
      -1.86222866e-001 5.93141280e-002 -1.21895954e-001 9.53866318e-002
      4.49758060e-002 2.98953746e-002 6.18467778e-002 7.11974641e-003
      -2.62742732e-002 -2.13428289e-001 -8.68258923e-002 3.77330706e-002
      1.48549378e-001 1.28985703e-001 -3.18962261e-002 -1.16690956e-002
      -1.79211885e-001 -5.41228093e-002 -2.62844056e-001 1.11589795e-002
      -7.41941407e-002 1.47327647e-001 1.11896768e-001 2.15708502e-002
      -4.26384062e-003 -5.72650041e-003 3.45378183e-002 -1.20211549e-001
      -1.30627351e-002 -2.70545892e-002 6.91358969e-002 5.84372915e-002
      -8.37697312e-002 5.11664152e-002 -9.19185206e-002 -1.79230254e-002
      -1.57608569e-001 -8.22039098e-002 -1.06637038e-001 4.66308445e-002
      2.28112023e-002 4.43218574e-002 6.35913163e-002 -1.09721921e-001
      3.02326487e-004 -7.30808973e-002 -2.63583343e-002 -6.48218170e-002
      3.88532653e-002 3.66205685e-002 1.25901718e-002 7.29864910e-002
      -1.02126554e-001 -9.44328308e-002 -1.75120518e-001
      -2.63093170e-002 -8.10704380e-002 2.06640176e-002 5.43711819e-002
      7.46888593e-002 -5.16700558e-002 -1.02179550e-001 -9.43578631e-002
      1.83594041e-002 4.27691378e-002 5.16058644e-003 3.45328674e-002
      -1.52646592e-002 -7.09967762e-002 2.03646217e-002 -2.59077270e-002
      -1.39571831e-001 -1.22162933e-002 2.96566449e-002 3.30707096e-002
      5.85278124e-002 1.00431871e-002 1.95043534e-002 -4.03340757e-002
      -1.02249496e-001 -2.67031640e-001 2.35271454e-002 8.24375600e-002
      8.58933330e-002 -3.19862142e-002 2.16295887e-002 -9.20316204e-002
      6.60136119e-002 2.77686324e-002 -2.30076611e-001 5.43693677e-002
      2.11298373e-002 -2.40932684e-002 6.22327141e-002 -3.77464630e-002
      1.52007211e-002 -4.93439175e-002 -7.57833421e-002 -1.14834279e-001
      6.60362020e-002 7.89582878e-002 8.96594767e-003 -2.03227252e-002
      3.93124036e-002 -7.35537633e-002 6.73014522e-002 5.68499379e-002
      -7.20914379e-002 1.53998388e-002 -6.07806146e-002 -7.58548751e-002
      -7.69740716e-003 -1.81031507e-002 4.29502036e-003 -9.78474692e-002
      -2.27520298e-002 -4.03547706e-003 1.36576131e-001 3.72710638e-002
      -1.18890367e-001 8.46252963e-002 -1.92012154e-002 -1.66057184e-001
      1.97985824e-002 9.50445514e-003 1.05779395e-002 7.68020451e-002
      6.40087426e-002 -1.24418713e-001 -5.60987294e-002 8.16051848e-003
      -3.37031893e-002 -2.28382871e-002 -3.39468457e-002
      -3.17264758e-002 7.08073974e-002 1.12625159e-001 -1.69768110e-002
      7.44872242e-002 5.42967906e-003 -4.02298085e-002 2.20711660e-002
      -9.37416628e-002 -1.14735514e-002 5.60046621e-002 5.98086640e-002
      -6.24902137e-002 -3.36254314e-002 -4.55059856e-002 2.48680357e-002
      -7.24238232e-002 -2.08868593e-001 -8.75277445e-002 8.25871453e-002
      4.43137884e-002 8.48507434e-002 -1.89142749e-002 -4.23685722e-002
      -1.83962064e-003 -9.00336504e-002 -1.36236042e-001
      -2.03551035e-002 5.73491603e-002 1.49396388e-002 3.53986546e-002
      -7.52234459e-002 -7.70327076e-002 3.83293480e-002 -3.76599766e-002
      -1.14348218e-001 -6.46435469e-002 -1.86753902e-003 4.22116518e-002
      4.76255342e-002 -3.38536575e-002 -5.82741871e-002 -1.28724054e-002
      -7.17006549e-002 -9.52083915e-002 1.78824198e-002 -7.05164894e-002
      3.82092446e-002 9.47093293e-002 -4.02903296e-002 -6.98032007e-002
      1.32602388e-002 4.38358672e-002 -4.32097875e-002 1.75157649e-004
      -5.37702329e-002 3.06901671e-002 -4.88509126e-002 -8.42980202e-003
      -7.36555383e-002 4.37015062e-003 5.12343179e-003 -3.89518999e-002
      -2.67605111e-002 -5.02261445e-002 3.31988931e-002 5.86227737e-002
      1.39565945e-001 -3.20227817e-002 5.01508117e-002 -2.75345743e-002
      2.81738825e-002 -6.69763014e-002 -4.08458337e-003 -2.28311583e-005
      -4.95358258e-002 -6.21214218e-004 -5.74514680e-002 2.16080993e-003
      6.21238165e-003 4.35334742e-002 -1.26452431e-001 -2.50804331e-002
      -3.32483612e-002 -1.14522055e-002 3.90797593e-002 5.44189801e-003
      2.14224756e-002 -5.95603175e-002 1.32939696e-001 7.58797899e-002
      1.13074504e-001 5.51561303e-002 2.13178284e-002 -2.81671826e-002
      -8.87828618e-002 -1.11421950e-001 7.27142170e-002 1.57532528e-001
      1.45153264e-002 6.28073141e-002 6.72776427e-004 8.21669176e-002
      -2.56794747e-002 -2.34208088e-002 -7.73736387e-002
      -9.22339037e-002 8.48369598e-002 7.67525360e-002 5.25375791e-002
      2.89508253e-002 1.59136876e-002 2.43188366e-002 -8.98635015e-002
      -1.56291649e-001 -1.24020288e-002 1.10381633e-001 6.85488954e-002
      1.98960360e-002 3.21426131e-002 5.22254035e-003 2.40153186e-002
      -2.92331353e-003 -8.61210302e-002 -6.35738522e-002
      -1.58477332e-002 6.92409649e-002 1.35875359e-001 2.36489139e-002
      -3.83092202e-002 -4.02663052e-002 -6.24168888e-002
      -4.25052457e-003 -1.47736549e-001 -5.40878028e-002
      -1.00654736e-002 4.47174907e-003 4.80978750e-003 -5.71134202e-002
      -5.13207987e-002 -1.22454070e-001 -6.85574114e-002
      -3.52392495e-002 -1.19918818e-002 6.26919344e-002 4.63178232e-002
      5.51594198e-002 5.39057655e-003 -3.33745219e-002 -3.39355916e-002
      3.88511308e-002 -1.78808019e-001 -8.88899863e-002 5.34418486e-002
      1.00403549e-002 8.56605470e-002 9.57746133e-002 -2.79749539e-002
      -1.59308836e-001 -8.89667422e-002 -2.07134448e-002 4.52818610e-002
      7.35942423e-002 -1.85318210e-003 4.57636863e-002 -5.44206314e-002
      -4.41492870e-002 1.17492806e-002 5.13691045e-002 -2.39877790e-001
      -1.12240061e-001 5.99121377e-002 -1.66760273e-002 -1.64730139e-002
      6.01916239e-002 3.17331287e-003 -1.02314152e-001 -1.21566139e-001
      6.65366277e-002 6.97724819e-002 6.55650347e-002 9.92709771e-002
      1.72136985e-002 -9.67957601e-002 -4.76880260e-002 2.88380142e-002
      9.74953175e-002 -7.95202926e-002 -1.07059872e-003 8.27283338e-002
      -2.48643458e-002 -4.17665578e-002 1.77661926e-002 -3.41540463e-002
      -4.65324260e-002 -2.03673821e-002 1.60813704e-002 6.70426786e-002
      2.83748955e-002 -1.88132226e-002 1.39915245e-002 -7.02136457e-002
      -6.58204034e-002 -4.02574614e-003 1.24389771e-002 -4.52170484e-002
      1.09254569e-001 3.22254486e-002 -1.49920791e-001 -9.63660255e-002
      -1.04801677e-001 -3.74783352e-002 -1.47999339e-002 8.06801952e-004
      1.90184843e-002 6.64335936e-002 9.32592060e-003 -9.30032209e-002
      2.26211995e-002 -7.44112656e-002 -1.51444217e-002 6.05736161e-003
      2.40491740e-002 3.05082463e-003 1.43328786e-001 6.99156523e-002
      -4.86405864e-002 -1.33213848e-001 -8.20338205e-002
      -6.36874046e-003 -4.10208711e-004 3.61025855e-002 -5.64752799e-003
      8.50431249e-002 1.77015699e-002 -1.02523260e-001 -1.78967454e-002
      -5.90264536e-002 6.29075766e-002 5.14125638e-002 3.04385871e-002
      2.32277089e-003 1.59798428e-001 8.66989046e-002 -2.06841584e-002
      -9.44397748e-002 -4.02709544e-002 1.08624466e-001 -1.88786071e-002
      2.02194657e-002 -4.25181240e-002 -1.82706490e-002 -6.07211068e-002
      -1.08142421e-001 -9.47573874e-003 9.33827832e-004 5.21814190e-002
      9.48690921e-002 5.31222224e-002 -6.39665127e-002 2.58500837e-002
      -5.69761591e-003 -4.17794613e-003 -6.72697723e-002
      -1.05619058e-002 5.69100901e-002 5.50717227e-002 -3.10056494e-003
      5.42743281e-002 -5.16793542e-002 -9.06961858e-002 3.43755186e-002
      -1.75570522e-003 -4.49113734e-002 2.37279888e-002 6.18105941e-002
      9.07950848e-002 -1.03446141e-001 9.85450763e-003 1.66884139e-002
      4.45512906e-002 -6.36417121e-002 -6.54084012e-002 -4.06442396e-002
      7.09089562e-002 -1.07308321e-001 1.00848369e-001 4.38386686e-002
      -5.78709915e-002 -6.45184293e-002 1.25780636e-002 -1.76678449e-001
      -1.03508448e-002 4.14458709e-003 -1.60865970e-002 -3.55750583e-002
      5.00395149e-002 3.62001881e-002 -2.25299988e-002 -1.55916661e-002
      -1.47214666e-001 -5.19262701e-002 1.04863138e-003 -1.14929013e-001
      1.79506958e-001 6.14113323e-002 7.72027625e-003 -1.07736789e-001
      -2.21052933e-002 -2.21854746e-001 1.54636521e-002 5.88323846e-002
      4.91370447e-002 4.27902937e-002 -1.61783323e-002 -1.56229697e-002
      -1.97568953e-001 -5.77520803e-002 -9.58972499e-002
      -3.64871174e-002 3.35285738e-002 8.82048393e-004</_>
    <_>
      3.76705192e-002 -1.45400455e-002 -1.27930880e-001 3.00681032e-003
      -1.39747523e-002 1.69148132e-001 6.12539165e-002 1.84949711e-002
      6.01277053e-002 -8.08919892e-002 -9.72824637e-003 -1.60368845e-001
      -4.69266586e-002 -7.36925453e-002 -2.25200336e-002
      -3.62876505e-002 -7.31925517e-002 -1.39047101e-001
      -4.23754454e-002 4.34046201e-002 3.54050845e-002 1.22070946e-001
      7.30352327e-002 1.70589402e-001 1.27401322e-001 -1.35205220e-002
      -5.08810058e-002 -1.67448744e-001 -1.30627081e-002
      -1.11347899e-001 -4.11870480e-002 4.63886261e-002 4.92607094e-002
      9.92084965e-002 -1.28408387e-001 -2.76783049e-001 -3.28010954e-002
      2.73991693e-002 1.28903851e-001 1.79156080e-001 1.80791877e-002
      4.48867455e-002 3.13979313e-002 8.68928619e-003 -3.92462052e-002
      -1.10096857e-001 -4.39685285e-002 -7.21593648e-002
      -5.06484285e-002 3.82781103e-002 -5.08513004e-002 7.06979558e-002
      -5.71039021e-002 -1.52817503e-001 8.72706342e-003 -3.62442508e-002
      1.13715697e-002 1.16090827e-001 -7.45643005e-002 -2.35150848e-002
      7.26138800e-002 7.42394701e-002 -2.13798340e-002 1.44811696e-003
      -1.18978396e-001 -1.49051785e-001 -8.57774392e-002 1.76237002e-002
      -1.69781357e-001 9.38997604e-003 6.80037737e-002 -4.51715328e-002
      -1.23621728e-002 4.50266991e-003 -2.31499486e-002 4.72606421e-002
      -8.47072527e-002 -2.51628621e-003 6.42161295e-002 4.17632237e-002
      -5.49058206e-002 1.68894716e-002 -5.91083989e-002 -1.13356143e-001
      -8.91199112e-002 -2.77285539e-002 -1.21451147e-001 7.07899928e-002
      4.11208607e-002 -4.98907529e-002 -1.31199375e-001 5.54068014e-002
      5.63777925e-004 -2.59612203e-002 -9.99776945e-002 2.67805979e-002
      8.17230791e-002 8.07033852e-002 -1.63782820e-001 2.52890438e-002
      -3.74198444e-002 -1.14721619e-001 -1.24178447e-001
      -4.04097214e-002 -7.88755193e-002 1.43654317e-001 5.99812940e-002
      1.64113026e-002 -1.62392378e-001 -1.55458339e-002 6.07805178e-002
      -2.27666330e-002 -3.25981975e-002 -2.84557063e-002 7.20331669e-002
      3.40130664e-002 -1.67910203e-001 -3.56064998e-002 -3.73445861e-002
      -1.27891093e-001 -3.33996005e-002 -1.45285875e-001
      -8.46332088e-002 5.37262969e-002 3.46881822e-002 4.26975451e-003
      -3.62302735e-002 -6.57531321e-002 8.98414850e-002 2.64645685e-002
      1.18365260e-002 -3.57309617e-002 4.46696766e-002 4.79824878e-002
      -3.78647484e-002 3.92623544e-002 -8.53307694e-002 -1.88640624e-001
      -5.12452796e-002 -5.14293015e-002 -3.05711888e-002
      -2.32714172e-002 9.54104364e-002 8.51071849e-002 -8.91135633e-002
      -1.41816959e-002 -4.81892936e-003 1.19494610e-001 -5.70597537e-002
      2.01784186e-002 3.23543623e-002 -4.45622113e-003 -6.87428117e-002
      1.92388557e-002 5.86372893e-003 -5.36688566e-002 1.38220638e-002
      -9.18177962e-002 -6.27630204e-002 -1.38152540e-002
      -5.45941805e-003 5.54856136e-002 -9.05903522e-003 2.76293550e-002
      -5.59076071e-002 9.76947919e-002 -2.58241892e-002 8.30594748e-002
      -7.11995224e-003 7.14526623e-002 -1.36186625e-003 8.20647627e-002
      1.31611437e-001 6.78084716e-002 5.22392243e-002 -1.11103587e-001
      -1.36259377e-001 2.07086150e-002 6.77739903e-002 1.05531082e-001
      5.03548086e-002 -1.58808921e-002 -1.18318023e-002 4.71811444e-002
      -4.21234369e-002 6.40877560e-002 -6.27527907e-002 9.32227820e-002
      2.00638585e-002 1.13978714e-001 6.11989014e-002 -1.97929088e-002
      4.54085916e-002 -1.83456078e-001 -1.94618478e-002 1.06973788e-002
      1.12528533e-001 9.26904008e-002 -1.13355713e-002 3.19532380e-002
      1.13134328e-002 1.00494452e-001 -7.67339095e-002 -1.43637266e-002
      5.45499772e-002 2.06208937e-002 -2.26780996e-002 4.43459749e-002
      1.30763985e-002 -4.92339432e-002 1.35821238e-001 -7.60659873e-002
      -1.06446901e-002 2.24685520e-002 7.98186138e-002 -5.23914807e-002
      6.97295554e-003 4.49014343e-002 -3.78138945e-002 1.14443004e-001
      -6.73149005e-002 8.86294842e-002 9.14016068e-002 2.35934220e-002
      -3.54652256e-002 9.08313598e-003 2.03802940e-002 -8.79659038e-003
      2.03760967e-001 -7.09887072e-002 -4.16063815e-002 1.63459379e-004
      5.91732785e-002 -4.66135889e-002 -7.35991597e-002 -6.01075850e-002
      -5.05096540e-002 7.82260001e-002 -5.96793294e-002 2.41860032e-001
      -1.28403958e-002 -1.55963609e-002 -6.12250753e-002
      -9.82081145e-002 -5.54416254e-002 8.17683339e-002 1.23416997e-001
      -5.96793294e-002 8.61953497e-002 -1.15436281e-003 1.65666994e-002
      -4.50205393e-002 -6.69124424e-002 -5.27123064e-002
      -8.04776102e-002 7.73616657e-002 2.30757538e-002 1.48500666e-001
      -3.47997956e-002 -3.35148685e-002 -6.19478971e-002
      -6.39871806e-002 -6.12032302e-002 2.51789037e-002 3.94852133e-003
      1.74836349e-002 1.55319676e-001 2.00206358e-002 -8.09408128e-002
      -1.91697553e-002 -1.22344326e-002 -7.43740052e-002
      -2.78496500e-002 8.22976828e-002 -1.74224023e-002 7.28862174e-003
      -4.27613221e-002 -7.56550655e-002 -9.58771037e-004 1.93977766e-002
      -4.15404737e-002 -6.07776120e-002 3.83697860e-002 -1.84374247e-002
      3.33645009e-002 7.76974186e-002 -1.36507750e-001 9.54683721e-002
      -4.43284959e-003 1.76848434e-002 -4.64157872e-002 3.67450453e-002
      1.14705833e-002 -2.87645962e-002 -1.52120367e-001 -1.13143809e-001
      4.31489535e-002 9.16927084e-002 5.65902218e-002 -9.13697481e-002
      -3.11024319e-002 -5.35234548e-002 -2.91694165e-003
      -6.13887198e-002 -1.11872017e-001 8.37945417e-002 -1.70182213e-002
      1.46776512e-001 -1.16594706e-003 8.08685720e-002 -5.66443232e-005
      -3.03106513e-002 -1.87517419e-001 -1.03905022e-001
      -3.25789340e-002 1.95084363e-001 1.72018930e-001 -2.18950137e-002
      -3.74564305e-002 -5.97591139e-002 2.82313339e-002 -7.65349492e-002
      -5.17536625e-002 4.47008237e-002 -1.98512729e-002 7.01790527e-002
      2.39586532e-002 1.44919604e-001 -5.52362688e-002 5.24036847e-002
      9.17546730e-003 -8.37134495e-002 -8.36013034e-002 5.94163686e-002
      1.33581776e-002 3.73016410e-002 6.64953664e-002 -8.98550823e-002
      -3.06794303e-003 6.60430714e-002 2.35166736e-002 2.63178609e-002
      -3.39826755e-002 -8.70908052e-002 -1.17092589e-002 1.33356243e-001
      -8.03714097e-002 4.15797196e-002 2.81629479e-003 -3.80087644e-002
      2.48615234e-003 -3.65681574e-002 -1.59977958e-001 -1.04223648e-002
      6.52788505e-002 -7.98120275e-002 -1.17198013e-001 2.89880559e-002
      2.64996551e-002 7.27854669e-002 -7.55317276e-003 -5.16761206e-002
      1.77594107e-002 9.29640681e-002 -5.95824979e-002 1.97581388e-002
      -5.27851991e-002 -1.66679248e-002 7.03791156e-002 -4.53036390e-002
      -1.06245726e-001 1.70606058e-002 5.48429601e-002 2.69448273e-002
      -1.83005221e-002 -1.78000126e-002 -6.43515959e-002 4.58476394e-002
      -5.99218346e-002 -1.93188656e-002 -1.51263988e-002 1.18757308e-001
      2.09948770e-003 -3.58092338e-002 -8.24174583e-002 -3.77800241e-002
      -3.17814313e-002 -1.57172441e-001 -5.22567332e-002
      -4.79964949e-002 -3.05766612e-003 1.57463178e-003 9.65313427e-003
      -3.43423747e-002 -7.85620809e-002 -1.09904468e-001
      -3.24710868e-002 3.80889908e-003 -1.52205070e-002 1.54977724e-001
      2.67637372e-002 -9.47721377e-002 -6.42387569e-002 3.17311212e-002
      -9.30529088e-003 -1.24061145e-001 4.00077142e-002 4.27177101e-002
      -1.43856751e-002 3.36294668e-003 -2.32090857e-002 3.83182243e-002
      1.50448736e-002 -1.21422902e-001 -3.59643623e-002 -2.61491388e-002
      -5.21443225e-002 8.03997964e-002 2.10548937e-002 -1.04430959e-001
      -1.31051540e-001 -2.41209213e-002 -8.30151141e-002
      -1.00662880e-001 4.28919755e-002 -6.50147116e-003 -6.68342784e-002
      -4.98550236e-002 -1.39291748e-001 5.68598416e-003 -1.11215124e-002
      -7.54755735e-002 3.88634466e-002 -2.74193502e-004 -2.28472687e-002
      -6.30368246e-003 1.54095739e-002 -1.12677582e-001 -1.07152194e-001
      -4.78394404e-002 1.70520842e-002 -1.36677446e-002 9.08960775e-002
      -3.13040130e-002 -1.94979925e-002 -2.43301429e-002
      -8.68030563e-002 -5.14515154e-002 -1.62578700e-003
      -2.36076629e-003 -4.74649183e-002 -3.12018506e-002
      -1.31460028e-002 1.47222662e-002 1.55557320e-002 -6.93933368e-002
      -1.07400902e-001 -4.56377864e-002 -4.10362482e-002
      -6.20719939e-002 6.43366426e-002 -9.74897295e-002 -2.63473410e-002
      2.65722759e-002 -5.29874451e-002 -9.08175111e-003 -9.24101099e-002
      -6.74996898e-002 -6.10036515e-002 -5.31453602e-002 7.59283779e-003
      6.88770935e-002 -4.47929651e-003 -1.05737559e-002 -1.20824352e-001
      5.42668952e-003 -3.86627652e-002 -6.98926896e-002 -4.89102565e-002
      -8.04252252e-002 2.70313956e-002 1.62016768e-002 -5.20659126e-002
      -7.90665969e-002 -5.90759292e-002 -6.43557534e-002
      -5.08927135e-003 -4.98852395e-002 4.24207374e-002 1.62287489e-001
      -1.26156108e-002 -4.94813398e-002 -5.07535525e-002
      -2.24188482e-003 4.30201963e-002 -7.25331977e-002 -1.86152849e-002
      4.13625408e-003 7.12184459e-002 5.24017066e-002 -7.47078061e-002
      -4.66012210e-002 -1.26249418e-002 -6.45659938e-002 8.11684225e-003
      1.88891292e-002 4.63672429e-002 4.51786667e-002 -1.15176737e-002
      -8.71761963e-002 -1.08909838e-001 3.74935009e-002 -1.91474166e-002
      -1.00299492e-001 -7.57076666e-002 3.90366167e-002 -5.26625514e-002
      -1.23843539e-003 -1.72490969e-001 -1.34564221e-001
      -2.29018219e-002 -1.44895807e-001 7.87786990e-002 3.40037011e-002
      3.01500130e-002 1.00767333e-002 3.37501317e-002 -3.06468662e-002
      -5.28386347e-002 1.28033757e-001 9.25129205e-002 -3.89034743e-004
      -3.46835367e-002 1.28078833e-002 -1.57774299e-001 2.42903251e-002
      -9.79705900e-002 -4.21817824e-002 4.37990762e-002 -1.67966112e-002</_>
    <_>
      3.76705192e-002 -1.45400455e-002 -1.27930880e-001 3.00681032e-003
      -1.39747523e-002 1.69148132e-001 6.12539165e-002 1.84949711e-002
      6.01277053e-002 -8.08919892e-002 -9.72824637e-003 -1.60368845e-001
      -4.69266586e-002 -7.36925453e-002 -2.25200336e-002
      -3.62876505e-002 -7.31925517e-002 -1.39047101e-001
      -4.23754454e-002 4.34046201e-002 3.54050845e-002 1.22070946e-001
      7.30352327e-002 1.70589402e-001 1.27401322e-001 -1.35205220e-002
      -5.08810058e-002 -1.67448744e-001 -1.30627081e-002
      -1.11347899e-001 -4.11870480e-002 4.63886261e-002 4.92607094e-002
      9.92084965e-002 -1.28408387e-001 -2.76783049e-001 -3.28010954e-002
      2.73991693e-002 1.28903851e-001 1.79156080e-001 1.80791877e-002
      4.48867455e-002 3.13979313e-002 8.68928619e-003 -3.92462052e-002
      -1.10096857e-001 -4.39685285e-002 -7.21593648e-002
      -5.06484285e-002 3.82781103e-002 -5.08513004e-002 7.06979558e-002
      -5.71039021e-002 -1.52817503e-001 8.72706342e-003 -3.62442508e-002
      1.13715697e-002 1.16090827e-001 -7.45643005e-002 -2.35150848e-002
      7.26138800e-002 7.42394701e-002 -2.13798340e-002 1.44811696e-003
      -1.18978396e-001 -1.49051785e-001 -8.57774392e-002 1.76237002e-002
      -1.69781357e-001 9.38997604e-003 6.80037737e-002 -4.51715328e-002
      -1.23621728e-002 4.50266991e-003 -2.31499486e-002 4.72606421e-002
      -8.47072527e-002 -2.51628621e-003 6.42161295e-002 4.17632237e-002
      -5.49058206e-002 1.68894716e-002 -5.91083989e-002 -1.13356143e-001
      -8.91199112e-002 -2.77285539e-002 -1.21451147e-001 7.07899928e-002
      4.11208607e-002 -4.98907529e-002 -1.31199375e-001 5.54068014e-002
      5.63777925e-004 -2.59612203e-002 -9.99776945e-002 2.67805979e-002
      8.17230791e-002 8.07033852e-002 -1.63782820e-001 2.52890438e-002
      -3.74198444e-002 -1.14721619e-001 -1.24178447e-001
      -4.04097214e-002 -7.88755193e-002 1.43654317e-001 5.99812940e-002
      1.64113026e-002 -1.62392378e-001 -1.55458339e-002 6.07805178e-002
      -2.27666330e-002 -3.25981975e-002 -2.84557063e-002 7.20331669e-002
      3.40130664e-002 -1.67910203e-001 -3.56064998e-002 -3.73445861e-002
      -1.27891093e-001 -3.33996005e-002 -1.45285875e-001
      -8.46332088e-002 5.37262969e-002 3.46881822e-002 4.26975451e-003
      -3.62302735e-002 -6.57531321e-002 8.98414850e-002 2.64645685e-002
      1.18365260e-002 -3.57309617e-002 4.46696766e-002 4.79824878e-002
      -3.78647484e-002 3.92623544e-002 -8.53307694e-002 -1.88640624e-001
      -5.12452796e-002 -5.14293015e-002 -3.05711888e-002
      -2.32714172e-002 9.54104364e-002 8.51071849e-002 -8.91135633e-002
      -1.41816959e-002 -4.81892936e-003 1.19494610e-001 -5.70597537e-002
      2.01784186e-002 3.23543623e-002 -4.45622113e-003 -6.87428117e-002
      1.92388557e-002 5.86372893e-003 -5.36688566e-002 1.38220638e-002
      -9.18177962e-002 -6.27630204e-002 -1.38152540e-002
      -5.45941805e-003 5.54856136e-002 -9.05903522e-003 2.76293550e-002
      -5.59076071e-002 9.76947919e-002 -2.58241892e-002 8.30594748e-002
      -7.11995224e-003 7.14526623e-002 -1.36186625e-003 8.20647627e-002
      1.31611437e-001 6.78084716e-002 5.22392243e-002 -1.11103587e-001
      -1.36259377e-001 2.07086150e-002 6.77739903e-002 1.05531082e-001
      5.03548086e-002 -1.58808921e-002 -1.18318023e-002 4.71811444e-002
      -4.21234369e-002 6.40877560e-002 -6.27527907e-002 9.32227820e-002
      2.00638585e-002 1.13978714e-001 6.11989014e-002 -1.97929088e-002
      4.54085916e-002 -1.83456078e-001 -1.94618478e-002 1.06973788e-002
      1.12528533e-001 9.26904008e-002 -1.13355713e-002 3.19532380e-002
      1.13134328e-002 1.00494452e-001 -7.67339095e-002 -1.43637266e-002
      5.45499772e-002 2.06208937e-002 -2.26780996e-002 4.43459749e-002
      1.30763985e-002 -4.92339432e-002 1.35821238e-001 -7.60659873e-002
      -1.06446901e-002 2.24685520e-002 7.98186138e-002 -5.23914807e-002
      6.97295554e-003 4.49014343e-002 -3.78138945e-002 1.14443004e-001
      -6.73149005e-002 8.86294842e-002 9.14016068e-002 2.35934220e-002
      -3.54652256e-002 9.08313598e-003 2.03802940e-002 -8.79659038e-003
      2.03760967e-001 -7.09887072e-002 -4.16063815e-002 1.63459379e-004
      5.91732785e-002 -4.66135889e-002 -7.35991597e-002 -6.01075850e-002
      -5.05096540e-002 7.82260001e-002 -5.96793294e-002 2.41860032e-001
      -1.28403958e-002 -1.55963609e-002 -6.12250753e-002
      -9.82081145e-002 -5.54416254e-002 8.17683339e-002 1.23416997e-001
      -5.96793294e-002 8.61953497e-002 -1.15436281e-003 1.65666994e-002
      -4.50205393e-002 -6.69124424e-002 -5.27123064e-002
      -8.04776102e-002 7.73616657e-002 2.30757538e-002 1.48500666e-001
      -3.47997956e-002 -3.35148685e-002 -6.19478971e-002
      -6.39871806e-002 -6.12032302e-002 2.51789037e-002 3.94852133e-003
      1.74836349e-002 1.55319676e-001 2.00206358e-002 -8.09408128e-002
      -1.91697553e-002 -1.22344326e-002 -7.43740052e-002
      -2.78496500e-002 8.22976828e-002 -1.74224023e-002 7.28862174e-003
      -4.27613221e-002 -7.56550655e-002 -9.58771037e-004 1.93977766e-002
      -4.15404737e-002 -6.07776120e-002 3.83697860e-002 -1.84374247e-002
      3.33645009e-002 7.76974186e-002 -1.36507750e-001 9.54683721e-002
      -4.43284959e-003 1.76848434e-002 -4.64157872e-002 3.67450453e-002
      1.14705833e-002 -2.87645962e-002 -1.52120367e-001 -1.13143809e-001
      4.31489535e-002 9.16927084e-002 5.65902218e-002 -9.13697481e-002
      -3.11024319e-002 -5.35234548e-002 -2.91694165e-003
      -6.13887198e-002 -1.11872017e-001 8.37945417e-002 -1.70182213e-002
      1.46776512e-001 -1.16594706e-003 8.08685720e-002 -5.66443232e-005
      -3.03106513e-002 -1.87517419e-001 -1.03905022e-001
      -3.25789340e-002 1.95084363e-001 1.72018930e-001 -2.18950137e-002
      -3.74564305e-002 -5.97591139e-002 2.82313339e-002 -7.65349492e-002
      -5.17536625e-002 4.47008237e-002 -1.98512729e-002 7.01790527e-002
      2.39586532e-002 1.44919604e-001 -5.52362688e-002 5.24036847e-002
      9.17546730e-003 -8.37134495e-002 -8.36013034e-002 5.94163686e-002
      1.33581776e-002 3.73016410e-002 6.64953664e-002 -8.98550823e-002
      -3.06794303e-003 6.60430714e-002 2.35166736e-002 2.63178609e-002
      -3.39826755e-002 -8.70908052e-002 -1.17092589e-002 1.33356243e-001
      -8.03714097e-002 4.15797196e-002 2.81629479e-003 -3.80087644e-002
      2.48615234e-003 -3.65681574e-002 -1.59977958e-001 -1.04223648e-002
      6.52788505e-002 -7.98120275e-002 -1.17198013e-001 2.89880559e-002
      2.64996551e-002 7.27854669e-002 -7.55317276e-003 -5.16761206e-002
      1.77594107e-002 9.29640681e-002 -5.95824979e-002 1.97581388e-002
      -5.27851991e-002 -1.66679248e-002 7.03791156e-002 -4.53036390e-002
      -1.06245726e-001 1.70606058e-002 5.48429601e-002 2.69448273e-002
      -1.83005221e-002 -1.78000126e-002 -6.43515959e-002 4.58476394e-002
      -5.99218346e-002 -1.93188656e-002 -1.51263988e-002 1.18757308e-001
      2.09948770e-003 -3.58092338e-002 -8.24174583e-002 -3.77800241e-002
      -3.17814313e-002 -1.57172441e-001 -5.22567332e-002
      -4.79964949e-002 -3.05766612e-003 1.57463178e-003 9.65313427e-003
      -3.43423747e-002 -7.85620809e-002 -1.09904468e-001
      -3.24710868e-002 3.80889908e-003 -1.52205070e-002 1.54977724e-001
      2.67637372e-002 -9.47721377e-002 -6.42387569e-002 3.17311212e-002
      -9.30529088e-003 -1.24061145e-001 4.00077142e-002 4.27177101e-002
      -1.43856751e-002 3.36294668e-003 -2.32090857e-002 3.83182243e-002
      1.50448736e-002 -1.21422902e-001 -3.59643623e-002 -2.61491388e-002
      -5.21443225e-002 8.03997964e-002 2.10548937e-002 -1.04430959e-001
      -1.31051540e-001 -2.41209213e-002 -8.30151141e-002
      -1.00662880e-001 4.28919755e-002 -6.50147116e-003 -6.68342784e-002
      -4.98550236e-002 -1.39291748e-001 5.68598416e-003 -1.11215124e-002
      -7.54755735e-002 3.88634466e-002 -2.74193502e-004 -2.28472687e-002
      -6.30368246e-003 1.54095739e-002 -1.12677582e-001 -1.07152194e-001
      -4.78394404e-002 1.70520842e-002 -1.36677446e-002 9.08960775e-002
      -3.13040130e-002 -1.94979925e-002 -2.43301429e-002
      -8.68030563e-002 -5.14515154e-002 -1.62578700e-003
      -2.36076629e-003 -4.74649183e-002 -3.12018506e-002
      -1.31460028e-002 1.47222662e-002 1.55557320e-002 -6.93933368e-002
      -1.07400902e-001 -4.56377864e-002 -4.10362482e-002
      -6.20719939e-002 6.43366426e-002 -9.74897295e-002 -2.63473410e-002
      2.65722759e-002 -5.29874451e-002 -9.08175111e-003 -9.24101099e-002
      -6.74996898e-002 -6.10036515e-002 -5.31453602e-002 7.59283779e-003
      6.88770935e-002 -4.47929651e-003 -1.05737559e-002 -1.20824352e-001
      5.42668952e-003 -3.86627652e-002 -6.98926896e-002 -4.89102565e-002
      -8.04252252e-002 2.70313956e-002 1.62016768e-002 -5.20659126e-002
      -7.90665969e-002 -5.90759292e-002 -6.43557534e-002
      -5.08927135e-003 -4.98852395e-002 4.24207374e-002 1.62287489e-001
      -1.26156108e-002 -4.94813398e-002 -5.07535525e-002
      -2.24188482e-003 4.30201963e-002 -7.25331977e-002 -1.86152849e-002
      4.13625408e-003 7.12184459e-002 5.24017066e-002 -7.47078061e-002
      -4.66012210e-002 -1.26249418e-002 -6.45659938e-002 8.11684225e-003
      1.88891292e-002 4.63672429e-002 4.51786667e-002 -1.15176737e-002
      -8.71761963e-002 -1.08909838e-001 3.74935009e-002 -1.91474166e-002
      -1.00299492e-001 -7.57076666e-002 3.90366167e-002 -5.26625514e-002
      -1.23843539e-003 -1.72490969e-001 -1.34564221e-001
      -2.29018219e-002 -1.44895807e-001 7.87786990e-002 3.40037011e-002
      3.01500130e-002 1.00767333e-002 3.37501317e-002 -3.06468662e-002
      -5.28386347e-002 1.28033757e-001 9.25129205e-002 -3.89034743e-004
      -3.46835367e-002 1.28078833e-002 -1.57774299e-001 2.42903251e-002
      -9.79705900e-002 -4.21817824e-002 4.37990762e-002 -1.67966112e-002</_>
    <_>
      3.39527950e-002 -4.88791754e-003 3.57836485e-002 -8.71520713e-002
      2.45920243e-003 -3.85988615e-002 -1.20459087e-002 -1.75925735e-002
      -2.13833200e-003 -9.64999944e-002 -3.92682254e-002
      -7.48021826e-002 -8.95473212e-002 2.30210721e-002 3.75746898e-002
      -4.27761525e-002 -1.50642656e-002 -7.71284476e-002
      -5.00357188e-002 -1.95626356e-002 6.87639415e-002 -1.23459272e-001
      9.57843885e-002 6.67780638e-002 6.92890659e-002 2.23001242e-002
      -2.65619345e-002 -4.85955514e-002 -2.13695969e-002 4.73048948e-002
      -7.87918195e-002 1.19387425e-001 2.35805716e-002 3.81122418e-002
      1.76152140e-001 -1.85615495e-002 -2.50272136e-002 8.34275968e-003
      2.83688754e-002 -3.57303135e-002 1.05943404e-001 8.33335966e-002
      -1.08418763e-002 -5.92820793e-002 -2.02455558e-002 2.28296760e-002
      -2.72066835e-002 9.75505635e-002 -6.57593310e-002 9.91530865e-002
      6.15340844e-002 3.85161936e-002 5.39074987e-002 -5.69667155e-003
      9.03770141e-003 5.82504235e-002 2.59894319e-002 1.63088553e-003
      1.58566367e-002 -3.90985981e-002 -9.16939005e-002 -7.97674805e-002
      -3.48968133e-002 1.01094646e-002 3.33938748e-002 1.29069597e-001
      1.59345232e-002 5.35446815e-002 2.38320157e-002 -8.34068805e-002
      -7.78632164e-002 -2.16286723e-002 -3.22236074e-003 9.15832538e-003
      5.43236658e-002 6.09947294e-002 4.44710441e-002 1.33633316e-002
      -7.29277655e-002 -1.34956520e-002 -3.50396410e-002
      -1.12073354e-001 -1.36023192e-002 8.91185626e-002 -2.33540721e-002
      5.54293506e-002 -3.72511707e-002 -1.19592071e-001 -2.25940929e-003
      -7.27864131e-002 5.17798401e-002 -6.75107539e-002 4.72898781e-002
      1.22270577e-001 3.84106115e-002 -1.54528860e-002 -3.18392441e-002
      5.28954202e-003 1.72894802e-002 -1.09439097e-001 -9.96882841e-002
      4.76418473e-002 6.74246475e-002 3.30620594e-002 4.63467266e-004
      2.48779561e-002 1.30556077e-001 -6.59770519e-002 6.94156513e-002
      -2.94244736e-002 1.32926777e-002 9.16379765e-002 4.46519768e-003
      -5.35861813e-002 -2.64559165e-002 3.63607742e-002 2.07344759e-002
      4.47933143e-003 3.27276206e-003 -5.07808244e-003 2.48971358e-002
      6.95539406e-003 2.12840028e-002 1.05296662e-002 7.66434446e-002
      -3.18105407e-002 3.63992015e-003 -4.27445211e-003 -4.26591299e-002
      7.76330195e-003 -8.22931901e-003 5.39396331e-002 7.54866097e-003
      -2.91663762e-002 -6.63756579e-002 -1.49635971e-002 5.16370572e-002
      -3.05702854e-002 2.91710664e-002 9.05996654e-003 4.27037738e-002
      -1.40695209e-002 -2.01358786e-003 7.99663272e-003 -2.48890333e-002
      -9.24359076e-003 -1.60310585e-002 -3.08583062e-002 4.55576442e-002
      5.54516427e-002 6.72038123e-002 -6.13900647e-003 4.41093743e-003
      3.05977538e-002 4.35365364e-002 -7.01076016e-002 6.03021495e-003
      -7.63987191e-003 2.13277638e-002 8.76664445e-002 -2.72966065e-002
      -9.24533792e-003 4.66453657e-002 2.85668001e-002 -2.48455573e-002
      -2.67301276e-002 -1.07742669e-002 -1.79479900e-003 6.85182735e-002
      4.73398194e-002 8.31192136e-002 1.53801695e-001 1.01623617e-001
      -5.31254523e-003 -1.30245611e-002 8.60543572e-004 -1.26427233e-001
      -1.54622542e-002 -3.58049534e-002 4.59197350e-002 9.51911807e-002
      1.87241808e-002 1.37031218e-002 2.67649293e-002 5.07844277e-002
      -1.15230307e-001 -6.55050995e-003 -9.66259185e-003 6.71223179e-002
      1.72354952e-001 1.15647428e-002 -2.31731380e-003 4.22190502e-002
      -2.05770833e-003 -1.82816535e-001 -9.75648612e-002
      -1.01233892e-001 2.42172349e-002 4.52706702e-002 7.16945902e-002
      1.05226167e-001 -1.03527084e-002 3.73500735e-002 -1.74323156e-001
      1.41547965e-002 -2.41997298e-002 6.12432770e-002 1.89342275e-001
      4.23666388e-002 -1.70147195e-002 -1.95968412e-002 -8.62087181e-004
      -1.24882028e-001 -4.33509797e-002 -1.42912015e-001 1.16014808e-001
      2.13717744e-002 1.82715580e-002 4.98384982e-002 -9.08282697e-002
      5.95813580e-002 -8.11023787e-002 6.91077411e-002 -2.11138856e-002
      7.22835511e-002 1.15396775e-001 -1.50780296e-002 -1.11044221e-001
      -1.94550261e-001 -6.28202921e-003 -6.63559958e-002 2.99035404e-002
      -2.76429765e-002 1.29080981e-001 4.88860942e-002 -5.76657541e-002
      9.44146067e-002 -1.01611152e-001 8.89970288e-002 -6.42791316e-002
      5.63951619e-002 9.08009987e-003 9.98484641e-002 7.58726224e-002
      -5.70187122e-002 -8.36566687e-002 -2.16278046e-001 4.91890535e-002
      3.55898379e-003 7.35663772e-002 1.94155313e-002 1.49663776e-001
      6.74838200e-002 -6.39851317e-002 -6.06172159e-002 -1.02242030e-001
      1.42252132e-001 -5.69213144e-002 -3.31723914e-002 1.58792511e-002
      7.90340379e-002 6.12790398e-002 -2.71955840e-002 -6.82509318e-002
      -2.34821662e-001 1.40445784e-001 -9.30836275e-002 -5.73678575e-002
      -5.10919392e-002 5.11736982e-002 7.70074800e-002 -8.03503469e-002
      -3.61752920e-002 -1.69113223e-002 1.27222911e-001 -4.97631095e-002
      -1.65277775e-002 2.39010733e-002 9.22148600e-002 4.32533808e-002
      -8.61780047e-002 -1.15105519e-002 -1.66377202e-001 1.17541619e-001
      -1.54463261e-001 -9.98130366e-002 -1.79122612e-002 9.20979008e-002
      1.27230100e-002 -1.38981715e-001 6.61636740e-002 3.36491540e-002
      9.14264321e-002 -7.45303780e-002 5.69385663e-003 5.42676486e-002
      8.09060261e-002 6.13957783e-003 -7.52209574e-002 8.68262127e-002
      -1.28534392e-001 4.49004695e-002 -1.98670566e-001 -4.21521105e-002
      2.25772541e-002 1.17919408e-001 4.35721576e-002 -9.32984948e-002
      4.99427728e-002 -1.09537542e-001 4.48628180e-002 -4.21710983e-002
      6.77653551e-002 5.84180839e-002 1.24036483e-001 3.36456895e-002
      4.90708612e-002 6.60205111e-002 -1.56578645e-001 3.54955308e-002
      -8.33207145e-002 2.78072618e-002 5.83192669e-002 7.47243762e-002
      4.48950939e-002 4.96939048e-002 3.71749811e-002 -8.97140056e-002
      6.63841888e-002 -9.30401729e-004 5.69720678e-002 6.85803145e-002
      9.30952802e-002 7.37030953e-002 3.22004296e-002 2.39879545e-002
      -1.48529753e-001 3.81746218e-002 -9.87518504e-002 -1.59164537e-002
      3.24247964e-002 8.24591592e-002 1.12237267e-001 1.05026811e-001
      1.31127015e-001 -4.78132591e-002 1.03605110e-002 -6.82720840e-002
      -9.83392298e-002 1.94852166e-002 1.54376671e-001 1.34836987e-001
      -1.40774297e-002 1.16702773e-001 -1.67555794e-001 -4.14734147e-002
      -1.30423889e-001 -1.13197222e-001 6.93077520e-002 1.79927766e-001
      1.21690385e-001 4.39127088e-002 1.31458059e-001 -2.94654537e-002
      -6.92014247e-002 -2.47061979e-002 2.78964937e-002 1.06055737e-001
      1.51677594e-001 1.50564373e-001 6.70174435e-002 2.20917955e-001
      -1.18758075e-001 -1.24116972e-001 -1.17156439e-001
      -5.40909097e-002 2.40151227e-001 2.11559415e-001 5.13023734e-002
      4.77476232e-002 2.33351160e-002 -4.62214574e-002 -1.15329914e-001
      9.51265320e-002 1.55832216e-001 1.33349717e-001 1.22965008e-001
      1.08075626e-001 1.01545647e-001 6.20081984e-002 -1.13265984e-001
      -1.23520151e-001 -7.50221610e-002 6.83600828e-002 1.44943878e-001
      1.32975563e-001 -5.99337416e-003 3.84592339e-002 2.77827196e-002
      6.76784059e-003 -1.66737791e-002 4.28739153e-002 8.38621929e-002
      4.36568670e-002 6.40042573e-002 -1.61402412e-002 6.52815178e-002
      2.82894652e-002 -1.76434382e-003 -2.34894771e-002 -1.23710692e-001
      7.45279193e-002 -4.72953282e-002 -8.67967121e-003 2.25771195e-003
      2.36346200e-002 4.55309153e-002 6.33135438e-002 7.63653889e-002
      8.14582929e-002 4.11516055e-002 1.36146313e-002 7.50542954e-002
      -9.07198787e-002 3.22358795e-002 1.18364114e-002 8.74710381e-002
      3.31715569e-002 -1.33039236e-001 -9.72784311e-002 -1.63274392e-001
      -4.06825915e-002 8.11952427e-002 -4.36075544e-003 3.14599574e-002
      1.08090557e-001 1.47816092e-001 3.65473107e-002 -3.26981914e-004
      -2.65602395e-002 6.10048249e-002 -4.69613411e-002 -5.20307533e-002
      -2.55112145e-002 8.13969299e-002 -1.56141119e-003 -1.47699952e-001
      -9.26528648e-002 -7.36309886e-002 -2.99690627e-002 1.00387216e-001
      -9.00867954e-002 -1.83937401e-002 6.53643310e-002 1.09698333e-001
      9.47660580e-002 -2.06722170e-002 1.48765659e-002 9.70689878e-002
      -3.04095615e-002 -1.44431219e-001 -8.25288519e-002
      -5.78415357e-002 2.78403815e-002 6.29189238e-002 -5.66190258e-002
      7.01516345e-002 5.59256366e-003 -1.04609330e-003 -1.34386435e-001
      -9.67457145e-002 -1.61105990e-002 2.97884196e-002 9.27225500e-002
      -2.55046673e-002 2.83588432e-002 3.36743966e-002 -8.20107460e-002
      -1.05644412e-001 -9.64290649e-002 -7.03005269e-002
      -2.20717601e-002 1.45600930e-001 -4.82281297e-002 9.14175157e-003
      -1.46931514e-001 7.91729912e-002 2.21283245e-003 3.02272215e-002
      1.61763765e-002 1.22460462e-001 1.07152268e-001 6.13015890e-002
      9.67256166e-003 6.77714124e-002 1.66273664e-003 8.99836197e-002
      6.01546206e-002 6.47496209e-002 5.83290271e-002 6.08455241e-002
      -1.63556840e-002 4.47517894e-002 1.51734166e-002 3.20582837e-002
      2.31454112e-002 8.75841379e-002 -2.37613562e-002 1.04286768e-001
      -3.93743068e-003 5.18095084e-002 -2.48182081e-002 5.52985892e-002
      -9.31730941e-002 1.02031855e-002 3.06514408e-002 -3.93869057e-002
      9.90847200e-002 -7.04367831e-002 2.39792783e-002 -3.93164158e-002
      3.25185806e-002 -1.37653634e-001 -2.06997152e-002 -3.13399383e-003
      1.35492627e-002 3.62254940e-002 -8.93264189e-002 1.31405406e-002
      -2.59306375e-002 -5.32101616e-002 -1.07781574e-001
      -1.04732595e-001 -1.12201944e-001 -3.43427025e-002 4.16240245e-002
      -3.07862796e-002 1.04281224e-001 8.35865852e-004 3.32945175e-002</_>
    <_>
      1.32425100e-001 6.64065555e-002 -2.67817248e-002 -2.11952180e-001
      3.75842676e-002 -8.57795700e-002 3.17469984e-003 5.73943332e-002
      2.01158468e-002 -7.26107135e-002 3.29469144e-002 -6.49367124e-002
      -1.41355515e-001 8.43795314e-002 -8.15908089e-002 2.65825056e-002
      6.79083839e-002 -9.06571671e-002 1.12333924e-001 1.00211194e-002
      -2.98304688e-002 -3.11202049e-001 1.57936141e-002 1.16766077e-002
      4.86574844e-002 1.08294412e-001 1.30650982e-001 -7.01698363e-002
      -6.92083165e-002 -2.83763390e-002 -1.43870011e-001 1.01759747e-001
      1.17465615e-001 -3.49813849e-002 1.54287562e-001 -4.55005653e-003
      5.31016700e-002 1.74339972e-002 -3.52984555e-002 -2.34383568e-001
      5.72735146e-002 -8.61991569e-003 -4.47450504e-002 2.39323210e-002
      7.63133988e-002 4.38705571e-002 -6.68229237e-002 -1.49755077e-002
      -1.19047970e-001 7.61567131e-002 1.12677045e-001 3.62976268e-002
      3.72217707e-002 5.56484647e-002 1.61089599e-002 5.92923351e-002
      -1.12568364e-001 -2.27130517e-001 1.77543927e-002 -1.13653056e-001
      -4.73272353e-002 -9.40782055e-002 4.19570692e-002 4.69462201e-003
      -5.23662120e-002 6.72120973e-003 -1.43763954e-002 7.21915290e-002
      7.11487234e-003 -2.07085395e-003 -9.51227844e-002 6.25880137e-002
      -1.08301705e-002 -5.21931285e-003 -3.44142504e-002
      -1.78417698e-001 1.27704842e-002 -4.15780842e-002 6.23454005e-002
      -5.76643720e-002 5.60153984e-002 -1.42719850e-001 -1.41727716e-001
      -5.48298191e-003 -7.22774416e-002 1.20201223e-001 -2.41121091e-003
      2.89823227e-002 -5.18472083e-002 -1.81046315e-002 1.16853915e-001
      -9.28065777e-002 3.16004492e-002 -9.77069139e-002 4.02198359e-002
      9.32600945e-002 4.97559346e-002 1.26683647e-002 5.34045845e-002
      -1.45634264e-001 -1.98079526e-001 4.27773707e-002 2.87981890e-002
      1.00218482e-001 7.06673786e-002 4.47085351e-002 1.36089116e-001
      -6.22328967e-002 1.22390784e-001 -5.27634062e-002 2.35843156e-002
      2.26758942e-002 7.78020993e-002 -3.73122841e-002 -9.41578522e-002
      -1.96834095e-002 1.81075142e-004 4.17133095e-003 -9.38661247e-002
      1.91322528e-002 3.85750248e-003 3.83078158e-002 3.62046063e-002
      -2.76479758e-002 -2.26832042e-003 -3.93589549e-002 1.08569220e-001
      -1.27878204e-001 -3.68354768e-002 -3.99214029e-002 4.36960310e-002
      5.97686740e-003 -9.46820155e-002 -1.03264607e-001 1.70613732e-002
      5.64868599e-002 -2.47442741e-002 6.64426982e-002 9.04281214e-002
      4.91285622e-002 -4.22406830e-002 -6.29382655e-002 -5.89084849e-002
      -3.49093452e-002 3.65169570e-002 -6.93356171e-002 -1.45901497e-002
      -5.74652739e-002 1.31153420e-001 2.07715780e-002 -5.61857000e-002
      -1.27964005e-001 -2.02706996e-002 4.65050340e-002 3.15471739e-002
      -4.34819795e-002 2.99759824e-002 8.17135498e-002 -1.81447752e-002
      2.07285509e-002 -4.13106345e-002 -3.65806445e-002 5.34144528e-002
      -8.48781690e-002 -1.36692107e-001 -5.24890833e-002 9.16284472e-002
      5.92057966e-002 -6.91299215e-002 -1.19715646e-001 1.23277609e-003
      1.25390664e-001 3.03601660e-002 -8.82313028e-002 2.85229087e-003
      7.55450651e-002 -5.74272498e-002 -6.09996691e-002 -1.34470388e-001
      -6.08152896e-003 3.65686379e-002 -6.56091273e-002 -1.03073396e-001
      -3.28483619e-002 1.28707826e-001 -4.10900973e-002 1.81801599e-002
      -7.63621181e-002 7.36608729e-003 1.20517217e-001 2.63752602e-002
      -2.99033299e-002 -3.10505591e-002 3.72982468e-003 -1.61381409e-001
      -7.36890733e-002 -1.44090012e-001 -3.30922268e-002
      -5.51188104e-002 8.48050937e-002 1.00955434e-001 4.09636879e-003
      7.18390644e-002 -1.69404998e-001 6.92606671e-003 -6.84709176e-002
      -8.78794044e-002 1.18181378e-001 9.10655782e-002 1.14905231e-001
      -1.18318694e-002 8.36808756e-002 -1.74259499e-001 -6.71596155e-002
      -1.11621052e-001 7.43104741e-002 -3.48563190e-003 -8.93512461e-003
      1.01132169e-001 -1.14442423e-001 1.98720723e-001 -1.36940509e-001
      2.94279810e-002 -3.07686180e-002 4.77242842e-002 8.20488036e-002
      -8.04878250e-002 5.78942299e-002 -1.12953126e-001 1.36730567e-001
      -1.63099498e-001 -6.27728254e-002 -1.01780586e-001 1.41440019e-001
      1.95324235e-002 -1.54866904e-001 5.30627072e-002 -1.99967191e-001
      1.54158115e-001 -1.21579930e-001 -1.70338172e-002 -2.62188073e-002
      1.59669444e-001 -2.08009090e-002 -1.50075838e-001 -1.11684889e-001
      -1.87136263e-001 9.54685062e-002 -2.98641529e-002 -7.41355047e-002
      -6.87499270e-002 1.83105573e-001 6.71285465e-002 -9.98492539e-002
      -7.72403404e-002 -1.76815763e-001 1.08729899e-001 -9.66519639e-002
      -8.03597122e-002 -2.04903129e-002 9.91500095e-002 -8.29391927e-003
      -1.13497883e-001 -8.63245502e-002 -2.32381821e-001 1.56437069e-001
      -3.31987552e-002 -1.02413423e-001 -3.96649763e-002 6.60171062e-002
      1.38594776e-001 -9.65812728e-002 -1.35935158e-001 -1.31452784e-001
      1.05059534e-001 -1.25522435e-001 -4.05507311e-002 7.00029731e-003
      1.07775487e-001 1.28661040e-002 -1.18742943e-001 -6.25174195e-002
      -8.32922980e-002 1.31826133e-001 -6.57693818e-002 -3.93152945e-002
      1.78569779e-002 1.05069406e-001 4.21488211e-002 -8.64435136e-002
      -4.70345058e-002 -5.95822595e-002 5.17533347e-002 -1.47980988e-001
      -1.40352184e-002 2.46191733e-002 3.88120040e-002 -1.55426506e-002
      -1.15176275e-001 1.43257246e-004 -5.93241081e-002 6.38590828e-002
      -8.62202793e-002 -1.35487029e-002 4.22049873e-002 1.12597138e-001
      -6.38659894e-002 -7.64405876e-002 -5.29957330e-003
      -1.41578531e-002 1.19185187e-001 -1.31688714e-002 1.58487111e-002
      -2.58866437e-002 -7.86092132e-002 -2.25373711e-002 1.28689632e-002
      2.02489682e-002 -8.30952674e-002 1.00417741e-001 9.52501595e-002
      5.41918054e-002 -1.55982014e-003 4.43930598e-003 -1.27506003e-001
      3.16415690e-002 -3.89968231e-002 -1.49356231e-001 1.13845363e-001
      -4.65904735e-003 5.56340665e-002 -1.81575981e-003 -1.34979472e-001
      1.41334618e-004 1.96676590e-002 -4.40959260e-002 -1.50496736e-001
      1.33991480e-001 5.51185980e-002 4.31265980e-002 -1.45294396e-002
      -4.63984720e-002 2.12638057e-003 4.75296415e-002 1.24353208e-001
      -6.12846874e-002 1.01930849e-001 -5.63547313e-002 -8.01492855e-002
      1.49643617e-002 1.32129908e-001 -2.37766728e-002 -6.33720607e-002
      5.18910214e-002 -7.00382143e-002 6.90043494e-002 -1.67069007e-002
      -1.15469322e-001 -2.74045449e-002 6.43081293e-002 2.47284994e-002
      -2.87170298e-002 1.01798922e-001 -5.27500212e-002 9.41312388e-002
      -2.21646484e-003 8.40222910e-002 1.01054780e-001 1.25801161e-001
      -8.04611072e-002 -8.63187462e-002 1.50414988e-001 9.85433012e-002
      7.24632740e-002 4.17668782e-002 -9.62300226e-002 8.52186978e-002
      5.39762489e-002 -7.47988047e-003 2.88885254e-002 4.72674444e-002
      -6.33759201e-002 3.66374813e-002 -4.06743251e-002 1.13282807e-001
      1.25318870e-001 6.67488500e-002 -1.90618709e-001 -9.50965136e-002
      1.07421905e-001 6.61861748e-002 -7.59994388e-002 -4.49087936e-003
      2.61936919e-003 -1.96262710e-002 -5.33870086e-002 -8.98485444e-003
      3.04687005e-002 3.02413460e-002 2.02756450e-002 9.27522629e-002
      -3.95114236e-002 -4.74118721e-003 3.98707688e-002 1.02744021e-001
      -1.06321841e-001 3.28413938e-004 7.37098902e-002 4.63189594e-002
      -2.45636646e-002 -9.11852866e-002 -1.36599829e-002
      -5.18684536e-002 2.27366406e-002 -2.75120568e-002 -7.56416982e-003
      3.30035836e-002 -7.09965900e-002 1.18143164e-001 9.61048231e-002
      -4.75179404e-003 -4.33343202e-002 1.03924349e-001 -4.97128330e-002
      9.41691026e-002 4.24788930e-002 5.33925463e-003 2.49532834e-002
      -6.26262799e-002 -8.57945085e-002 -1.29290804e-001 2.68344954e-002
      2.39560083e-002 4.19233032e-002 1.04865916e-001 -1.64375659e-002
      1.03676639e-001 1.64501425e-002 5.10969982e-002 -5.99640012e-002
      1.09314686e-002 4.59751599e-002 9.98002663e-002 1.16177432e-001
      6.21433072e-002 -4.86951880e-002 -5.28678037e-002 -6.59587756e-002
      -1.49921998e-001 -6.66218437e-003 4.58768681e-002 3.72474380e-002
      1.21239230e-001 -1.00508720e-001 2.68965475e-002 -2.28617191e-002
      6.81837946e-002 1.44010093e-002 7.34394416e-002 9.48073249e-003
      3.05495085e-003 9.32828188e-002 -5.01199812e-002 -4.80858386e-002
      8.59061703e-002 9.48454365e-002 1.92608554e-002 5.32668941e-002
      -4.31064330e-002 -7.72213563e-002 -5.65251671e-002
      -1.46568209e-001 3.71296369e-002 -2.19273213e-002 7.17976084e-003
      5.78882173e-002 6.91214651e-002 4.09109425e-003 -4.22931574e-002
      2.83049792e-002 -2.28133556e-002 -1.66125689e-002 4.69676927e-002
      5.07457592e-002 6.02910779e-002 -1.85968424e-003 8.39319453e-002
      -8.68193358e-002 -8.40604752e-002 -1.49621814e-002 9.71366093e-002
      7.17961323e-003 2.42425669e-002 2.44358052e-002 3.63741778e-002
      2.77287420e-002 1.90207995e-002 3.93265821e-002 9.72534120e-002
      -3.04528996e-002 -1.12690963e-001 -4.28634286e-002 7.55260885e-002
      -6.83018640e-002 1.10962942e-001 5.86947240e-002 2.36366969e-002
      -9.11767420e-004 5.82439154e-002 -1.66160911e-001 1.59225557e-002
      -2.23007109e-002 6.48562238e-002 1.70490667e-002 1.00195520e-001
      1.33228013e-002 1.92849543e-002 9.40390024e-003 -1.76337078e-001
      6.36570603e-002 6.37443811e-002 6.86716959e-002 2.13566963e-002
      6.87995031e-002 -1.51056396e-002 -4.29987162e-002 -5.20624220e-002
      -3.12844008e-001 -2.64794510e-002 1.06867086e-002 1.16949908e-001
      -2.23398348e-003 1.78814884e-002 -9.83001366e-002 -1.88767061e-001
      -6.98629022e-002 -1.25777557e-001 -1.66936580e-003 1.10523924e-001
      1.01397134e-001</_>
    <_>
      2.24604364e-002 6.36214623e-003 -1.44598752e-001 -1.29404338e-002
      1.45856151e-002 1.08677424e-001 4.58130091e-002 7.53859878e-002
      -1.00734048e-002 -5.60947843e-002 3.71658839e-002 -1.42570019e-001
      -4.20089066e-002 8.56786780e-003 7.21434355e-002 -9.94512215e-002
      5.90712950e-003 -7.37717003e-002 -4.43615988e-002 -5.68565950e-002
      -1.21966846e-001 -2.80693639e-002 6.87117353e-002 1.78102329e-001
      5.86159155e-002 1.06888063e-001 9.29256827e-002 -1.58137083e-001
      -8.27751681e-002 -9.03113559e-003 -2.26363670e-002 3.67640890e-002
      1.45395279e-001 -1.17419800e-002 9.26977620e-002 -1.05191536e-001
      9.37226415e-003 1.42297084e-002 -2.55346242e-002 -4.19669412e-002
      3.70417605e-003 1.45590320e-001 1.08458074e-002 1.61486920e-002
      5.43485861e-003 -3.32511328e-002 -5.03909178e-002 -2.35858876e-002
      -8.91095325e-002 5.00752330e-002 7.57022575e-002 1.16111673e-001
      -2.36481074e-002 -1.44998319e-002 -1.84238926e-002 3.11339665e-002
      -4.47151549e-002 -1.95160452e-002 -6.10044189e-002 1.16450690e-001
      8.65380540e-002 2.73240544e-003 -9.97823477e-002 1.95068456e-002
      -8.66290629e-002 -1.22425921e-001 9.58140008e-003 1.25638712e-002
      -1.98980495e-002 5.29272370e-002 -7.51030818e-002 -2.08574738e-002
      -7.37191662e-002 -3.04975882e-002 5.61499633e-002 4.09018882e-002
      -2.48141922e-002 1.19654134e-001 6.72306195e-002 -1.19175315e-002
      -6.35817870e-002 -1.17870413e-001 -7.15344027e-002
      -6.34657666e-002 4.04267944e-003 2.55916137e-002 -3.53305489e-002
      2.97898315e-002 -2.30142288e-002 -1.83500513e-001 -1.01347603e-001
      -2.30926909e-002 6.53250962e-002 1.11523941e-001 -1.22699812e-002
      1.36583984e-001 8.81941244e-002 4.31424677e-002 -1.32039666e-001
      -1.21096104e-001 -6.09449372e-002 -8.48422796e-002 1.15447931e-001
      4.77337986e-002 4.97115850e-002 1.35001093e-001 1.88234150e-001
      -9.92930755e-002 -3.76940072e-002 -4.18936312e-002 6.39634281e-002
      1.29106656e-001 2.73613315e-002 -2.20295582e-002 -1.11074541e-002
      -5.43374335e-003 -1.29276499e-001 -3.71569507e-002
      -2.15306692e-002 -1.82511702e-001 9.59606841e-002 -3.60215679e-002
      5.49807884e-002 7.28470609e-002 8.60282555e-002 -7.79878348e-002
      -4.18543303e-003 -7.01425299e-002 4.95399460e-002 8.21586028e-002
      6.01555295e-002 3.92308533e-002 1.08465378e-003 -1.04849689e-001
      -7.21462071e-002 5.13016693e-002 -2.70328205e-003 -1.54073253e-001
      1.56640202e-001 7.90807325e-003 4.69511226e-002 -6.11078320e-003
      1.59265231e-002 -2.20349319e-002 2.29668114e-002 4.13039476e-002
      9.62008312e-002 8.41449425e-002 -1.02055667e-003 2.05687284e-002
      -3.50198778e-003 -9.98305231e-002 -1.56687945e-002 1.01748489e-001
      6.92395866e-002 -2.56933570e-002 3.14243808e-002 -6.09434098e-002
      -9.04992372e-002 -4.83694114e-003 -3.55121046e-002 2.62684617e-002
      1.64847001e-001 1.07192092e-001 1.31789804e-001 1.49199041e-002
      -4.81188111e-002 3.91719714e-002 -4.94689867e-002 -2.88003366e-002
      1.29265025e-001 1.91101044e-001 1.89996898e-001 2.40905315e-001
      3.50263040e-003 -8.45560655e-002 -2.51102328e-001 -9.93411243e-002
      -8.83033127e-003 7.22296610e-002 1.93059921e-001 3.32103372e-002
      6.46503940e-002 -1.40390508e-002 -4.62537818e-002 1.49326781e-002
      -1.78230423e-002 9.79160424e-003 1.29935384e-001 1.82956606e-001
      5.85039817e-002 3.81819606e-002 1.31174037e-002 -1.69346496e-001
      -1.33540362e-001 -6.02243729e-002 8.35143495e-003 3.18772979e-002
      5.54519072e-002 1.41834125e-001 1.67013824e-001 3.89428623e-002
      -1.22769251e-001 -2.56885272e-002 5.25456145e-002 7.10876808e-002
      9.37726051e-002 1.92440331e-001 1.29120603e-001 8.23265165e-002
      9.44636092e-002 -1.26541361e-001 -3.36572379e-002 6.72923541e-003
      2.72608385e-003 5.97462878e-002 4.04547974e-002 7.24642202e-002
      9.90065932e-002 -7.08634686e-003 -9.50847119e-002 1.43026672e-002
      7.96239972e-002 6.93038777e-002 6.39024153e-002 1.24214776e-001
      8.03873762e-002 9.30526108e-002 7.94759840e-002 -1.00586258e-001
      -1.46114141e-001 -3.39624695e-002 5.22988178e-002 3.69474553e-002
      4.96201366e-002 3.60409915e-002 9.38920081e-002 -1.46705940e-001
      -3.81846204e-002 7.30967224e-002 -1.59963556e-002 4.73073497e-002
      1.31067991e-001 1.43273100e-002 -1.33752972e-002 6.62003979e-002
      -1.37494281e-001 -3.94486338e-002 3.52316685e-002 3.41871977e-002
      6.50012121e-002 1.12669446e-001 7.92580470e-002 -5.57649229e-003
      -7.31773227e-002 -3.13781276e-002 1.87356248e-002 2.16986332e-002
      -8.44370872e-002 1.91766564e-002 7.13420883e-002 3.18277739e-002
      -1.29485521e-002 -1.85547359e-002 -1.55376405e-001 8.36710557e-002
      5.40182926e-002 -4.45048027e-002 -6.39353618e-002 5.20159751e-002
      1.33721545e-001 -1.45823583e-001 -1.76955894e-001 4.50454727e-002
      -9.04693175e-003 -4.47429121e-002 -5.50004281e-002
      -1.99107099e-002 1.29804671e-001 7.31299520e-002 -8.41694623e-002
      -8.93498063e-002 1.90205395e-003 2.19725352e-002 -6.32729307e-002
      -7.50111789e-002 -1.24399073e-001 1.99907914e-001 9.99549329e-002
      -1.29539371e-001 -7.68837556e-002 -3.15812901e-002 3.96333858e-002
      -8.21424201e-002 -1.63179532e-001 -4.14213575e-002 1.27630278e-001
      1.36934057e-001 -7.62776583e-002 7.86095578e-003 -8.47278982e-002
      1.10725537e-002 -3.52231823e-002 -6.59218729e-002 -6.08684532e-002
      2.67150283e-001 -1.37658715e-002 -7.32245743e-002 -1.72940835e-001
      -7.73634091e-002 1.75356250e-002 -5.55021688e-002 -1.48506969e-001
      -3.33342738e-002 2.63526998e-002 1.79325208e-001 1.79150347e-002
      -2.62387022e-002 -2.22833320e-001 1.75356250e-002 5.73303131e-003
      2.83066873e-002 9.87468753e-003 2.05156669e-001 -4.01658714e-002
      2.55415589e-002 -1.01398386e-001 -3.51260491e-002 -1.55042056e-002
      4.37199995e-002 5.33589832e-002 1.08197080e-002 -2.08506975e-002
      1.20668769e-001 -1.03668571e-001 -5.48330247e-002 -1.20467037e-001
      7.18117971e-003 -1.32645490e-002 7.11293444e-002 3.20649408e-002
      1.22085400e-001 1.88879631e-002 -5.50376624e-002 -3.28343436e-002
      -4.94002737e-002 -2.63163932e-002 4.37957570e-002 -3.64383385e-002
      7.84030110e-002 1.66618183e-001 1.05980240e-001 -1.98122829e-001
      1.55636892e-002 -6.92418441e-002 -2.63163932e-002 -1.31515652e-001
      -3.00300345e-002 1.97256863e-001 2.64933944e-001 4.43397760e-002
      -7.59061947e-002 1.11889197e-002 -2.32786988e-003 -8.53386894e-003
      3.80877815e-002 5.76344468e-002 1.27647564e-001 1.64693132e-001
      2.30974499e-002 -1.22554578e-001 7.52223879e-002 9.78771597e-002
      3.24188210e-002 -1.23990737e-001 -6.96373135e-002 2.13501394e-001
      1.94079846e-001 -9.69017074e-002 -1.32087609e-002 -7.81011954e-002
      8.45683888e-002 -2.19047293e-002 -7.99482688e-004 7.20617473e-002
      7.41787627e-002 -4.49247956e-002 -1.58926681e-001 -6.06218986e-002
      -3.13250981e-002 4.90014106e-002 -2.96561476e-002 -6.84031993e-002
      -6.95974752e-002 -1.09700989e-002 -8.57253522e-002
      -1.43136799e-001 -2.42971610e-002 -6.64370880e-002 1.04318321e-001
      4.06961106e-002 -2.46922877e-002 -3.43815200e-002 5.01325950e-002
      -1.72713026e-002 -1.93359151e-001 3.46008763e-002 5.05368672e-002
      -3.07925399e-002 2.57977024e-002 -9.44475085e-002 3.66556756e-002
      -9.81474668e-003 -1.41689956e-001 -8.97475258e-002
      -9.75417793e-002 -3.43232714e-002 6.33608326e-002 9.94838998e-002
      1.08515888e-001 -8.79215375e-002 -7.07352385e-002 2.76106084e-003
      -1.03870325e-001 -7.95315299e-003 2.28397083e-002 4.34457809e-002
      6.31474704e-002 -5.28709069e-002 -3.83777246e-002 -1.39805689e-001
      -5.71001135e-002 5.22707142e-002 -6.56508561e-003 1.09673291e-001
      9.42987800e-002 7.26770759e-002 3.89966518e-002 -1.51488809e-002
      -1.46500230e-001 8.70101852e-004 8.53979290e-002 -4.37545311e-003
      -1.71619169e-002 1.08295143e-001 8.74896348e-002 -2.31411047e-002
      -1.19597018e-001 -1.90703407e-001 -6.31367192e-002
      -2.96440292e-002 -1.19914681e-001 1.31019518e-001 5.61942570e-002
      3.02709602e-002 -9.96293500e-003 -9.99807492e-002 -6.72805309e-002
      2.55548526e-002 -6.33758008e-002 -1.47711515e-001 -1.14895761e-001
      -9.73730385e-002 1.02783933e-001 4.95916568e-002 -6.60785660e-002
      -8.10279176e-002 -4.77356836e-002 -1.34444416e-001
      -1.60219088e-001 6.19610772e-002 1.17177159e-001 6.79884059e-003
      -1.19180800e-002 -2.32311681e-001 -3.08188442e-002
      -2.12101135e-002 -3.22484560e-002 -1.84768915e-001
      -5.04541658e-002 2.49489099e-002 7.56166950e-002 -1.18614770e-002
      -1.80843845e-001 -1.11450128e-001 -7.69862905e-002
      -1.18930060e-002 -9.55217332e-002 1.54613242e-001 2.05054730e-001
      6.09748363e-002 -2.35182773e-002 -7.51343817e-002 -4.80873547e-002
      9.32409614e-003 6.80116713e-002 1.08800145e-004 1.31837770e-001
      1.77734032e-001 1.21492498e-001 -1.56302333e-001 -1.05299003e-001
      -4.12953086e-002 -5.36499992e-002 -1.06301086e-004 7.10539818e-002
      2.09294692e-001 1.69543371e-001 2.71638092e-002 -6.05468303e-002
      -1.13599963e-001 4.05250899e-002 1.96456965e-002 -9.88615900e-002
      -8.03177431e-003 7.76439309e-002 -4.82421182e-002 -4.73837554e-003
      -1.92353413e-001 -8.85156095e-002 2.03768965e-002 -5.51236002e-003
      -9.13091749e-002 6.92375824e-002 4.80616055e-002 1.27544701e-001
      1.30108679e-002 -5.80787063e-002 -8.63684863e-002 1.37321532e-001
      1.65181354e-001 -2.16626935e-002 2.98209372e-003 -7.80900568e-002
      -1.57591090e-001 5.13757579e-002 -1.12951174e-001 -3.47639993e-002
      9.47145298e-002 7.10043535e-002</_>
    <_>
      2.24604364e-002 6.36214623e-003 -1.44598752e-001 -1.29404338e-002
      1.45856151e-002 1.08677424e-001 4.58130091e-002 7.53859878e-002
      -1.00734048e-002 -5.60947843e-002 3.71658839e-002 -1.42570019e-001
      -4.20089066e-002 8.56786780e-003 7.21434355e-002 -9.94512215e-002
      5.90712950e-003 -7.37717003e-002 -4.43615988e-002 -5.68565950e-002
      -1.21966846e-001 -2.80693639e-002 6.87117353e-002 1.78102329e-001
      5.86159155e-002 1.06888063e-001 9.29256827e-002 -1.58137083e-001
      -8.27751681e-002 -9.03113559e-003 -2.26363670e-002 3.67640890e-002
      1.45395279e-001 -1.17419800e-002 9.26977620e-002 -1.05191536e-001
      9.37226415e-003 1.42297084e-002 -2.55346242e-002 -4.19669412e-002
      3.70417605e-003 1.45590320e-001 1.08458074e-002 1.61486920e-002
      5.43485861e-003 -3.32511328e-002 -5.03909178e-002 -2.35858876e-002
      -8.91095325e-002 5.00752330e-002 7.57022575e-002 1.16111673e-001
      -2.36481074e-002 -1.44998319e-002 -1.84238926e-002 3.11339665e-002
      -4.47151549e-002 -1.95160452e-002 -6.10044189e-002 1.16450690e-001
      8.65380540e-002 2.73240544e-003 -9.97823477e-002 1.95068456e-002
      -8.66290629e-002 -1.22425921e-001 9.58140008e-003 1.25638712e-002
      -1.98980495e-002 5.29272370e-002 -7.51030818e-002 -2.08574738e-002
      -7.37191662e-002 -3.04975882e-002 5.61499633e-002 4.09018882e-002
      -2.48141922e-002 1.19654134e-001 6.72306195e-002 -1.19175315e-002
      -6.35817870e-002 -1.17870413e-001 -7.15344027e-002
      -6.34657666e-002 4.04267944e-003 2.55916137e-002 -3.53305489e-002
      2.97898315e-002 -2.30142288e-002 -1.83500513e-001 -1.01347603e-001
      -2.30926909e-002 6.53250962e-002 1.11523941e-001 -1.22699812e-002
      1.36583984e-001 8.81941244e-002 4.31424677e-002 -1.32039666e-001
      -1.21096104e-001 -6.09449372e-002 -8.48422796e-002 1.15447931e-001
      4.77337986e-002 4.97115850e-002 1.35001093e-001 1.88234150e-001
      -9.92930755e-002 -3.76940072e-002 -4.18936312e-002 6.39634281e-002
      1.29106656e-001 2.73613315e-002 -2.20295582e-002 -1.11074541e-002
      -5.43374335e-003 -1.29276499e-001 -3.71569507e-002
      -2.15306692e-002 -1.82511702e-001 9.59606841e-002 -3.60215679e-002
      5.49807884e-002 7.28470609e-002 8.60282555e-002 -7.79878348e-002
      -4.18543303e-003 -7.01425299e-002 4.95399460e-002 8.21586028e-002
      6.01555295e-002 3.92308533e-002 1.08465378e-003 -1.04849689e-001
      -7.21462071e-002 5.13016693e-002 -2.70328205e-003 -1.54073253e-001
      1.56640202e-001 7.90807325e-003 4.69511226e-002 -6.11078320e-003
      1.59265231e-002 -2.20349319e-002 2.29668114e-002 4.13039476e-002
      9.62008312e-002 8.41449425e-002 -1.02055667e-003 2.05687284e-002
      -3.50198778e-003 -9.98305231e-002 -1.56687945e-002 1.01748489e-001
      6.92395866e-002 -2.56933570e-002 3.14243808e-002 -6.09434098e-002
      -9.04992372e-002 -4.83694114e-003 -3.55121046e-002 2.62684617e-002
      1.64847001e-001 1.07192092e-001 1.31789804e-001 1.49199041e-002
      -4.81188111e-002 3.91719714e-002 -4.94689867e-002 -2.88003366e-002
      1.29265025e-001 1.91101044e-001 1.89996898e-001 2.40905315e-001
      3.50263040e-003 -8.45560655e-002 -2.51102328e-001 -9.93411243e-002
      -8.83033127e-003 7.22296610e-002 1.93059921e-001 3.32103372e-002
      6.46503940e-002 -1.40390508e-002 -4.62537818e-002 1.49326781e-002
      -1.78230423e-002 9.79160424e-003 1.29935384e-001 1.82956606e-001
      5.85039817e-002 3.81819606e-002 1.31174037e-002 -1.69346496e-001
      -1.33540362e-001 -6.02243729e-002 8.35143495e-003 3.18772979e-002
      5.54519072e-002 1.41834125e-001 1.67013824e-001 3.89428623e-002
      -1.22769251e-001 -2.56885272e-002 5.25456145e-002 7.10876808e-002
      9.37726051e-002 1.92440331e-001 1.29120603e-001 8.23265165e-002
      9.44636092e-002 -1.26541361e-001 -3.36572379e-002 6.72923541e-003
      2.72608385e-003 5.97462878e-002 4.04547974e-002 7.24642202e-002
      9.90065932e-002 -7.08634686e-003 -9.50847119e-002 1.43026672e-002
      7.96239972e-002 6.93038777e-002 6.39024153e-002 1.24214776e-001
      8.03873762e-002 9.30526108e-002 7.94759840e-002 -1.00586258e-001
      -1.46114141e-001 -3.39624695e-002 5.22988178e-002 3.69474553e-002
      4.96201366e-002 3.60409915e-002 9.38920081e-002 -1.46705940e-001
      -3.81846204e-002 7.30967224e-002 -1.59963556e-002 4.73073497e-002
      1.31067991e-001 1.43273100e-002 -1.33752972e-002 6.62003979e-002
      -1.37494281e-001 -3.94486338e-002 3.52316685e-002 3.41871977e-002
      6.50012121e-002 1.12669446e-001 7.92580470e-002 -5.57649229e-003
      -7.31773227e-002 -3.13781276e-002 1.87356248e-002 2.16986332e-002
      -8.44370872e-002 1.91766564e-002 7.13420883e-002 3.18277739e-002
      -1.29485521e-002 -1.85547359e-002 -1.55376405e-001 8.36710557e-002
      5.40182926e-002 -4.45048027e-002 -6.39353618e-002 5.20159751e-002
      1.33721545e-001 -1.45823583e-001 -1.76955894e-001 4.50454727e-002
      -9.04693175e-003 -4.47429121e-002 -5.50004281e-002
      -1.99107099e-002 1.29804671e-001 7.31299520e-002 -8.41694623e-002
      -8.93498063e-002 1.90205395e-003 2.19725352e-002 -6.32729307e-002
      -7.50111789e-002 -1.24399073e-001 1.99907914e-001 9.99549329e-002
      -1.29539371e-001 -7.68837556e-002 -3.15812901e-002 3.96333858e-002
      -8.21424201e-002 -1.63179532e-001 -4.14213575e-002 1.27630278e-001
      1.36934057e-001 -7.62776583e-002 7.86095578e-003 -8.47278982e-002
      1.10725537e-002 -3.52231823e-002 -6.59218729e-002 -6.08684532e-002
      2.67150283e-001 -1.37658715e-002 -7.32245743e-002 -1.72940835e-001
      -7.73634091e-002 1.75356250e-002 -5.55021688e-002 -1.48506969e-001
      -3.33342738e-002 2.63526998e-002 1.79325208e-001 1.79150347e-002
      -2.62387022e-002 -2.22833320e-001 1.75356250e-002 5.73303131e-003
      2.83066873e-002 9.87468753e-003 2.05156669e-001 -4.01658714e-002
      2.55415589e-002 -1.01398386e-001 -3.51260491e-002 -1.55042056e-002
      4.37199995e-002 5.33589832e-002 1.08197080e-002 -2.08506975e-002
      1.20668769e-001 -1.03668571e-001 -5.48330247e-002 -1.20467037e-001
      7.18117971e-003 -1.32645490e-002 7.11293444e-002 3.20649408e-002
      1.22085400e-001 1.88879631e-002 -5.50376624e-002 -3.28343436e-002
      -4.94002737e-002 -2.63163932e-002 4.37957570e-002 -3.64383385e-002
      7.84030110e-002 1.66618183e-001 1.05980240e-001 -1.98122829e-001
      1.55636892e-002 -6.92418441e-002 -2.63163932e-002 -1.31515652e-001
      -3.00300345e-002 1.97256863e-001 2.64933944e-001 4.43397760e-002
      -7.59061947e-002 1.11889197e-002 -2.32786988e-003 -8.53386894e-003
      3.80877815e-002 5.76344468e-002 1.27647564e-001 1.64693132e-001
      2.30974499e-002 -1.22554578e-001 7.52223879e-002 9.78771597e-002
      3.24188210e-002 -1.23990737e-001 -6.96373135e-002 2.13501394e-001
      1.94079846e-001 -9.69017074e-002 -1.32087609e-002 -7.81011954e-002
      8.45683888e-002 -2.19047293e-002 -7.99482688e-004 7.20617473e-002
      7.41787627e-002 -4.49247956e-002 -1.58926681e-001 -6.06218986e-002
      -3.13250981e-002 4.90014106e-002 -2.96561476e-002 -6.84031993e-002
      -6.95974752e-002 -1.09700989e-002 -8.57253522e-002
      -1.43136799e-001 -2.42971610e-002 -6.64370880e-002 1.04318321e-001
      4.06961106e-002 -2.46922877e-002 -3.43815200e-002 5.01325950e-002
      -1.72713026e-002 -1.93359151e-001 3.46008763e-002 5.05368672e-002
      -3.07925399e-002 2.57977024e-002 -9.44475085e-002 3.66556756e-002
      -9.81474668e-003 -1.41689956e-001 -8.97475258e-002
      -9.75417793e-002 -3.43232714e-002 6.33608326e-002 9.94838998e-002
      1.08515888e-001 -8.79215375e-002 -7.07352385e-002 2.76106084e-003
      -1.03870325e-001 -7.95315299e-003 2.28397083e-002 4.34457809e-002
      6.31474704e-002 -5.28709069e-002 -3.83777246e-002 -1.39805689e-001
      -5.71001135e-002 5.22707142e-002 -6.56508561e-003 1.09673291e-001
      9.42987800e-002 7.26770759e-002 3.89966518e-002 -1.51488809e-002
      -1.46500230e-001 8.70101852e-004 8.53979290e-002 -4.37545311e-003
      -1.71619169e-002 1.08295143e-001 8.74896348e-002 -2.31411047e-002
      -1.19597018e-001 -1.90703407e-001 -6.31367192e-002
      -2.96440292e-002 -1.19914681e-001 1.31019518e-001 5.61942570e-002
      3.02709602e-002 -9.96293500e-003 -9.99807492e-002 -6.72805309e-002
      2.55548526e-002 -6.33758008e-002 -1.47711515e-001 -1.14895761e-001
      -9.73730385e-002 1.02783933e-001 4.95916568e-002 -6.60785660e-002
      -8.10279176e-002 -4.77356836e-002 -1.34444416e-001
      -1.60219088e-001 6.19610772e-002 1.17177159e-001 6.79884059e-003
      -1.19180800e-002 -2.32311681e-001 -3.08188442e-002
      -2.12101135e-002 -3.22484560e-002 -1.84768915e-001
      -5.04541658e-002 2.49489099e-002 7.56166950e-002 -1.18614770e-002
      -1.80843845e-001 -1.11450128e-001 -7.69862905e-002
      -1.18930060e-002 -9.55217332e-002 1.54613242e-001 2.05054730e-001
      6.09748363e-002 -2.35182773e-002 -7.51343817e-002 -4.80873547e-002
      9.32409614e-003 6.80116713e-002 1.08800145e-004 1.31837770e-001
      1.77734032e-001 1.21492498e-001 -1.56302333e-001 -1.05299003e-001
      -4.12953086e-002 -5.36499992e-002 -1.06301086e-004 7.10539818e-002
      2.09294692e-001 1.69543371e-001 2.71638092e-002 -6.05468303e-002
      -1.13599963e-001 4.05250899e-002 1.96456965e-002 -9.88615900e-002
      -8.03177431e-003 7.76439309e-002 -4.82421182e-002 -4.73837554e-003
      -1.92353413e-001 -8.85156095e-002 2.03768965e-002 -5.51236002e-003
      -9.13091749e-002 6.92375824e-002 4.80616055e-002 1.27544701e-001
      1.30108679e-002 -5.80787063e-002 -8.63684863e-002 1.37321532e-001
      1.65181354e-001 -2.16626935e-002 2.98209372e-003 -7.80900568e-002
      -1.57591090e-001 5.13757579e-002 -1.12951174e-001 -3.47639993e-002
      9.47145298e-002 7.10043535e-002</_>
    <_>
      9.20800343e-002 7.07158521e-002 -7.69251734e-002 -3.41480263e-002
      7.18489289e-002 -7.84096792e-002 2.82479934e-002 6.51750490e-002
      2.39494517e-002 5.50705455e-002 1.04201101e-001 4.18991782e-002
      -8.04177485e-003 1.15609966e-001 -1.19039997e-001 9.39173922e-002
      7.69674331e-002 7.54312519e-003 8.97710919e-002 3.73961292e-002
      -1.06461845e-001 -1.21080048e-001 -5.53136803e-002
      -5.92478961e-002 7.06458418e-003 7.65699744e-002 6.67050108e-002
      -6.32894710e-002 -3.41785923e-002 -8.09183195e-002
      -6.06078580e-002 3.26947635e-003 8.89117643e-002 -4.12429981e-002
      -3.46784219e-002 -3.95367891e-002 5.23472801e-002 1.41179170e-002
      -6.49751499e-002 -1.60550803e-001 -6.44576326e-002
      -1.10217296e-001 -9.59398970e-003 1.00968130e-001 5.93499243e-002
      -2.53722798e-002 -3.08855344e-002 -1.32444054e-001
      -4.41754796e-002 -2.40343940e-002 3.03249490e-002 2.43361667e-002
      2.43879482e-003 4.26963940e-002 -1.77232046e-002 1.03205433e-002
      -1.23107955e-001 -1.83243945e-001 -1.39735974e-002
      -5.45212999e-002 7.87396133e-002 4.61329371e-002 3.16151455e-002
      -3.98108996e-002 -4.98424433e-002 -1.14318930e-001
      -1.43052442e-002 -4.93642734e-003 -1.32505186e-002 1.02769531e-001
      5.60115837e-002 6.00345060e-002 -3.60336751e-002 -9.53457877e-003
      -8.68913829e-002 -2.14366987e-001 -3.02632656e-002
      -3.72347906e-002 1.45422623e-001 -3.10556181e-002 5.08950911e-002
      -1.13500077e-002 -9.74926576e-002 -8.92029703e-002
      -3.08155473e-002 3.88556793e-002 4.70097810e-002 1.52330309e-001
      -3.99370044e-002 5.54039776e-002 2.09914818e-002 -4.76172939e-002
      -2.87035517e-002 -2.07243755e-001 9.92931891e-003 1.35539025e-001
      8.46842900e-002 9.54047404e-003 1.45093969e-003 3.47414357e-003
      -8.21914226e-002 -3.85740702e-003 -4.83370386e-002 5.66527583e-002
      8.98318663e-002 -2.91583240e-002 -6.59707263e-002 -2.33039493e-004
      3.58544141e-002 -3.93880606e-002 -4.23530908e-003 -7.16272593e-002
      7.46655613e-002 5.98104484e-002 -4.89714481e-002 -5.41903414e-002
      -3.58654410e-002 1.12091675e-002 -9.45024788e-002 4.44333218e-002
      -4.95217629e-002 -2.51694233e-003 4.18480746e-002 -4.06641290e-002
      -1.15017377e-001 -1.89202540e-002 7.90649876e-002 -1.55879632e-001
      2.06613634e-003 1.27560098e-003 4.49669473e-002 -3.51921208e-002
      -9.33566093e-002 -9.59448218e-002 6.64885119e-002 8.54147151e-002
      -8.27589780e-002 1.04392171e-001 7.87818581e-002 2.75797099e-002
      -8.60681012e-002 -2.32344773e-002 -7.57251009e-002
      -5.69742844e-002 4.58268970e-002 -6.39379919e-002 2.90044807e-002
      3.15109901e-002 7.19865263e-002 -7.21392855e-002 -1.17914595e-001
      -1.21122807e-001 -3.61355394e-002 7.31113227e-003 -2.00901888e-002
      6.96866959e-002 4.41176370e-002 6.92441687e-002 -4.14367206e-002
      -7.97739923e-002 -1.94933861e-002 -1.18091665e-002
      -1.34874443e-002 -1.06405750e-001 -5.85800745e-002 2.20332909e-002
      8.33582878e-002 5.98227605e-002 -1.24135286e-001 -1.42810628e-001
      -7.31360614e-002 -6.78526089e-002 -9.54660103e-002
      -3.74512114e-002 3.15963812e-002 5.39689735e-002 9.17523056e-002
      -4.69773449e-002 -9.81752425e-002 -4.34886664e-002
      -6.65341690e-002 -5.92737570e-002 -9.26863775e-002
      -6.41513169e-002 3.28810699e-002 9.49314237e-002 5.35112768e-002
      -2.41853837e-002 -4.95245010e-002 -5.56395538e-002 3.15814875e-002
      -2.38042697e-002 -8.67793113e-002 -3.18747386e-002 4.99419421e-002
      6.72915131e-002 -1.38800200e-002 -2.21680254e-002 -7.30505362e-002
      1.67487748e-002 -1.64776035e-002 7.97214918e-003 -2.54603103e-002
      2.54464634e-002 1.20990044e-002 8.31882376e-003 -1.13220409e-001
      -6.72039762e-002 3.51667479e-002 1.12971462e-001 7.48137990e-003
      2.53100134e-002 -1.79384649e-002 -1.47565892e-002 7.26226792e-002
      1.24656479e-003 -2.82343738e-002 -1.35048991e-003 7.76943713e-002
      -9.11898736e-004 7.24730790e-002 -5.66231422e-002 -1.45494323e-002
      2.82754935e-002 -3.48792858e-002 -6.49271160e-002 -5.42231277e-002
      1.83711082e-001 1.35005161e-001 1.07253850e-001 -9.52335000e-002
      -1.22144274e-001 -3.84120531e-002 5.11016371e-003 -4.83894236e-002
      -5.56925200e-002 -2.08931658e-002 -4.74284478e-002 2.37634759e-002
      -3.26354057e-002 -4.36608866e-002 9.25563276e-003 3.17530409e-002
      -1.11155853e-001 -6.19415306e-002 -1.66525859e-002 9.77136269e-002
      2.43157260e-002 -5.47059923e-002 -1.42244905e-001 -3.80787328e-002
      -1.08135622e-002 -3.51854637e-002 -3.84507701e-002
      -8.94803647e-003 -1.80136170e-002 -5.12724295e-002
      -1.48610398e-002 -2.28167232e-002 -1.01414137e-002 9.22855735e-003
      -6.91517889e-002 -8.19406807e-002 -1.81296635e-002 6.88953698e-002
      -9.07029863e-003 5.96370958e-002 -3.89396288e-002 6.32818490e-002
      -1.11644506e-003 4.73464131e-002 -5.82450266e-005 -7.61531815e-002
      -9.12331343e-002 -4.97522205e-002 -6.51331171e-002
      -5.43281063e-002 -1.53253796e-002 -4.51623602e-003
      -4.48961854e-002 -2.90291640e-003 -7.19775259e-002 1.23638071e-001
      -1.67301018e-002 9.01006386e-002 6.03990555e-002 5.63698746e-002
      -4.07654606e-003 3.97176445e-002 1.09133773e-001 -9.91964862e-002
      -8.29359144e-002 -9.06885266e-002 -5.39711267e-002
      -2.99109388e-002 -4.48526517e-002 -5.22148274e-002
      -2.94331107e-002 1.28841652e-002 -7.16917887e-002 9.36545581e-002
      -3.28670070e-002 1.27770111e-001 4.91354428e-002 1.08801657e-002
      -2.12947167e-002 -1.12919971e-001 5.91108836e-002 -4.91932891e-002
      9.57043245e-002 5.54050282e-002 3.72104309e-002 -2.22583190e-002
      -1.00212060e-001 -1.86502561e-001 -5.95516749e-002 2.11122949e-002
      4.73329506e-004 4.71983813e-002 4.43159649e-003 1.82227165e-001
      7.05886185e-002 -7.86488652e-002 -7.89441615e-002 -1.77939311e-001
      -1.39125530e-002 -8.89014006e-002 -7.42201731e-002 1.88725665e-002
      2.20110342e-002 2.91654710e-002 -7.34990984e-002 -2.09391952e-001
      -8.64599645e-002 2.22516153e-002 -4.75165360e-002 5.23031503e-003
      3.93026061e-002 1.71491563e-001 1.11225083e-001 -2.21564639e-002
      -1.38463274e-001 -9.74397063e-002 -4.30496112e-002
      -2.95015108e-002 -4.20130268e-002 6.93462715e-002 3.49617153e-002
      6.65047020e-002 3.33515778e-002 -3.28285918e-002 -1.62242934e-001
      -3.41846459e-002 -7.81509280e-002 1.11115716e-001 6.95521533e-002
      9.03645828e-002 5.52334748e-002 -5.62748238e-002 -1.36104375e-001
      -9.25276652e-002 -6.74202070e-002 -5.00442982e-002
      -3.72804850e-002 1.80701271e-001 5.01757599e-002 7.54383802e-002
      -9.53331473e-004 -3.96097898e-002 -2.34486476e-001
      -1.56605661e-001 -9.23247561e-002 2.11788908e-001 1.78315669e-001
      1.57405987e-001 -4.47085313e-003 -1.71573386e-001 -1.65710807e-001
      -6.00774474e-002 -2.01822910e-002 3.43907289e-002 -1.58096924e-002
      1.85280219e-001 -1.29888922e-001 -5.10222986e-002 -3.05419751e-002
      -6.27610609e-002 -3.16596448e-001 -1.90727532e-001 6.56275749e-002
      1.57901555e-001 5.28546870e-002 6.06132373e-002 -1.06286407e-001
      -1.80300355e-001 -1.84796005e-001 1.07789980e-002 1.40648719e-003
      2.67537404e-002 4.10252996e-002 1.31839797e-001 -9.43069682e-002
      -1.08627215e-001 -1.54535389e-002 3.62122469e-002 -7.92903975e-002
      -6.31878972e-002 8.44435170e-002 6.89465925e-002 -1.94252818e-003
      -1.17756464e-002 -1.54053435e-001 1.17446501e-002 2.72594057e-002
      9.99424513e-003 3.38207552e-004 2.51927581e-002 -8.79081339e-002
      3.95836569e-002 -4.47989963e-002 -8.58300403e-002 -4.08261195e-002
      2.20575947e-002 5.53097837e-002 4.45972830e-002 6.94617629e-002
      -3.67927216e-002 -2.67486572e-002 5.75208440e-002 -4.95943092e-002
      8.51618424e-002 5.87145239e-002 -5.60766459e-002 4.51949947e-002
      6.33072406e-002 -1.48970664e-001 -5.37108146e-002 -3.64453867e-002
      3.56425941e-002 -2.92912144e-002 -4.67125699e-002 5.64065166e-002
      1.12754211e-001 1.23871438e-001 -4.26298529e-002 -5.02329431e-002
      1.17084980e-001 -4.60548326e-003 -5.65013513e-002 1.64757029e-003
      -7.91143924e-002 1.39709130e-001 1.14990875e-001 -1.96352735e-001
      -4.46471758e-002 -6.59582540e-002 1.05922766e-001 -1.10432928e-004
      -1.49329938e-002 1.03194993e-002 1.68944150e-001 1.63400009e-001
      3.80984992e-002 -6.05447665e-002 4.80343178e-002 1.30614325e-001
      -4.81857322e-002 4.68294770e-002 -7.70263448e-002 7.43806362e-002
      4.58543748e-002 -8.80230963e-002 3.73055786e-002 -9.09990072e-002
      4.76949587e-002 1.79555025e-002 1.84291787e-002 1.21144438e-002
      7.62538090e-002 1.12645619e-001 1.27926648e-001 2.04007886e-002
      -1.12432629e-001 1.02966741e-001 5.83005473e-002 1.15285702e-001
      -5.34291826e-002 -9.73445475e-002 -9.58611667e-002 2.02743839e-002
      7.61717511e-003 -1.19525731e-001 -2.65744217e-002 2.10981406e-002
      -6.04340695e-002 -1.71486083e-002 -9.56627801e-002
      -4.65074442e-002 7.33051524e-002 -5.75525202e-002 -2.01348737e-001
      -3.96018522e-003 5.37259541e-002 -7.70315230e-002 6.11736141e-002
      3.35890241e-002 -3.28318179e-002 3.69332768e-002 -4.35761809e-002
      -1.56433955e-001 -1.82847362e-002 3.46352905e-002 1.44443028e-002
      1.30333900e-001 1.11789711e-001 6.04545558e-003 8.49026591e-002
      -1.03788756e-001 -1.26482427e-001 4.95173000e-002 1.36902124e-001
      5.92020303e-002 1.92469418e-001 7.06333220e-002 9.59864538e-003
      -6.93579391e-002 -6.89423382e-002 -1.46038249e-001
      -7.21892482e-003 5.37697561e-002 1.94112971e-001 1.70158073e-001
      1.37796700e-001 6.19330667e-002 -1.03599004e-001 -1.06988631e-001
      -7.30881169e-002 -1.05920464e-001 1.22619972e-001 9.44181457e-002</_>
    <_>
      -4.89386022e-002 -1.21784108e-002 -1.57769859e-001 5.45298420e-002
      -3.09669897e-002 1.00371473e-001 3.52403522e-002 5.17886765e-002
      -1.86711717e-002 4.43271920e-003 5.66495955e-002 -5.41438609e-002
      4.46963012e-002 -5.55184074e-002 2.73764273e-003 -5.73485121e-002
      -9.13331751e-003 -1.82707384e-002 6.61715940e-002 -2.19168868e-002
      -1.32816955e-001 6.79556951e-002 -6.22864775e-002 8.81229788e-002
      -2.30760872e-002 3.11417077e-002 1.17979497e-001 -6.48671985e-002
      -3.04278266e-002 -6.98169097e-002 2.89343521e-002 -1.07150100e-001
      6.67384565e-002 -5.33477366e-002 -7.71717429e-002 -7.98642933e-002
      2.69620586e-002 2.30692513e-003 -2.61949766e-002 4.28716280e-003
      -7.00571686e-002 4.78447489e-002 2.06476613e-003 5.81335537e-002
      1.53892515e-002 -3.43625806e-002 9.26338881e-003 -8.72915015e-002
      -1.90866273e-002 -6.80752993e-002 -4.06982144e-003 1.87840164e-002
      -6.84010535e-002 -2.88920794e-002 -3.49026397e-002
      -4.17648703e-002 -6.37605265e-002 5.40218083e-003 -4.25919667e-002
      1.07252970e-001 1.14343144e-001 7.55035207e-002 -4.58901674e-002
      1.66336372e-002 -7.95013458e-002 -1.88881680e-001 -7.73554528e-003
      -3.69074680e-002 -6.74031526e-002 4.25687730e-002 6.28574239e-003
      1.29798893e-002 -6.04516715e-002 -2.58996505e-002 -3.55209783e-002
      -2.48112064e-002 -3.99378948e-002 5.90733513e-002 7.08961114e-002
      -1.58201512e-002 -2.69257482e-002 4.20048423e-002 -2.49707587e-002
      -1.40990824e-001 3.76676135e-002 -1.91968810e-002 -2.93319151e-002
      8.99194926e-002 -2.99305394e-002 -4.57818247e-002 -1.38139769e-001
      6.97460920e-002 -1.69698037e-002 -1.66815184e-002 -2.11989433e-002
